%YAML:1.0
opencv_ml_ann_mlp:
   format: 3
   layer_sizes: [ 48, 3 ]
   activation_function: SIGMOID_SYM
   f_param1: 6.6666666666666663e-01
   f_param2: 1.7159000000000000e+00
   min_val: -9.4999999999999996e-01
   max_val: 9.4999999999999996e-01
   min_val1: -9.7999999999999998e-01
   max_val1: 9.7999999999999998e-01
   training_params:
      train_method: BACKPROP
      dw_scale: 1.0000000000000000e-03
      moment_scale: 0.
      term_criteria:
         iterations: 10000
   input_scale:
      - 5.7778599726011104e-01
      - -2.6194049615827653e+00
      - 1.4748874349551434e+01
      - -1.1667743092702667e+01
      - 8.1153726713479504e+00
      - -8.1914384421570952e-01
      - 1.0856893275195494e+00
      - -4.0119775151393968e+00
      - 1.1042668743533385e+01
      - -7.4920255974013088e+00
      - 5.1320584018850832e+00
      - -9.8475762899354857e-01
      - 2.9670976123294646e-01
      - -2.6586410192921104e+00
      - 8.0491337439466832e+00
      - -4.7564337606069707e+00
      - 7.9223221539255686e+00
      - -7.2763175143010994e-01
      - 8.6827019344085044e-01
      - -3.5200932591154541e+00
      - 5.9875918275349260e+00
      - -3.2553966897220650e+00
      - 4.8554770672354941e+00
      - -8.2970749696618329e-01
      - 2.7770873755756603e-01
      - -1.4122042927922109e+00
      - 6.6558157659025952e+00
      - -5.2246916500259566e+00
      - 7.4211611695846154e+00
      - -7.5957024938200790e-01
      - 8.3621493716569362e-01
      - -3.1863772051376373e+00
      - 5.2636145937404155e+00
      - -3.4155428486461772e+00
      - 4.8097241269968398e+00
      - -8.8208225735917500e-01
      - 2.9046546645391214e-01
      - -2.6101259916562545e+00
      - 7.6986508841213412e+00
      - -4.5342997895255088e+00
      - 7.9344527702974021e+00
      - -7.2808134977482208e-01
      - 8.6787224416854891e-01
      - -3.5171412299898419e+00
      - 5.9549124086837910e+00
      - -3.2333636530554282e+00
      - 4.8533084646489941e+00
      - -8.2775768668128091e-01
      - 1.9890819840795868e-01
      - -2.4170202349174756e+00
      - 6.5187581167903996e+00
      - -2.7173578150473761e+00
      - 9.2612911032364309e+00
      - -7.4670234038408945e-01
      - 9.7578725761202756e-01
      - -3.9214646568014340e+00
      - 9.2988501958647856e+00
      - -5.1775769063951094e+00
      - 5.3917965865641948e+00
      - -8.7816537151969376e-01
      - 1.7329054571051269e-01
      - -3.3183889318458295e+00
      - 8.3109883117007382e+00
      - -5.1714394923095353e-01
      - 8.9156968760410482e+00
      - -6.9994105959016273e-01
      - 8.4563678192315894e-01
      - -3.5511342246757858e+00
      - 5.8451743614092591e+00
      - -2.6202218271131881e+00
      - 5.1115725283912319e+00
      - -7.7240474002780535e-01
      - 1.5933571005596997e-01
      - -1.5578873790943897e+00
      - 3.7183542770186144e+00
      - -2.1553536643340316e+00
      - 7.8918812366457347e+00
      - -7.2792043242836768e-01
      - 8.2367019448718137e-01
      - -3.3138054119746285e+00
      - 4.7483417872096965e+00
      - -2.6733316448191169e+00
      - 4.8967377669611363e+00
      - -8.3815188190444745e-01
      - 1.7199761559509863e-01
      - -3.2692668572756065e+00
      - 7.8951369587096023e+00
      - -5.5061943731382013e-01
      - 8.9500773637589859e+00
      - -7.0056753046897469e-01
      - 8.4639004789293548e-01
      - -3.5523738009464192e+00
      - 5.8511428285991407e+00
      - -2.6212370017767221e+00
      - 5.1052893679682638e+00
      - -7.6609906245840642e-01
   output_scale:
      - 5.2631578947368418e-01
      - 4.9999999999999994e-01
      - 5.2631578947368418e-01
      - 4.9999999999999994e-01
      - 5.2631578947368418e-01
      - 4.9999999999999994e-01
   inv_output_scale:
      - 1.8999999999999999e+00
      - -9.4999999999999996e-01
      - 1.8999999999999999e+00
      - -9.4999999999999996e-01
      - 1.8999999999999999e+00
      - -9.4999999999999996e-01
   weights:
      -
         - -6.4690466261465762e-01
         - 3.0363441133057789e-01
         - 6.4550224000540468e-01
         - 2.0088027231723624e-01
         - 7.6827846075884010e-01
         - -4.9056690072376646e-01
         - -4.4047035016257358e-01
         - 6.9854732964696653e-01
         - 9.7404624148525498e-01
         - -8.9160711889511390e-01
         - -4.7879934493026327e-01
         - 1.3911696082702596e+00
         - -1.3125047761615289e+00
         - 6.1021268562192299e-01
         - 1.0314000152632567e-01
         - 1.2647679393356006e-02
         - -7.9772747661160759e-01
         - 1.9964629543767187e-01
         - 7.8423724283159790e-01
         - -4.8088581511322964e-01
         - -6.6197444630505919e-01
         - -1.5027885539598124e-01
         - -4.1594256729904321e-02
         - -8.0664109488294478e-01
         - -4.3715878261838692e-01
         - -5.2526781415513835e-01
         - 1.8600702323227850e-01
         - 5.8595481523270010e-01
         - 6.1429835783039466e-01
         - 2.7711432174097422e-01
         - 1.0568037045379457e+00
         - -4.1000904266603672e-01
         - 6.8691858556543650e-01
         - 8.0370694986321900e-01
         - 6.8120317188521551e-01
         - 7.2464804815734540e-01
         - -6.8852437746424922e-01
         - -6.7035819772961791e-01
         - 1.2141422871980725e+00
         - -4.2223620780701815e-01
         - -3.0317268791513052e-01
         - 1.2150271445473351e-01
         - -3.4440997830393472e-01
         - 1.5389807344775358e-01
         - 4.9704392931382797e-02
         - -8.5963693936996954e-01
         - -4.5359662368701736e-01
         - 9.2318100690619387e-01
         - 3.9178460629857519e-02
         - -8.5609561431815073e-01
         - 1.3905488809278663e-01
         - 5.4404669682177820e-01
         - 8.6543352463583934e-01
         - -4.2647436265667815e-01
         - -1.8827783396295633e-01
         - 2.7194586502490647e-01
         - -3.3392211022415952e-01
         - -3.7979065320249084e-01
         - -6.6377548582837842e-01
         - 1.8581314515064884e+00
         - 7.4977401821967993e-01
         - -6.0784506333174915e-01
         - -3.5180173153015021e-01
         - -6.9242501575249182e-01
         - -5.6939176754990661e-01
         - 5.7922685873438184e-01
         - -5.3235626850470098e-02
         - -2.0366751253987170e+00
         - 1.5329628679252039e+00
         - -5.6978797867112949e-02
         - 7.3394448429613668e-01
         - -1.7378008544041096e-01
         - 3.3636249512536881e-01
         - -1.4712958334382957e+00
         - 1.0818143066806376e+00
         - -8.0876892075787160e-02
         - 1.3901165118760492e+00
         - -1.2064000424412866e+00
         - -6.9707025626392505e-01
         - 2.6978684717816626e-01
         - -3.2251001708188709e-01
         - -1.0382200966573072e+00
         - 9.2096095341231726e-02
         - 1.9609575956611943e-02
         - 6.2945862911825112e-01
         - -6.9324002634531701e-01
         - -8.5457863553901850e-02
         - -1.6399409188186856e-01
         - 6.5125418091581322e-01
         - -3.2801811684357696e-01
         - -3.9874231978442243e-01
         - 1.3106226629997821e+00
         - -1.5081743298275538e+00
         - 1.7461781247078001e-01
         - -1.9447967635609007e+00
         - 1.5591566452298844e+00
         - 2.0067785346076904e-02
         - -5.2290277214798220e-01
         - 7.2693467368107567e-01
         - 2.0968155183831613e-01
         - -1.6687118008704879e-01
         - 3.8290253326888102e-01
         - 3.7718914681686061e-01
         - -1.0887567317375824e+00
         - 1.5075856044337537e+00
         - 3.4584059649935397e-02
         - -1.7820520091751751e-01
         - -1.6734593564058239e-01
         - 5.3371357934730738e-02
         - -1.7168355859060758e+00
         - 1.7464276088472062e+00
         - 5.1743795662757419e-01
         - 2.2845755813472168e+00
         - -1.7107671300048537e+00
         - 5.4226892703651408e-01
         - 3.4960667184792765e-02
         - 6.9698636963868732e-01
         - 4.5045907734928581e-01
         - -7.7246127912822615e-01
         - 1.3067335572671388e+00
         - -2.5500626312097752e-01
         - 2.9726375463017685e-01
         - -5.2078107682970276e-01
         - -1.2512401250997351e-01
         - 1.1961056695430708e-01
         - -1.3443028446533472e+00
         - 6.8566180866437842e-01
         - 1.7477613045619464e-01
         - -2.3431438987770692e-01
         - 9.8822999580295390e-02
         - 7.9928397004584339e-01
         - -9.8257431159315944e-01
         - -6.1166030149057815e-01
         - -1.3834069067147042e-01
         - 2.9801030187936561e-01
         - 7.8702567713640392e-01
         - -3.0989578569982484e-01
         - 2.9068583949637672e-01
         - 9.3038921742744751e-02
         - -9.1534114106811126e-01
         - 1.0852447368518163e+00
         - 4.5782462801939622e-02
         - -7.3884616330552488e-02
         - -1.0156951881573395e+00
         - -5.9100411104125383e-01
         - -7.8501131856058604e-01
         - -6.8280249522799263e-01
