%YAML:1.0
opencv_ml_ann_mlp:
   format: 3
   layer_sizes: [ 48, 48, 3 ]
   activation_function: SIGMOID_SYM
   f_param1: 6.6666666666666663e-01
   f_param2: 1.7159000000000000e+00
   min_val: -9.4999999999999996e-01
   max_val: 9.4999999999999996e-01
   min_val1: -9.7999999999999998e-01
   max_val1: 9.7999999999999998e-01
   training_params:
      train_method: BACKPROP
      dw_scale: 1.0000000000000000e-03
      moment_scale: 0.
      term_criteria:
         iterations: 100
   input_scale:
      - 4.7417615414290432e-01
      - -2.4601424086968215e+00
      - 1.4687486238942698e+01
      - -1.1710435469670184e+01
      - 8.9783312968639741e+00
      - -8.3660573202247590e-01
      - 1.1681075985650411e+00
      - -4.3344156384598937e+00
      - 1.0139416845768755e+01
      - -6.9156403816182799e+00
      - 5.7536281773211071e+00
      - -1.0221421258497549e+00
      - 4.2577354543209656e-01
      - -3.7294270853685143e+00
      - 1.0566759730177012e+01
      - -6.8022625066311635e+00
      - 8.7241868116671935e+00
      - -7.3891243467400747e-01
      - 9.5492783229099742e-01
      - -3.8640135968872076e+00
      - 6.3568211598644098e+00
      - -3.5582263902055740e+00
      - 5.4257234075164567e+00
      - -8.6551955582091644e-01
      - 3.5970212462140783e-01
      - -1.4910784677463915e+00
      - 8.3556837654617055e+00
      - -6.9369284532195259e+00
      - 8.3846340755360984e+00
      - -7.9713607647239437e-01
      - 9.5300774685603684e-01
      - -3.5669328321714149e+00
      - 6.1383657612833309e+00
      - -4.1560439666327511e+00
      - 5.6081296227282627e+00
      - -9.7436136653338801e-01
      - 4.0412634681662213e-01
      - -3.5398046051624745e+00
      - 9.9283972076436058e+00
      - -6.3945552805155863e+00
      - 8.8435739429999902e+00
      - -7.4197949591123058e-01
      - 9.6209188688558978e-01
      - -3.8908251393391065e+00
      - 6.4014084581415567e+00
      - -3.5743949934543306e+00
      - 5.4564583605625465e+00
      - -8.6520462503217210e-01
      - 1.6095168549971836e-01
      - -2.3092148494259677e+00
      - 7.2855965114891417e+00
      - -2.8848343055574470e+00
      - 1.0202620469119601e+01
      - -7.4573143735973146e-01
      - 1.0389618128862377e+00
      - -4.2163623258600147e+00
      - 8.7720302037872777e+00
      - -4.8173885001684900e+00
      - 5.9274520878639558e+00
      - -8.9785050384158160e-01
      - 1.7502772931042998e-01
      - -3.5685235265609858e+00
      - 8.1599013606571003e+00
      - -7.4907564159290441e-01
      - 9.6831576668138677e+00
      - -6.9561603140926187e-01
      - 9.0528484688344457e-01
      - -3.8172671789760590e+00
      - 5.9338167772074835e+00
      - -2.6636714038075051e+00
      - 5.5447492008192434e+00
      - -7.8227842983754070e-01
      - 2.0440671617114958e-01
      - -1.7577478628592758e+00
      - 4.2514349516079371e+00
      - -2.7138139089530977e+00
      - 8.7933766609534718e+00
      - -7.5197906956041360e-01
      - 9.1408318996246796e-01
      - -3.6423312001128756e+00
      - 5.2354056231106281e+00
      - -3.0554677206905234e+00
      - 5.5923118438247243e+00
      - -9.0874155959532688e-01
      - 1.6755550409077097e-01
      - -3.3676077591883646e+00
      - 7.8736091671416073e+00
      - -8.4705728575430017e-01
      - 9.9948397573166936e+00
      - -7.0255914360346983e-01
      - 9.1282300385625270e-01
      - -3.8472638135041928e+00
      - 6.1012655575809118e+00
      - -2.7377258847750885e+00
      - 5.6052261161733901e+00
      - -7.7285127216117133e-01
   output_scale:
      - 5.2631578947368418e-01
      - 4.9999999999999994e-01
      - 5.2631578947368418e-01
      - 4.9999999999999994e-01
      - 5.2631578947368418e-01
      - 4.9999999999999994e-01
   inv_output_scale:
      - 1.8999999999999999e+00
      - -9.4999999999999996e-01
      - 1.8999999999999999e+00
      - -9.4999999999999996e-01
      - 1.8999999999999999e+00
      - -9.4999999999999996e-01
   weights:
      -
         - -8.0302165401536698e-03
         - 2.6043973378302891e-02
         - 2.8806907014772926e-02
         - 2.2784111829800738e-02
         - 2.1554535108423898e-02
         - 3.3514933835873492e-02
         - -9.7528910284178771e-03
         - -3.0589071702041667e-02
         - -4.3048691033501611e-02
         - 1.1761520109000188e-02
         - 2.0483339553661814e-02
         - 3.3045841746365783e-04
         - 1.3740266809936553e-02
         - 2.3402847286849368e-02
         - 5.3171715342773589e-02
         - -3.0597862671079022e-02
         - 3.0403117415491929e-02
         - -7.7848991982790591e-02
         - 4.1080689152703694e-02
         - -5.6581965025573708e-02
         - -7.2891069245382429e-03
         - -8.7830797189724884e-03
         - 1.5651549195623230e-03
         - 7.7132076461041740e-02
         - 4.5817913947286411e-02
         - 1.6037554880376965e-02
         - 6.0266071765290252e-02
         - -3.3968934554957884e-02
         - 3.7819335770481251e-02
         - 3.2232909301076439e-02
         - -2.9121960092334909e-02
         - -3.8962242050592649e-02
         - 1.4172158390168624e-02
         - 9.2807847270720598e-02
         - -1.4747325058374519e-02
         - -3.7091570521599379e-02
         - -2.2613229662795848e-02
         - -2.5721691519283968e-02
         - 2.2911853166520640e-02
         - 8.5858422839799192e-02
         - 4.7236407249632462e-02
         - -1.2646257529208163e-02
         - 4.2000227249304654e-02
         - -4.4479741053292790e-02
         - 3.4282473923641407e-02
         - 2.8374641399932621e-02
         - -1.8505824161359166e-02
         - -4.5371251504974563e-02
         - -1.0739020147311698e-02
         - -2.7969613781166167e-02
         - -1.2884040975788118e-02
         - 1.6105160738329849e-02
         - 1.0520339693242732e-02
         - -4.1184807962614776e-03
         - 2.8654911550273093e-02
         - 6.3259397911752127e-02
         - 3.4186753957305874e-02
         - -6.0206254800430424e-02
         - -5.2023853893268864e-02
         - -1.9570463922217847e-04
         - -1.9970903368281574e-03
         - 1.0431816991313441e-02
         - -5.9550180196310414e-02
         - 5.2844667980486856e-02
         - 4.7173233731268513e-03
         - 3.0744718907950674e-02
         - -1.9942109144980451e-02
         - 9.1690800789538379e-03
         - 2.4694815482731006e-02
         - -3.5485970814398360e-02
         - -3.7417140994005567e-02
         - -5.2071467361647090e-02
         - -5.2591362596351957e-02
         - 3.6635520080121317e-02
         - -3.5766459308659015e-02
         - -2.4941901123012981e-02
         - -2.3967956868524442e-02
         - -2.9531516327452736e-02
         - 6.7561511186850207e-02
         - 8.9592905876018869e-02
         - -2.7702146563691611e-02
         - -9.7899250255836914e-02
         - -1.9946904388338859e-02
         - 1.3119434704472251e-02
         - -3.8008200588280439e-03
         - -8.7113684747298463e-03
         - -5.7835208183515167e-02
         - -7.9071927651513094e-02
         - -4.0450956982978140e-03
         - -5.4301249528663095e-02
         - -4.7470046360210481e-02
         - 3.7895560248812965e-02
         - -2.8876625923067157e-02
         - 1.9684916957819973e-02
         - -4.1561611459541015e-03
         - 3.5118983242089521e-02
         - -6.9515504533548666e-03
         - 1.5541734275193351e-02
         - 1.7297849043531537e-02
         - 9.5284206390494827e-03
         - 2.9294012145442305e-02
         - 8.2990559873860042e-03
         - -6.4564100259094934e-03
         - 1.0979099070181334e-02
         - -1.9520221358115826e-02
         - -1.4592149169886704e-02
         - -2.5607971127543924e-02
         - 1.2160083133416954e-03
         - 2.4999585155756100e-02
         - 2.8545847529408662e-02
         - -2.4025275871864454e-02
         - 4.3180676511718974e-02
         - -2.5168782487121722e-02
         - -1.5655272238247087e-02
         - 4.7397924343889175e-02
         - -3.5912467858204962e-02
         - -3.4612239489804396e-03
         - 4.0800363961130653e-02
         - -4.3124472666017120e-02
         - -7.4864310079648024e-03
         - -4.2046111027290778e-02
         - 1.7553624435684808e-02
         - -6.0681465980841134e-03
         - -1.2253875856107991e-02
         - -1.7435721660886583e-02
         - 9.1514228044599129e-03
         - -3.5321107662869625e-02
         - 2.7534052411056088e-02
         - 6.4817637949475433e-03
         - 1.8755925479819923e-02
         - 4.0380253033727311e-02
         - 4.1121144050201293e-02
         - -2.8967438322165015e-02
         - 2.3774842104882413e-02
         - -2.0567455838853138e-02
         - -2.7460241414041461e-02
         - -1.2765524841160541e-02
         - 2.0392967999769283e-02
         - 4.4034870133188277e-02
         - -3.8012823218027514e-02
         - 1.6251620009674493e-03
         - 2.9648413773483484e-02
         - 4.8941637044137591e-03
         - 4.2273860625681899e-02
         - -3.6773349624885619e-02
         - 1.0143959092999526e-02
         - 6.6004848947735548e-02
         - 2.8241656544436340e-02
         - 2.7871666775191688e-02
         - 5.5914115721005513e-02
         - -2.6952795245657529e-03
         - -6.1259198878668066e-03
         - -4.1903686444717718e-03
         - 4.9393228968361444e-02
         - -2.8241893748982907e-02
         - -2.9001740666449914e-02
         - -1.2507070249566581e-02
         - -3.6368126118469055e-02
         - 9.1217343491910262e-03
         - -5.3977115812934788e-02
         - 1.5603866896697582e-02
         - -4.1516207055823148e-03
         - -4.0491180861499367e-02
         - -2.8857234510716770e-02
         - 1.4590973188047415e-02
         - 6.5081719605819708e-03
         - 3.1186288422379589e-02
         - 4.4684266933141668e-02
         - -1.1642433136922202e-02
         - -3.0533617691041914e-02
         - -6.2201715342328513e-04
         - 2.4061406093932106e-02
         - -2.3098221734185860e-02
         - -3.0656446704770517e-02
         - -3.2256260937276911e-02
         - -1.0257710079870482e-02
         - 3.0397460688731254e-02
         - 7.8977326085740207e-02
         - -2.4103271527478223e-02
         - 6.0227598396853047e-03
         - 2.1887977946393272e-02
         - -1.0265866038776991e-02
         - -1.0542192333737181e-02
         - 3.5510456481790707e-02
         - 1.6404190425768850e-02
         - -5.8477025948892904e-03
         - 3.9185861589752322e-03
         - -5.0763972334504040e-02
         - 2.9158357697465335e-02
         - 1.5785310774641497e-02
         - -3.2168697869622238e-02
         - -6.4435383038066018e-03
         - -3.8934425541262273e-02
         - -8.1680687878026553e-03
         - -1.7792531526260730e-02
         - 3.6237358269024911e-02
         - 1.2642847424973557e-02
         - 3.0483305603736320e-02
         - -2.5374712668251535e-02
         - 5.7160250423574512e-02
         - 1.1674739250765087e-03
         - -6.1115720755499037e-02
         - -3.9604603699727563e-02
         - 3.5930661937323537e-03
         - 3.6273736110109422e-02
         - 3.1186016852412460e-02
         - -4.8893085733780666e-03
         - 1.0212492261453716e-01
         - -5.4578028400928583e-02
         - 4.3336520038649330e-02
         - 5.1658022792724849e-02
         - 3.7576591280609993e-02
         - 1.6809446957254091e-02
         - -2.0592370014711269e-02
         - -2.9664306538000298e-02
         - -1.0296763531848277e-03
         - -6.9687961823632662e-03
         - -2.1729440189045924e-02
         - 1.6956864766817705e-02
         - -1.6598295381562014e-02
         - 4.1825334085075338e-03
         - -1.7043884135419313e-02
         - 7.3794435681995382e-02
         - 6.6678961816506413e-02
         - 1.7332525864666010e-02
         - -1.1680394623574052e-01
         - -1.3056372743386457e-02
         - -6.6794162860606757e-03
         - 3.2762336336096522e-02
         - -7.8707164013053742e-03
         - -6.2309995054825838e-02
         - -9.6072160206826573e-02
         - -3.4927242391192388e-02
         - -6.6665094526382807e-02
         - -4.9764173080731354e-02
         - 6.2639917636699807e-02
         - 1.5680239600012035e-02
         - 4.1045631963322442e-02
         - 2.2029422523707678e-03
         - 1.2874229410800894e-01
         - -1.0817313213382668e-02
         - -4.9149182737125825e-02
         - 1.0928402461648837e-02
         - -6.4453573025422531e-03
         - -4.9514711522449057e-03
         - 5.8205028650482448e-03
         - -1.0220782308528804e-02
         - 2.7897490229354734e-02
         - 4.1790827732751654e-02
         - 2.5135928178600539e-02
         - -1.6626816614154719e-02
         - 7.0937398975336871e-03
         - -2.6346806218988241e-02
         - -2.2499081755837414e-02
         - -1.7753764391677467e-02
         - 1.4348513202836786e-02
         - -4.7280077018065246e-03
         - -2.3880339752229720e-02
         - 4.0302929544325773e-02
         - -8.8295071724325282e-04
         - -3.4857615116402119e-02
         - 4.3579548419860427e-02
         - 2.1846668764942866e-02
         - 3.3783009229848227e-02
         - -2.7188376147114633e-02
         - -3.0916005046134468e-02
         - -4.5147301892249090e-03
         - -3.5190262185026016e-03
         - -5.7986062784062499e-03
         - 7.3736301465305958e-03
         - 5.8447755772096637e-03
         - 1.1858863250115882e-02
         - -8.9928248832529464e-03
         - 4.1114027482579654e-02
         - 2.2292642207821102e-02
         - 1.8770805856541868e-03
         - 2.3555879572311731e-02
         - 1.5647061776783006e-02
         - -8.3344006355245710e-03
         - -1.1600201197224550e-02
         - 3.1213593455228547e-02
         - 2.1561637206657130e-02
         - -2.5146923561749204e-02
         - -2.6610680314029134e-02
         - -3.5617918681731101e-02
         - -2.6657588441438298e-03
         - -3.1688683778054387e-02
         - -3.5687882040041100e-02
         - 3.7062078160853280e-02
         - -1.3359032292989985e-02
         - -2.6536277226763234e-02
         - 2.8484336075087758e-02
         - 3.2687490392411214e-02
         - -4.1473184565093697e-02
         - -2.8881863129350156e-03
         - -4.8013020859424237e-02
         - -2.0010006605114994e-03
         - 1.0515730235181877e-02
         - 1.7513653898975769e-02
         - -7.9995859270401148e-03
         - 2.1193631457030692e-02
         - 2.2569176860872175e-02
         - -2.1093669335026995e-02
         - 6.5483202613085449e-03
         - 2.1471742098472871e-03
         - -2.3442530758323914e-02
         - -2.1453189642301782e-02
         - -4.4892033065584119e-02
         - 5.6710033499782686e-03
         - -6.3254974827803567e-03
         - 1.7907086842945428e-02
         - 2.6282187399265619e-02
         - 1.4641900028898595e-02
         - 1.2397825714446553e-02
         - 3.6797247693031672e-02
         - -2.8759093078920925e-02
         - -1.6239180203779565e-02
         - -7.1931646293999698e-03
         - -3.7852368487608437e-02
         - -1.0597283624852067e-02
         - -2.3178814124096617e-02
         - -1.6777277665970515e-02
         - -6.8475185299590583e-04
         - 2.2107431266137838e-02
         - 1.8151277448825363e-02
         - -3.5941544985570444e-02
         - 4.0837721339147114e-02
         - -2.3704973846552232e-02
         - -1.4986995614383821e-02
         - 3.8304257540981920e-02
         - 2.8426719963832354e-02
         - 9.1136776474767074e-04
         - 6.0894849496679927e-03
         - 9.3509292597636941e-03
         - 3.5019666674585510e-02
         - -2.6595997389373564e-02
         - -1.9807116101429108e-02
         - -1.7856240718713806e-02
         - -4.9978553385030600e-02
         - 3.5021014257403366e-02
         - -1.8182584585029709e-03
         - -1.6325662850950249e-02
         - 1.5392857994119533e-03
         - -1.4820656670608171e-02
         - 3.4377272812263659e-02
         - 1.0298933054002908e-02
         - -1.0600716714794522e-02
         - -2.2756746552163062e-03
         - -1.2549877549511361e-02
         - 2.1205668851251816e-02
         - 1.7700848783908874e-02
         - 8.0141497570678632e-03
         - 9.6564951429771093e-04
         - -2.4346102649847722e-02
         - -2.2983754046070282e-02
         - 1.7833409801731846e-02
         - 1.2206746023832668e-02
         - -2.1836347624677326e-02
         - -3.1775731706903021e-03
         - -3.6742132946948575e-03
         - 4.8581052400857297e-03
         - 1.6388210364933778e-02
         - -2.7498639395631557e-02
         - -1.3972120523634888e-02
         - -6.2956616354381311e-03
         - -7.8366835444044335e-03
         - 4.1379649961180445e-02
         - 7.0308736852851619e-03
         - -3.8009024346428437e-02
         - -3.4039971975754257e-02
         - -1.9006693973211226e-03
         - -2.0684455091311459e-02
         - -3.0797468469939422e-02
         - 4.1368156037093207e-02
         - -2.9946807435450855e-02
         - -5.7594586897124350e-02
         - -4.2292602546164473e-02
         - -1.2422771670614207e-02
         - 1.7033720890549716e-03
         - -2.0127311578281640e-02
         - -2.8035135222969836e-02
         - -4.1326502633512736e-02
         - -4.0488090386908759e-02
         - 1.8009025722560575e-02
         - -8.7140480379708195e-03
         - -3.4653201743305981e-02
         - -1.5514291733547918e-02
         - -1.5491799867272595e-03
         - 1.9014930013927598e-02
         - 4.6527706726655980e-02
         - 2.0962531582599919e-02
         - -3.3030435008076188e-03
         - 2.7557533406702941e-02
         - 2.3323438424879096e-02
         - 3.7337966768894906e-02
         - -3.1353910430186101e-02
         - 2.0340424668748715e-02
         - -3.0889548383368208e-02
         - -2.6152090452865453e-02
         - -1.3293038128757453e-02
         - 1.9794819952427309e-02
         - -3.2951687556916028e-02
         - -2.8197038990269265e-03
         - 3.5127461303572499e-03
         - 8.9139499112103737e-03
         - 2.2306427690605132e-02
         - -2.1824455921930570e-02
         - -6.4433424911069538e-04
         - -2.9045624688515459e-02
         - -2.0234054875643146e-02
         - -1.1807520875596689e-02
         - -4.3917745334118144e-02
         - 3.3229363564789252e-03
         - -2.8496005143477526e-02
         - 1.8207338055282653e-02
         - 2.6926334471880819e-02
         - -4.2784619183732796e-02
         - 5.3248824005765315e-03
         - -3.0302412238301549e-02
         - 3.7881384778198732e-02
         - -8.0405071215897128e-03
         - -9.9734781430225825e-03
         - 2.5238202792008901e-02
         - -1.2515979138394871e-03
         - 2.0839254130606596e-02
         - 7.0237030037736212e-03
         - -9.2063217919064327e-03
         - 2.2168852528522343e-02
         - 1.6722643220295607e-02
         - 4.4935054816714171e-02
         - -6.1318972447134776e-03
         - 4.6808911384048912e-02
         - 1.3186389587864869e-02
         - 3.9173359684536134e-02
         - 2.2432426259146661e-02
         - -1.9032658454364582e-02
         - -3.9133482788227252e-02
         - -3.9439658009004980e-02
         - 2.7145231047310675e-02
         - 1.3004876220551185e-02
         - 2.5858005527546267e-02
         - 4.6760057276799674e-02
         - -2.8462583652461095e-02
         - -2.8226900341971835e-02
         - -1.0145997466091778e-02
         - 2.3676019391282322e-02
         - 1.7304746303407757e-02
         - 2.6762588736461953e-03
         - -8.3688532268266572e-03
         - -1.0004338465952190e-02
         - -5.1497677899089780e-02
         - 9.7149809006543235e-03
         - -2.5052216814989467e-02
         - 2.2851800382312843e-02
         - 2.2435980083744630e-02
         - -5.5158248534965750e-04
         - 1.4287371620747606e-02
         - 1.8702869627332485e-02
         - -1.0937316538741278e-02
         - 4.2437332755208321e-02
         - -4.7537587697925937e-03
         - -1.9009226411298739e-02
         - -2.5002908857646451e-02
         - 4.2723945448844114e-02
         - -2.4659425305015296e-02
         - 2.3995894433870162e-02
         - -3.2849697234763345e-02
         - -1.6413910277741955e-02
         - 3.3372060840495661e-02
         - -2.3526515810136584e-02
         - 9.4628885163703241e-03
         - -1.5070392237983489e-02
         - 3.4241774549740554e-02
         - -1.6384106455015094e-02
         - 3.3727581962817679e-02
         - -5.1595531837214929e-02
         - 5.0035581258219164e-02
         - -9.3504291386959492e-03
         - -8.3296449374124035e-03
         - -1.2155972105244304e-02
         - 4.0940072192003060e-02
         - 9.2455303873335913e-04
         - -3.4720209436624049e-03
         - -1.9642121247411073e-02
         - 6.0391868061550421e-05
         - -5.9971454331686829e-03
         - -1.8313071020154774e-02
         - 3.5743791177840753e-02
         - 4.1016779567722386e-02
         - -3.6920401516771909e-02
         - -2.6639991925178619e-02
         - -1.3877998142129845e-02
         - -1.7968936923583319e-02
         - -3.0849554019569184e-02
         - 1.7192767650495870e-02
         - 3.8786008154028495e-02
         - 2.1824154099795896e-02
         - -2.0774052341360979e-02
         - 3.8634283543049597e-02
         - 2.3423097987286898e-02
         - -1.2386322905517829e-02
         - -2.6673861879502221e-02
         - 7.4224042068564283e-03
         - 2.2382957261984127e-02
         - 4.1092741170552491e-02
         - -9.8168771266809972e-03
         - 2.4137948661033578e-02
         - 3.3275157237940625e-02
         - -2.0374283704805624e-02
         - 7.0485924704065039e-03
         - 7.9249777666651373e-03
         - -2.1775291142649561e-02
         - 6.7344454416106642e-03
         - 3.9200972522845122e-02
         - 3.4138161915376088e-02
         - 3.6196659345219324e-02
         - 3.7896734812678801e-02
         - -4.0368061341147565e-02
         - 4.2170952147312181e-02
         - -2.7233426016891583e-02
         - -1.9095785575460784e-02
         - -7.8840508612042139e-03
         - 3.9420798986199698e-02
         - -2.4861320723504506e-03
         - -6.4479824466806730e-03
         - 4.9448609604582144e-03
         - 6.5843064326649844e-03
         - 2.3378307128450139e-03
         - 1.8901270035373133e-02
         - 1.9120363797674619e-02
         - 3.1972534235592098e-02
         - 2.4883976216747861e-02
         - -1.0208166374575533e-02
         - 3.4063283121358236e-02
         - -1.6162347946138134e-02
         - 3.8886608171889658e-02
         - -2.4506806909012149e-02
         - 3.2730638454300576e-02
         - -3.5814982891031653e-02
         - 3.8686436031776968e-02
         - -2.3631794117221949e-03
         - 3.4195513608153788e-02
         - 2.6369797448159746e-02
         - -1.1470338651420617e-02
         - 2.9012575902847226e-02
         - 8.9054808070608057e-03
         - -8.5542765595723741e-03
         - -4.9124392352291373e-02
         - -3.7638028298075520e-02
         - 8.1720809520105693e-03
         - 6.7046108145517131e-03
         - -1.0202621226741841e-02
         - -4.0224844105819377e-02
         - -1.6904108679261780e-02
         - 3.5963532402151447e-03
         - -3.8787343570922957e-02
         - 3.5178075242221054e-03
         - -2.3549192025568572e-03
         - -2.6376773618003488e-02
         - -5.9644692041936495e-02
         - -1.7763844585717774e-02
         - 1.4306631297052560e-02
         - -2.4757374780067037e-02
         - -1.2707109962253911e-02
         - 2.9655576421836929e-02
         - -1.7325464549724289e-02
         - 2.5152534439026944e-03
         - 2.2248774042153051e-02
         - -1.1708928033458760e-02
         - -3.9772383863697315e-03
         - 1.1625401575835161e-02
         - -2.6331962073734380e-02
         - -5.1017818038770453e-03
         - 3.8500037335611942e-02
         - -1.0243823356075325e-02
         - 5.0761737527301072e-03
         - -2.6434082227070069e-02
         - -2.6268955210007602e-02
         - 3.7903567375144775e-02
         - -1.5669421216449032e-02
         - -1.3927748465407063e-03
         - 5.5243054992045416e-03
         - 2.6810994818353411e-02
         - 4.0232302687405658e-02
         - -1.4760047230982858e-02
         - -9.0638984076333792e-03
         - 8.4478406307938873e-04
         - 2.4074802382665749e-03
         - -9.5814984829825749e-03
         - 1.1645852482356656e-02
         - 2.7406250258758716e-02
         - 3.6059900853429167e-02
         - -8.1345050677142546e-04
         - -9.4012125699833356e-03
         - -2.7698709147694105e-02
         - 3.6594045335598971e-02
         - -2.2255930157652912e-02
         - 3.3474012448272014e-02
         - 3.4082601089406507e-02
         - -4.9611308523613952e-03
         - 4.0442654969210769e-02
         - 1.6260831665061204e-02
         - 1.2227721904201380e-03
         - -3.8985513907921427e-03
         - 2.2245670638219937e-02
         - 5.4187048244065637e-03
         - -1.4215277566388955e-02
         - -8.3249666006079397e-03
         - 1.0647673747908763e-02
         - -3.8357708762577415e-02
         - -1.1869853898349866e-02
         - 7.7227965491896179e-03
         - -2.8262994343160867e-02
         - 2.0680003508681224e-02
         - 3.7455001711813492e-02
         - 2.4989206569246650e-02
         - -2.6627075476173566e-02
         - -3.3466099133378863e-02
         - -2.9519450326973229e-02
         - -4.0047665116037202e-03
         - 6.9519651485269616e-03
         - 5.2613823377501423e-03
         - 1.3093868746287714e-02
         - 4.3762109040028805e-03
         - -2.2879210448968547e-02
         - -1.9586400175906429e-02
         - 3.0315180145856151e-02
         - -2.1917368807801891e-02
         - 1.1679372950871212e-03
         - -1.5255214499468157e-02
         - 2.8195885809339724e-02
         - -1.8504589083020391e-02
         - 9.8633584844085437e-03
         - -2.0989989538166907e-02
         - -3.1764833223471553e-02
         - -1.6625495714762038e-02
         - -2.5129685082228747e-02
         - 2.9197546215982549e-02
         - -4.5594986597326352e-02
         - 3.1582204604678130e-02
         - -3.2424270619101178e-02
         - -1.4889693252128906e-03
         - -2.2642971045667377e-02
         - -2.7777080855986604e-02
         - -1.6450397962022936e-02
         - 1.0313945743937934e-02
         - 1.1560564184174138e-02
         - -3.3770840528711092e-02
         - -3.9868893822904872e-02
         - 1.7428845739591199e-02
         - 2.9823106598689638e-02
         - -1.6763796060856640e-02
         - 3.6334968224972064e-02
         - 3.1722238986163789e-02
         - 2.9790531195956378e-02
         - 7.6403904396033628e-03
         - -3.1275288840048959e-02
         - -2.2315965582149259e-02
         - 6.5535468720322940e-03
         - -2.1544075824246830e-02
         - 8.4819743359892171e-03
         - 3.8097403872514403e-02
         - -3.8427404358943228e-02
         - 1.4117296003153873e-02
         - -1.5400305502108948e-03
         - 9.8960194175653493e-03
         - -3.7830708558048341e-02
         - -2.6342044309512761e-02
         - 1.7976808273690453e-02
         - 3.9182110393941337e-02
         - -1.6457201670935548e-02
         - 4.8520718826011652e-02
         - -3.6971368998033717e-03
         - -1.5610783361578516e-03
         - -2.1585779683936348e-02
         - 1.9151913922899527e-02
         - -1.7217301935504283e-02
         - 3.3450937624008525e-02
         - 6.7945151462343639e-04
         - -2.1270686771328248e-02
         - -1.8226123403974382e-02
         - 1.9401576768235302e-02
         - -2.8841242902226120e-02
         - -2.6035080447271057e-03
         - 1.9744716443870488e-02
         - 2.1664995815918200e-02
         - -1.6446754144976143e-02
         - -4.1444740210996485e-02
         - -2.6798501529145236e-03
         - 6.7506025893742027e-03
         - 1.0784558856748431e-02
         - 2.3904272516144100e-02
         - 8.8820219476329447e-03
         - 3.1241293424647484e-02
         - 2.8540913466192756e-02
         - 5.0182703085825051e-02
         - 3.2564233887377697e-02
         - 1.7196573747648589e-02
         - -6.8384546650931176e-03
         - -1.2793310088256318e-02
         - 3.6631934608514776e-03
         - 7.6677654814026417e-03
         - 1.3065830855389572e-02
         - -3.6350804461281666e-02
         - -3.0116406141628749e-02
         - 2.1289504117197437e-02
         - 1.1373020745058599e-02
         - 7.7592804533167178e-03
         - -2.9909671460525328e-02
         - -1.1096898476184352e-02
         - 1.3627237859223550e-02
         - -3.3950957246583723e-02
         - -2.2169220423588182e-02
         - 2.1747906991953763e-02
         - -2.8778958817280636e-02
         - -3.9522060017363220e-02
         - 3.1021901976324231e-02
         - 7.9707647797264553e-03
         - 2.1563133940090207e-03
         - 1.3895250237580706e-03
         - -3.5702365740570570e-02
         - -1.0303945804854962e-02
         - 3.9548299931336843e-02
         - -3.8302548336674395e-02
         - -8.7295240646897421e-03
         - 4.1466478489277078e-02
         - 1.4797433392287110e-02
         - -1.6995004592045039e-02
         - -2.0876980924783312e-03
         - 3.8765765323733388e-02
         - 1.1829129224741818e-02
         - -3.7008714804722703e-02
         - 3.0824194748722084e-02
         - -1.9344319753853166e-02
         - 1.8426116778826818e-02
         - -1.2015635538534254e-02
         - 3.0646346346930985e-02
         - 4.3188448938655720e-02
         - -3.4540969854857211e-02
         - -1.0736841398017305e-02
         - -3.6854932938254821e-02
         - -3.4387510649947835e-02
         - 2.4574443340328427e-02
         - 2.9292125491575800e-02
         - -1.6058488321381813e-02
         - 4.2516816430228026e-02
         - -2.0861551343930158e-02
         - 4.3115063293392916e-02
         - 4.7712837399427610e-03
         - -4.1894279123631549e-02
         - 3.1850356468443385e-02
         - -3.3217602505199770e-02
         - -2.6730234817800291e-02
         - -1.7196599128753598e-02
         - 1.6373707006117576e-02
         - 1.5887579309874979e-02
         - 1.2191537230613038e-02
         - 4.3404210883797374e-02
         - 2.3953789504260806e-02
         - 3.3016363847031993e-02
         - 1.9005065713483673e-02
         - 2.7664150176288906e-02
         - -1.9665837793152844e-02
         - 1.6711868084036950e-03
         - -3.8310319009049340e-02
         - -4.2007463299397217e-02
         - 7.2078460077452493e-03
         - 5.6160984067802613e-03
         - -3.8487346179613010e-03
         - -3.1777092371301059e-02
         - 1.2549437623722938e-02
         - 1.5927188296215065e-02
         - 5.0185768291522402e-02
         - 3.1791940032573275e-02
         - 4.1128429748785687e-02
         - -1.7326644032270723e-02
         - -9.7440319395007188e-03
         - 1.2635896631529395e-02
         - 3.5360883290078769e-02
         - 5.3609680252593699e-03
         - -2.7268319710515576e-03
         - -2.6388740765163017e-02
         - -4.8413119102965168e-04
         - 9.6477285659414738e-03
         - 9.7942730927645608e-03
         - -3.2627967002740496e-02
         - -2.8639080672045895e-02
         - -3.9007778790964787e-02
         - -2.6437740532945023e-02
         - 2.5834774194881602e-02
         - 4.5298595559631845e-02
         - -9.0954769529648406e-03
         - -2.8883541571735599e-02
         - 1.1427006989763084e-02
         - -2.2692485368278906e-02
         - 2.3311740014187513e-02
         - -3.9262972312154934e-02
         - 1.6311952000228055e-02
         - -3.5333196566190939e-02
         - -3.8201871578762217e-02
         - 1.8508424459477785e-02
         - 1.3840440892378023e-02
         - -2.2598425914381944e-02
         - -2.2111506448170837e-02
         - -1.2872769777103391e-02
         - 1.2334747745370276e-02
         - 4.9183889922577370e-02
         - -9.2779524975202931e-03
         - -3.1690955393088568e-02
         - 2.8472353342739877e-02
         - 4.5294452680478665e-02
         - -3.8868353339149460e-02
         - 8.4280015255638625e-03
         - -8.2389299174958734e-03
         - -7.7668405435663479e-03
         - -1.5347780511598016e-02
         - 1.0361720951340223e-02
         - 2.7754123675927257e-02
         - -1.6385751389944091e-02
         - 1.6661622588651660e-02
         - 1.1246324383954719e-02
         - -2.2665184180331007e-03
         - 3.1096652565923848e-02
         - 3.2489314911120108e-02
         - -4.5268638635474747e-03
         - -3.0215795013216022e-02
         - -2.4039362926767099e-02
         - 8.2124169328649313e-03
         - 1.1251360510973276e-02
         - 3.3737146582436914e-02
         - 6.9804073087117906e-03
         - 4.2169645421246613e-02
         - -3.2737630098263720e-02
         - 1.4197676515152743e-02
         - 1.8412238415593543e-02
         - 2.1558956628319352e-02
         - -2.8755657388540624e-02
         - 4.1319948745595983e-02
         - 2.6025917214731867e-02
         - 1.1995741780831255e-02
         - 1.5425048845612499e-02
         - 2.3141557627082116e-02
         - 2.1865417855808603e-02
         - -3.9862288064097338e-03
         - -9.0441052224592925e-03
         - 3.2300969256308973e-02
         - 4.5163320191330628e-03
         - -4.8392391627923234e-02
         - 1.6165849527182741e-02
         - 2.3936379315285795e-02
         - -9.7043494830351892e-03
         - -1.8431920280968569e-02
         - -1.8299638791942935e-02
         - -1.1166618947029765e-02
         - -1.0581053792686900e-02
         - -7.1782182672344656e-03
         - 1.3116267440785126e-02
         - -2.2203807280109823e-02
         - 1.7278985643201333e-02
         - 2.8420214252655198e-02
         - -1.3663367143505569e-02
         - 4.6345175924192322e-02
         - -2.2169928193269696e-03
         - 2.6247216395811662e-02
         - -6.5832993869504022e-03
         - -3.4524374997782888e-02
         - 1.4853199487944410e-02
         - -1.2170728417872399e-02
         - -2.7424420001398005e-02
         - -6.3780445453496667e-03
         - 5.0692647995307531e-02
         - 1.5711130897616075e-02
         - 2.5751305920331077e-02
         - -4.2303119444777056e-02
         - 3.4234478329646968e-02
         - 4.6270928898230070e-02
         - 7.6452813817716216e-03
         - 2.8881099192581170e-02
         - 3.8256098051610773e-02
         - -6.9961398223084492e-04
         - 2.3153700319136578e-02
         - 1.7910204091521338e-02
         - -5.1721046809415239e-03
         - -2.7057123709150013e-03
         - -3.3866722246620289e-02
         - 2.5588123397968791e-02
         - -2.4834288966778344e-02
         - -1.6656888286647721e-02
         - 3.9712209512346712e-02
         - -1.1342357664263832e-03
         - -1.7019262986337986e-03
         - -1.4884135693389779e-02
         - -4.0451817300914170e-02
         - 2.4130656983682792e-02
         - 3.5453831665756025e-02
         - -3.7917104514235164e-03
         - 4.3162873059020301e-04
         - 1.2165650593875695e-02
         - -4.7812179379948874e-03
         - 2.9458790781675175e-02
         - -1.6402209912389616e-02
         - 2.6103259772503513e-02
         - 3.5185068604375501e-02
         - -3.3585270252759453e-02
         - -1.5483850956716757e-02
         - -2.7002860070880843e-02
         - 3.7600132828173073e-02
         - -7.5379589463865724e-03
         - 3.0315952780012863e-03
         - 3.1420713253658805e-02
         - -3.2448549302457851e-02
         - 5.7418684407497733e-03
         - -1.1031622990195481e-02
         - 2.0027878626349142e-02
         - 2.6330477309541377e-02
         - 1.7781897134319040e-02
         - 1.3861494565964394e-02
         - -2.3974652706546869e-02
         - 3.7748747418370238e-03
         - -2.5966873291136634e-02
         - 1.1259512216705434e-02
         - -6.7508121892780300e-03
         - 1.8566231475618259e-02
         - -1.7628653405869329e-02
         - -3.1927683580097845e-03
         - -2.8754451576771863e-02
         - -1.9357518702265101e-03
         - 3.4150709450117611e-02
         - -4.6121151812386976e-03
         - -5.1670721376943947e-04
         - 1.9628444632909425e-03
         - 2.9765379719299621e-02
         - 2.4754454635005103e-02
         - 3.4124650500439953e-02
         - -1.2198489383622526e-02
         - -3.2316539733194691e-02
         - -3.5569184369786053e-02
         - -2.1106092407762150e-02
         - -9.3819157894715691e-03
         - -1.6625465381949599e-02
         - -3.2166427689175658e-02
         - 7.0924980961776839e-03
         - -4.1127572971021910e-02
         - -1.9485128669477322e-02
         - 4.4295186707223196e-04
         - 3.9859319880540270e-02
         - 6.7315765651317040e-03
         - -3.7034799279420522e-02
         - 3.6303400143532116e-02
         - -3.2022519317223240e-02
         - 4.4190934186969563e-03
         - -2.9335815790453171e-03
         - -1.8394259618244098e-02
         - 3.4708052380956066e-03
         - 1.7937119580509583e-02
         - 2.7142644999510263e-02
         - 3.7582593040879492e-02
         - 3.8115354774222045e-02
         - 3.2684113100712335e-02
         - 3.5028329208569360e-02
         - 3.1948420176309597e-02
         - -3.6746901574513144e-02
         - -3.9711488753562688e-02
         - 2.8927261410740299e-02
         - -2.2090542821495376e-02
         - -2.6577299231336761e-02
         - -3.5097690613837343e-02
         - -2.0439043254930449e-02
         - 4.5654862881885479e-02
         - 3.6053461386532523e-02
         - 9.0606695817025285e-03
         - -4.5295074452037822e-02
         - -3.4431095500066462e-02
         - 5.7847111488855919e-03
         - 1.0878032222983072e-02
         - -1.9384238348431906e-02
         - 1.2502380232095432e-02
         - -3.4285816628125215e-02
         - 2.6253442130321981e-02
         - -1.1509254572384954e-02
         - 2.6224072869758790e-02
         - -2.4758343289707206e-03
         - -3.9540020316781742e-02
         - -1.5379309798529230e-02
         - 9.3247125661730865e-03
         - 1.6665669788987082e-02
         - -1.6814561627130426e-02
         - 1.6392749142294452e-02
         - 3.2051886852598660e-02
         - -2.9204256216396000e-02
         - 1.0102596884794954e-02
         - -4.2600605208895796e-02
         - 1.7583934182289800e-02
         - -2.9509851682099113e-02
         - -1.6101138216890160e-02
         - -6.1687037967643752e-03
         - -1.8580884503417289e-02
         - 1.2636254462831287e-02
         - 2.8762734609686647e-02
         - 7.6784071889555239e-03
         - -3.5356197990388638e-02
         - 2.7678984087206961e-02
         - -1.5284802279402904e-02
         - -1.4429484165593375e-03
         - 3.2480293287462129e-03
         - -7.8449746082581984e-03
         - 1.8887207067871357e-02
         - 4.4729800847608673e-03
         - -3.2944473758769771e-02
         - -1.9158781817564294e-02
         - 4.1192046923024257e-02
         - -1.0035289470544445e-03
         - -5.0572210942836406e-02
         - -1.8102544071246101e-02
         - 2.9617858263572626e-02
         - 9.2584180433175952e-03
         - -7.9623600399178450e-03
         - -1.7288062693156490e-02
         - 1.1964136511115237e-02
         - -2.1640879557730010e-02
         - 4.3417165786541187e-02
         - 3.6672105207828879e-03
         - 2.5371272761651884e-02
         - -3.9204655735226260e-02
         - -1.1942938900133636e-02
         - -3.2399113354488640e-02
         - 1.8668731803058648e-02
         - -2.8245429558920166e-02
         - -6.2074869593095692e-04
         - -2.7127868126346402e-02
         - 2.7585115106599476e-02
         - -9.0220842707994589e-03
         - -1.2262339788358436e-02
         - 1.1097299371064117e-02
         - -4.0332372683233954e-02
         - 8.7386163619760943e-03
         - 1.3291595022850305e-02
         - 7.6293309180689084e-03
         - 7.1613088218330416e-03
         - 1.8741674452249182e-02
         - -2.0726856318688227e-02
         - -2.6934468872214054e-02
         - 3.7032812482572729e-03
         - 1.0401002980311371e-02
         - 3.5489831742284927e-02
         - 3.0408439790746384e-02
         - 4.7640739040889198e-03
         - -2.5652997567008083e-02
         - -1.9918187145602707e-02
         - 1.7651717256508291e-02
         - 1.8067457628812806e-02
         - -1.3705055774287090e-02
         - -2.2398179329901183e-02
         - 1.7387351199090292e-02
         - 2.8610367613842242e-02
         - -6.1446872175000014e-02
         - 5.5664025916508462e-03
         - -3.6540017108245636e-02
         - 4.8122806358159888e-03
         - -1.2035524687362270e-02
         - 4.1382422252285271e-02
         - -4.3264458282042131e-02
         - 3.1688399698223201e-02
         - -4.4571952706585177e-02
         - -2.2324111790197516e-02
         - 2.2012369760521726e-02
         - 1.3751691338390512e-02
         - -4.3717574340183260e-03
         - -4.6807219738159496e-02
         - -2.2907078328250004e-02
         - 1.1102447659668139e-02
         - -1.0625685349732300e-02
         - 3.6998059791198128e-02
         - 1.1428991876233497e-02
         - 2.5779468108879267e-02
         - 9.0678588960300642e-03
         - -2.1182191545107455e-02
         - 2.1356638325022714e-02
         - 3.7146263845853629e-02
         - 2.3683682532737792e-02
         - 6.9841793240355823e-03
         - -2.8660293176820933e-02
         - -6.4077959722344466e-03
         - -2.8796488207098805e-02
         - 7.8322562619073718e-03
         - -1.6050449963793560e-02
         - -2.0174662586277873e-02
         - -3.2882658270410273e-02
         - -2.5098157377197495e-02
         - 4.7215909919335462e-02
         - -1.7839122469224131e-02
         - -3.6358645253679253e-02
         - 1.6418434554519124e-02
         - -4.3900516663498063e-02
         - -8.8108143562512318e-03
         - 3.7772882372850277e-03
         - -3.2542822325909986e-02
         - -2.3210367355852111e-02
         - -1.7010336916672131e-02
         - 2.5603802772641873e-02
         - -1.4681359631026170e-02
         - -2.5641851356453742e-02
         - -2.0606950679932363e-02
         - -2.5055924676546389e-02
         - -1.1251234258986496e-02
         - 2.3589905858501046e-02
         - -7.8479967382216204e-03
         - -2.2430855879547172e-03
         - 3.9634746219388201e-02
         - -2.7916847596992533e-02
         - -3.0053005213799801e-02
         - -9.9942581195533193e-03
         - -1.2762254490862331e-02
         - -2.0611009957357282e-05
         - -2.9756217601433557e-02
         - 2.3429321852964390e-03
         - -4.6616230491187932e-02
         - 1.3658044196840958e-02
         - -1.4502898170739336e-02
         - -2.0836795732193453e-02
         - -2.3302373570689643e-02
         - 2.7099649112509085e-03
         - 1.9613343914450108e-02
         - 7.5743205159805134e-03
         - 2.4437625931534642e-02
         - 4.9461213495629291e-02
         - 1.0713410349648322e-02
         - 1.5580849481052702e-02
         - 7.4779655146176086e-03
         - 1.7386088313602509e-02
         - 2.5508389963689964e-02
         - -3.3682740546865361e-02
         - 3.1331655801750916e-02
         - 2.8263558475996795e-02
         - 1.3363532407716879e-02
         - 1.1663716954508621e-03
         - 1.5598068220315167e-02
         - 8.7097090491930224e-03
         - 3.8292527041304404e-02
         - 3.3609232610998567e-02
         - -1.1048375106682932e-02
         - -3.4651459853329999e-02
         - 2.6581039388193169e-02
         - -2.7207183994065022e-03
         - 3.7300284172439892e-02
         - 9.1332245042467959e-03
         - 2.5135345560993366e-02
         - 4.3598137646675285e-02
         - 5.0717401665259149e-02
         - 3.2861534835050200e-02
         - 1.4049521704742966e-02
         - 3.4751828196824494e-03
         - 4.0340463266013399e-02
         - -1.8926248874322711e-02
         - 3.3669502828612009e-02
         - 1.9560373063713381e-02
         - 3.6541426642784001e-02
         - 2.4791600414837151e-02
         - 2.7828800971767955e-02
         - -2.3706772102957536e-02
         - 2.4586001281045638e-02
         - 2.4723421272677928e-02
         - -1.2438235161522633e-02
         - -1.0729562881794531e-02
         - 1.6774494103165904e-02
         - 1.9369456387068031e-02
         - 4.7457473840746549e-02
         - -5.8456286805673587e-02
         - -6.6673008547408937e-03
         - -6.1697773660609634e-02
         - -2.9740085450167225e-03
         - -1.4527354884070564e-02
         - -3.6704821877791526e-02
         - -1.8477455384503266e-02
         - -1.8717480503092968e-02
         - 6.0328649293692922e-02
         - 2.1453460778048491e-02
         - -5.1304307013603874e-03
         - 1.9875177998277760e-02
         - 2.2892656836479498e-02
         - -3.7359239237645038e-02
         - 2.5590992476243055e-02
         - -2.3765151357888110e-02
         - -1.7116210483208140e-02
         - -3.0853229097528818e-02
         - 4.9733485984298102e-02
         - -3.1548498394752683e-02
         - -1.2254086833058673e-02
         - 5.7680195984576871e-03
         - -2.6423724987749645e-03
         - 4.9531934000584261e-02
         - 7.8705688989249463e-03
         - 4.0965492829317010e-02
         - -4.1211809291394081e-03
         - -1.6271983533627475e-03
         - -4.9522867213115669e-02
         - 2.8316038052462879e-02
         - 4.0486645950083226e-03
         - 3.9928838159034259e-02
         - -5.0389653873206042e-02
         - -5.8689306503518265e-02
         - -3.9146492976736454e-02
         - 5.7726990388825890e-03
         - 9.6240609279901589e-03
         - 8.4173817535990667e-03
         - -2.1382081611819249e-02
         - 1.8224502545035420e-02
         - 1.0670964348624433e-01
         - -2.1163274665624513e-02
         - -7.8690589990152021e-02
         - 1.1823124735923696e-02
         - 7.6082563476067941e-02
         - 7.3733065252358801e-02
         - 1.3994382909393276e-02
         - -4.8755808230939428e-03
         - 5.0174578202071676e-02
         - -7.8683741670001681e-03
         - 6.3893438825816842e-02
         - 4.2803931631023228e-03
         - 8.1047583752527311e-02
         - 3.5659620085237188e-02
         - 1.0767066760749091e-02
         - -3.5386202027317570e-02
         - -3.8576844321148510e-02
         - 3.3788020523744335e-02
         - 4.7419345440897799e-02
         - -1.1329173520946088e-02
         - -1.0660323317799656e-02
         - 2.3343414412545581e-02
         - 2.8670779634734422e-02
         - 5.0748178943053807e-02
         - 5.9804000461813604e-02
         - -4.7905289688434390e-02
         - -6.2291622797701195e-02
         - -7.4577697412995291e-03
         - -1.0186139806935657e-02
         - 1.4353351900158956e-02
         - 2.3104696497190373e-02
         - -2.9057952937298421e-02
         - -6.0137390616115755e-02
         - 8.4697353847037332e-03
         - -8.3299352015072339e-02
         - -9.4033417984225806e-02
         - 5.8855469842068499e-02
         - 1.9018403543825359e-02
         - 2.8687669890077233e-02
         - 2.0716591714946726e-02
         - 5.6832408612601949e-02
         - -1.9517504905292374e-02
         - 4.6244639299167776e-04
         - -3.8918087717592587e-02
         - -3.9208661759024759e-02
         - -1.7754128218055880e-02
         - 3.4301830266036150e-02
         - 1.1842077434396841e-02
         - -3.0803650886593714e-02
         - 1.1456134371139584e-02
         - 4.5553699355134151e-03
         - -1.7721208940399236e-02
         - 3.1567656635024068e-02
         - 9.8124199623058038e-03
         - 3.5648394947388119e-02
         - -1.4600707591255559e-02
         - -2.2556547448757697e-02
         - 3.6818856869904423e-02
         - -4.3258827002637085e-02
         - 3.9191594165892220e-02
         - -2.4586036301556712e-02
         - -1.4014533338668335e-03
         - 2.6889097364246672e-02
         - 4.0441074549991782e-02
         - 3.2500344080646552e-02
         - 3.0868931739618039e-02
         - -2.7628343017400102e-02
         - -2.4672678690092309e-03
         - 1.6876101135571066e-03
         - -4.0658609463472911e-02
         - -2.4055389345269171e-02
         - 2.3661322283847087e-02
         - 5.2325276927011584e-03
         - 2.3351386691256668e-02
         - -5.5794903418323761e-03
         - -2.8152962390320772e-02
         - 4.0023779339910380e-02
         - -2.5981285519638943e-02
         - 3.1576213345758858e-02
         - -7.3428467022996734e-03
         - 4.0178655678376876e-02
         - 8.7167958140303616e-03
         - 8.1760219484997097e-04
         - 2.2684988089149594e-02
         - 3.2903174940640515e-03
         - 3.0287079075582566e-02
         - 8.3489520818359388e-03
         - 2.3228934508481139e-02
         - -2.0121599128737986e-02
         - -4.0000461738366536e-02
         - 3.0955190795016387e-02
         - 6.0134741932928006e-03
         - -1.4367975943131637e-02
         - 1.7929024014053521e-02
         - 8.9597010473841544e-03
         - -7.5429746945141051e-03
         - -3.6383545019653983e-02
         - -3.5641356541925712e-02
         - 8.4676852731821136e-04
         - 7.9401651481479651e-03
         - 2.2683865565711600e-02
         - -4.4851127041476209e-02
         - -2.8519342607110861e-02
         - -3.8160786822571097e-02
         - -3.6648837652931664e-02
         - 2.1996943747182481e-02
         - -1.5861539923461839e-02
         - -2.0230092861355468e-02
         - 2.0175180679922508e-02
         - -1.7205046614238582e-02
         - 2.2082615976658421e-02
         - 3.1521750796503274e-02
         - -2.5583291633977925e-03
         - -1.6778099190982738e-02
         - -1.2508073442687824e-02
         - -3.5217278155417510e-02
         - 2.6699424937759585e-02
         - -1.6286224234438235e-02
         - 3.5607765877108959e-03
         - -5.1780126523755680e-02
         - 8.3757376514240253e-03
         - -1.3289212582848068e-02
         - 3.1297415332717370e-02
         - -3.8498610230309351e-02
         - 4.2829401024392838e-02
         - 2.0459834870696927e-02
         - 5.9365841685292643e-03
         - 1.9674274821733478e-02
         - -3.8374259005138321e-03
         - 4.0884011484803593e-03
         - 8.4713524593339595e-03
         - -2.8440522038056096e-02
         - -4.2048281469424888e-02
         - 2.6341707556820190e-03
         - -2.3034430917338684e-03
         - -3.1050646674495752e-02
         - -2.5105009775275963e-02
         - 2.7208845277768408e-02
         - -3.8944356909590715e-02
         - -3.6011795148005475e-02
         - 3.5335604546968172e-02
         - 1.4553905753677918e-02
         - -4.7158676424283660e-02
         - 3.3235560271127791e-02
         - 9.9956445213456827e-02
         - -4.2799761999220897e-03
         - -8.7286449883514874e-02
         - -8.5457568029934927e-03
         - 1.2448542929355653e-02
         - 2.2672603707154178e-02
         - -1.5352978070606274e-02
         - -4.7102315765950947e-02
         - 4.1077310268858948e-02
         - -4.6853934082280259e-02
         - 6.3142051157139376e-02
         - 4.9612015784180584e-03
         - 3.5478372830060022e-02
         - 3.6836972722077310e-02
         - 2.1743581734349701e-02
         - 8.5983260841165140e-03
         - 1.1012275140163903e-02
         - 3.4789995111582761e-02
         - -3.5526667902214516e-02
         - -5.3206557507780139e-02
         - 1.1763556586863191e-02
         - -5.2232365113327316e-02
         - 3.9261844640387067e-02
         - 7.6052998551725912e-02
         - 8.4472940328411293e-04
         - 1.4089294562102419e-02
         - -6.8484416829065781e-02
         - 1.1842071042545166e-02
         - 2.2064071049657571e-02
         - -4.7888221974919294e-04
         - -2.5638001020137066e-02
         - -4.2478122778084805e-02
         - -3.3133340205110197e-02
         - -2.1093863194897554e-02
         - -2.0389592867493377e-02
         - -4.6906445330779103e-02
         - 3.9287181905902774e-02
         - -4.5034446807737848e-02
         - -2.7736168133841877e-03
         - -1.2928462867610327e-03
         - 4.8367830125622041e-02
         - -1.6938885915542934e-02
         - 1.0297957420765192e-02
         - -1.4146296758344090e-02
         - -4.0028328358202815e-03
         - 4.5914001428981319e-02
         - 2.1503496879707117e-02
         - 1.0277668963944700e-02
         - 2.4946752581888189e-03
         - -2.1189150426907864e-02
         - -3.8107954356707004e-02
         - -1.0984956592013928e-02
         - -3.5417642997622553e-02
         - -4.5071493317484085e-03
         - -8.9649734682537424e-03
         - -4.0789532739890791e-02
         - -2.7894669098606877e-02
         - -2.2607934546030491e-02
         - 2.9784049900802804e-02
         - 4.8308103958813039e-03
         - 2.3419837193841438e-02
         - -1.9743668672975015e-02
         - 3.6428609586905393e-02
         - -1.5947240900269197e-02
         - 3.8106575800807195e-02
         - 3.2166886495071886e-03
         - -2.8447317876172763e-02
         - 1.9802564873723363e-02
         - -3.9352668945661022e-02
         - 5.5678081195382713e-03
         - -8.2654743516258778e-03
         - -2.0690655438439617e-02
         - 6.9941235292084892e-03
         - 3.3360458553334117e-02
         - 2.9906667180198458e-02
         - 4.0421561324958381e-02
         - 1.1429484563553366e-02
         - -1.4660760266240533e-02
         - 6.9738063117949891e-04
         - -2.5045232847213258e-02
         - 3.2295369231784207e-02
         - -2.3244453841778482e-02
         - -2.7417392561862798e-02
         - -1.3688723354859992e-02
         - 2.3676266215593995e-02
         - 4.8235991158961463e-04
         - -1.6667260831387080e-02
         - -2.5062130624344876e-02
         - 3.9867205954410442e-02
         - -3.0892997426832824e-02
         - -2.0177950795470206e-03
         - 7.1863844597706335e-03
         - -3.2162086317489631e-02
         - -1.6630716399424296e-02
         - -1.9541650870005766e-02
         - -3.4086522028332018e-02
         - 7.0374415502778648e-02
         - 4.8313074075848998e-02
         - -2.2715857376812348e-02
         - -2.8496713228717885e-02
         - 3.7846647378988657e-02
         - 2.9023169436308168e-02
         - 2.1859320782714440e-02
         - 9.2878595158764413e-03
         - 4.9989828553437025e-02
         - -1.0846315612169902e-02
         - 3.6828473811580449e-02
         - -2.7652691239940588e-02
         - 4.2572020241563292e-02
         - 2.7294242872239458e-02
         - 3.2067977566378023e-03
         - -5.7643246547002612e-02
         - 8.3980528554189453e-03
         - 3.0551773986161141e-03
         - -2.9602066949990881e-02
         - -4.7295372071254262e-02
         - -1.1143289899685931e-02
         - -2.4104772404384002e-02
         - 2.9846820969238720e-02
         - 2.2349982794438863e-02
         - 6.0509201004586073e-02
         - -1.4946894649388420e-02
         - 6.6356510491561247e-03
         - 3.7294519062427672e-02
         - 3.6766668351559108e-06
         - -2.6356086094907846e-02
         - 4.1874416769715143e-02
         - -6.5758399368458960e-03
         - -3.8161770794494052e-02
         - -3.9972057536148591e-03
         - -4.4575500593087229e-02
         - -3.3919045737433179e-02
         - -2.6527638720372348e-02
         - -4.4085529891944961e-02
         - -2.7357734258909756e-03
         - -7.0099932845161638e-04
         - 2.9688951917676523e-02
         - 2.0399255430022800e-02
         - -3.3962445208689622e-02
         - 2.4077482369250214e-02
         - 1.6077438940419124e-02
         - -3.5953848841491227e-02
         - 3.0655149482239897e-02
         - -4.0995239317624547e-02
         - -7.1121815079587336e-03
         - 3.9741925731341596e-03
         - 2.7201323041346665e-02
         - -1.9613206322724095e-02
         - -3.2923909990842513e-02
         - 9.6094757072786464e-03
         - -1.1242312646755495e-02
         - 4.2609580354428921e-03
         - -1.8332482325816388e-02
         - -1.9188807252077555e-02
         - -2.4820194385734268e-02
         - 1.8993519572927518e-02
         - -3.6097477107045688e-02
         - 2.9299193193140196e-02
         - 1.3219595454761150e-02
         - -3.1922390198161591e-03
         - 5.1899485463593346e-02
         - 2.6372728212853400e-02
         - 1.6071841867575706e-02
         - 3.9946587122171600e-06
         - -3.3366878379407071e-02
         - 4.3136316520214803e-03
         - -4.1667451471111137e-02
         - 4.1341177166187492e-03
         - -4.9667997069200068e-02
         - 4.5316098801622316e-02
         - -2.0655219336270986e-02
         - 3.7538329632232519e-02
         - -3.9993584468693583e-02
         - 1.0885117276266183e-02
         - 6.6662900199247243e-03
         - 1.3021746714948388e-02
         - 1.2795188966018221e-02
         - -2.2412407805760173e-02
         - -1.5959911361200712e-02
         - -2.6503192489170817e-02
         - 4.2558578109296707e-03
         - 1.0957163074759661e-02
         - -2.0515679614992455e-02
         - 2.4290139032063788e-02
         - 2.3173658078985245e-02
         - 5.0533550668857502e-03
         - -3.3610461859565857e-02
         - 7.5243143474438157e-03
         - 2.8485032376067219e-02
         - 1.9151841823889119e-02
         - 4.2904422238030905e-02
         - 2.7044811968049793e-03
         - -1.3978727595420591e-02
         - -2.3783597309282381e-03
         - -1.4272583882931553e-02
         - 2.3711910059312558e-02
         - 3.3304853108461763e-02
         - -6.0105092467687207e-03
         - -2.8767193775541329e-02
         - -9.3819021789436647e-03
         - -4.3526616807205216e-02
         - 3.0679958481322676e-02
         - -4.0554528580233992e-02
         - 2.4246661248366181e-02
         - 1.0142326013745581e-02
         - -2.1934524637192421e-02
         - 1.7791540051463831e-02
         - 1.1868474543407863e-03
         - -1.1801490795444560e-02
         - -6.5813004742812176e-03
         - 8.3554788136173466e-03
         - 2.2702065323061196e-02
         - -2.4195454127784951e-02
         - -9.0407214176095006e-03
         - 3.5392876224489486e-02
         - -1.6597431412556794e-02
         - -1.3319956373980328e-02
         - -1.5378118202348710e-02
         - -1.5949757363628025e-02
         - 1.3381000031821294e-02
         - 3.4097065363937556e-02
         - 1.3035564767046672e-02
         - 1.6497461072200802e-02
         - 4.6478090929442960e-02
         - 2.9805156012641096e-02
         - 8.1479500049015125e-03
         - -2.7624450400126021e-02
         - 3.4835756060179995e-02
         - -2.8819081234567636e-02
         - 2.8921667056727180e-03
         - 2.6642119418146787e-02
         - 1.7374691301658980e-02
         - -1.8428508498427223e-02
         - 1.2267194507425820e-03
         - 3.0013181404731635e-04
         - 3.1197742115333226e-02
         - 3.5056668911145235e-02
         - -5.3161845017068322e-03
         - -8.8600886184050359e-03
         - -7.2651696689033434e-03
         - -2.1827608702817445e-02
         - -2.5535921890952898e-02
         - -1.7141770283181170e-02
         - -1.9420297722714053e-03
         - -8.8322909961564278e-03
         - -3.4040649802228255e-02
         - -1.4779139892677479e-02
         - 1.3290012809388210e-04
         - 2.1753478287363431e-02
         - 3.8086398409290546e-02
         - -1.4859093867688175e-02
         - -5.2172321680933713e-02
         - 3.3116803823296313e-02
         - -1.1012613773496451e-03
         - -9.5046248383657966e-03
         - 2.8373590127853954e-02
         - -4.6061736374192308e-02
         - -4.1164653206332315e-02
         - 1.8078275962118771e-02
         - -2.9611404843815851e-02
         - -2.1726311258279851e-03
         - 4.2014986999069200e-02
         - 2.9737907927096487e-02
         - -3.2729117333654932e-02
         - 1.8201058677903056e-03
         - -6.0430160627075193e-04
         - 4.3423326397768934e-02
         - 3.2193079329009486e-02
         - -5.6938641105967556e-03
         - -3.1635839140641699e-02
         - 1.4647466125719263e-02
         - 3.8614986833125149e-02
         - 3.0680204882614928e-02
         - -1.7509540354941809e-02
         - -2.5085940402942930e-02
         - -1.7721748118610520e-02
         - -9.0640279890909139e-03
         - 4.4899142317767357e-02
         - 1.4536695482118516e-02
         - 2.3502239762648778e-03
         - -2.0941420411714495e-02
         - 2.2963467933586650e-02
         - -2.4369476511944970e-02
         - 2.5714512919547579e-02
         - -9.1023444638497226e-03
         - -2.5166729330865327e-02
         - 3.3126822916523298e-03
         - -1.5011454739038284e-02
         - 4.9561026605784890e-03
         - 2.6789667017589499e-02
         - 3.0240272388959915e-02
         - 3.4610615644206172e-02
         - 4.2333877261944784e-02
         - -3.0587364116146445e-02
         - -9.2231088937414826e-03
         - 1.3622794518304258e-02
         - 2.7257328139089286e-02
         - -4.4823036944764590e-02
         - -3.8904646689210095e-03
         - 4.6479715316955370e-02
         - -4.4363633805726652e-02
         - 3.5758236947579104e-02
         - 2.0124234266724432e-04
         - 1.5612639297714904e-02
         - -8.5800367647570954e-03
         - 1.0501548140159361e-02
         - -2.6382504903497871e-02
         - -4.7586621373860213e-03
         - 2.3510697492652301e-02
         - -2.6143990264938608e-02
         - 2.2040780448436017e-02
         - 1.1543136928275652e-02
         - 2.1400886658485014e-02
         - 1.3606174352025401e-02
         - 2.8866530678436229e-02
         - 3.5524731636575595e-02
         - -4.4533075129159057e-02
         - -9.3678602866798903e-03
         - 1.2333400200349051e-02
         - 2.0072187783404690e-02
         - 4.0999915434007245e-02
         - 2.1219778853464662e-02
         - -1.5934453646847854e-02
         - 3.2547141303902703e-02
         - 2.7994055573358049e-02
         - -1.5023314774432596e-02
         - -2.3610952294183977e-02
         - 2.2814751671607871e-02
         - -4.0838279146426966e-02
         - -1.2680106599828411e-02
         - -3.3879691413232035e-02
         - 2.4822369706233951e-03
         - -1.5132915494443490e-04
         - 3.8439944987259882e-02
         - -2.4838214414701000e-02
         - 8.8719959926083277e-03
         - -2.1406837825472074e-02
         - -9.3441450811081236e-03
         - -1.4004583745306130e-02
         - -2.0792244894671571e-02
         - 1.4995682872858256e-02
         - -2.4658835310575625e-02
         - 3.5464014975997626e-04
         - 1.3823262157668643e-02
         - -8.2382247643259989e-03
         - -4.8347986045478693e-02
         - -2.0797676228303644e-02
         - 2.2878127507483619e-02
         - 9.6684464612794754e-03
         - -1.4454673761572636e-02
         - 2.3601876570693344e-03
         - 2.7187076101919557e-02
         - 3.5870523150212080e-02
         - -3.9995938404967346e-02
         - 2.2642946473395688e-02
         - -1.6234630539758332e-02
         - 1.2262977506576372e-02
         - 2.6143084355004138e-02
         - 2.8773367447342848e-02
         - 3.2346923777860491e-02
         - -3.8092758339510355e-02
         - -9.0507490079982447e-03
         - 4.7101489562946641e-03
         - 1.5035857558624891e-02
         - 2.0241932693386307e-02
         - -2.5346474843215474e-02
         - 3.9594824067152631e-02
         - 2.8318142469419827e-02
         - -1.6258596623976752e-02
         - -9.0399158626619062e-03
         - 3.1701980796505609e-02
         - 3.7367078327981479e-03
         - -3.4506960376946130e-02
         - -4.5875622036191825e-02
         - -3.4916406466677645e-02
         - -4.3660583075904917e-02
         - -1.6078322371700374e-02
         - -1.9386785272714327e-02
         - -1.9611324888929173e-02
         - -3.4982864323272085e-03
         - 3.9340935256178865e-03
         - 2.6090136694094448e-03
         - -4.6479699419825476e-03
         - -2.3405285743404388e-02
         - -1.9156944275393072e-02
         - -2.9190017684317015e-02
         - -3.5765869030980210e-02
         - -3.5986504962422707e-02
         - 4.6103037349978261e-02
         - -3.0799529301804511e-02
         - 7.6513149772508508e-03
         - 1.1939976864776579e-03
         - 4.7348258629200786e-02
         - -3.7787699390432486e-02
         - -9.9271415700849935e-03
         - 1.7763041450149973e-02
         - 2.0511618911725794e-02
         - 3.0815377967182041e-02
         - -3.5907389125181703e-02
         - -4.2836872987560171e-02
         - -4.3299266514442027e-02
         - -4.1586013045738831e-03
         - -6.9394637233848673e-04
         - 1.8496092512658154e-02
         - -1.6937858776329317e-02
         - 3.9756828293606654e-02
         - 1.8522157132362611e-02
         - -4.5810345075602971e-03
         - 3.0179602420366447e-03
         - -3.0368257748110902e-02
         - -1.7272656212433513e-02
         - 1.5295037646861395e-02
         - -4.1469996887151719e-03
         - 1.9369555568469150e-02
         - -2.8806189318514128e-02
         - -3.9544523081684886e-02
         - -1.2266294392584217e-03
         - -3.2939576755917299e-02
         - 2.1448831691443137e-02
         - -1.4349003692695959e-02
         - 1.7017898446217820e-02
         - 2.1989590039936265e-03
         - -1.2411757657292882e-02
         - 3.0281544148238405e-02
         - 5.2944627568926393e-02
         - 2.8562494233010445e-02
         - 3.3818587386927619e-02
         - 3.1326282653443803e-02
         - -1.3424202902528192e-02
         - -1.5573876693455602e-02
         - -3.8834438822797385e-02
         - -2.9711082508295829e-02
         - 3.2958088498252158e-02
         - 1.6157124740324144e-02
         - 2.2797032289381469e-02
         - -1.1209526923337385e-02
         - -1.4663467878888953e-03
         - -1.1860392250963676e-02
         - -2.8646869565413603e-02
         - -1.7169434665394594e-02
         - -4.3112295920009940e-03
         - 1.6118764781078158e-02
         - 4.4168179760783639e-02
         - -1.7097160961894016e-02
         - -6.3358594800677123e-03
         - 3.3795158549309447e-03
         - 3.0278326637087394e-02
         - 1.4843145950129191e-02
         - 1.1453229469828326e-02
         - -1.2742719541657607e-02
         - -1.6743468352019595e-02
         - -7.8226877181022047e-04
         - 2.9905668036743074e-02
         - -1.1755023860477533e-02
         - 1.5101725411909015e-02
         - 4.0221702914583719e-02
         - -5.9283899918983161e-03
         - 2.7438164830180103e-02
         - -1.2166489986406570e-03
         - 1.2276227356849728e-02
         - -4.2569907934054949e-02
         - 3.3042952625985049e-02
         - -7.3267268254352614e-03
         - -3.9675392987537007e-02
         - -2.4385457295851096e-02
         - 2.3466594413011892e-02
         - -2.8037438196648376e-02
         - 8.4918931347721140e-03
         - -6.3495995211972902e-03
         - 2.7653581126996184e-02
         - -2.9713879058118432e-02
         - -2.8767681964694196e-02
         - 3.6491533280033875e-03
         - 2.3676548955482098e-02
         - -1.2771453561866953e-02
         - 8.4080810916568743e-03
         - 2.9687251451986814e-02
         - 4.0003835432598785e-02
         - -1.9693125438379380e-02
         - -1.0996691324467597e-03
         - 1.3614024144659998e-02
         - 5.8037903638086539e-03
         - 6.1888998297728454e-03
         - 7.8561446490801601e-03
         - -1.7134130464385396e-02
         - -3.3866777949765697e-02
         - 2.4104149298383427e-02
         - 1.3833065700036886e-02
         - 2.5490593124862758e-02
         - -3.9914671139440069e-02
         - -3.8340745627720739e-02
         - -2.4952240940680954e-02
         - 2.3576246654312877e-02
         - -3.6330034805739605e-03
         - -2.3900609727738994e-02
         - -1.4378665541740573e-02
         - -5.8804652923457358e-03
         - -3.8964221777438433e-02
         - -1.7526196475508855e-02
         - 3.6187610630939615e-02
         - -4.7948004947280812e-02
         - 2.5232913979850741e-02
         - 1.1255948453269724e-02
         - -3.8176481819669761e-02
         - 2.4660248586746706e-02
         - -2.4403269203550376e-02
         - -3.1550463058951310e-02
         - 4.4948714824654304e-02
         - 3.4836105985970880e-02
         - -3.6899471181306528e-02
         - 5.4163182195381600e-03
         - 1.6283513606342107e-03
         - -1.7297037781820176e-02
         - -3.7086367664352922e-02
         - -8.6412357324081226e-03
         - -7.0858121201227264e-03
         - 6.4405009218403610e-03
         - -8.3277662478794326e-03
         - -2.0055973943729462e-03
         - 2.0516347265911301e-02
         - 4.8298302302705966e-02
         - 1.4405813747200973e-02
         - -6.5183319290634490e-03
         - 3.9850028549389641e-02
         - -3.8166362058033372e-02
         - -3.3161859247779563e-02
         - -2.9810109419308048e-02
         - 4.7823492090633760e-03
         - 1.0517451974525560e-02
         - 5.8096189040525445e-03
         - -3.2270272233583088e-03
         - -9.0435694041088536e-03
         - -7.1261389379710114e-03
         - -7.2358843523792861e-03
         - 1.7805854956457270e-02
         - 2.3781819031392273e-02
         - -5.5291984272123160e-02
         - 2.3729746960151159e-02
         - -3.0474122678904904e-02
         - 1.7187772056376952e-02
         - 1.6719858994663189e-02
         - -1.0958873630423997e-02
         - -3.3597646838161029e-02
         - -4.0954920079788867e-04
         - -3.4914899867511055e-02
         - -4.1798603845073050e-03
         - -2.8909141422484359e-02
         - -1.8076514572694560e-02
         - 5.7687583639152128e-03
         - 2.6478437461510244e-02
         - -3.9827684095635210e-02
         - -5.3516496016183225e-02
         - 2.3624780351677657e-02
         - 1.9509217872948115e-02
         - 2.4187142157572443e-02
         - 3.4163644415793094e-02
         - -2.6599472613910644e-02
         - -9.3312013546993280e-03
         - 3.3387469382022472e-02
         - 1.0020368753711772e-02
         - -1.6866717031712566e-02
         - -2.2881717131493864e-02
         - -1.7129229812300792e-02
         - -1.0147728319186519e-02
         - -5.4128618420746698e-02
         - 2.3796248824034350e-02
         - 1.2138970882679128e-03
         - 3.2999066795739170e-02
         - -2.2253341576992165e-02
         - -2.2906914896410738e-02
         - -2.3659938646301577e-02
         - 1.5025137632720766e-02
         - 1.8727318115965067e-02
         - -1.4861628008717985e-02
         - 1.5529809889052370e-03
         - 3.5334058186947813e-02
         - -1.7715280148741665e-02
         - -8.6449253571486452e-03
         - -4.8262117402579158e-02
         - -2.9212213716913304e-02
         - 4.7653525131550543e-02
         - 2.8125855004227089e-02
         - 2.8991155044544255e-02
         - -2.6743876942874185e-02
         - 3.7141054956808936e-03
         - 2.3982096603771832e-02
         - 1.0901090770494981e-02
         - -2.0023060069427898e-03
         - 8.5499681567168181e-03
         - -2.2378696392656414e-02
         - 5.2965618210418786e-03
         - 9.7148595089118373e-03
         - 4.4814825973543464e-02
         - 1.0708793925893897e-02
         - 2.6902512181441976e-02
         - -3.2076431961014951e-02
         - 2.1241711260740859e-02
         - -1.3808207198622781e-02
         - -3.0711838207179390e-02
         - 1.5834971115463389e-02
         - -2.7739285680036446e-02
         - 2.7101744294152470e-02
         - -2.1119789311536304e-02
         - -1.8796432996468682e-03
         - -2.2866453519779267e-02
         - 1.4801333231048848e-02
         - 1.7542921142913077e-02
         - -2.4674019138073915e-02
         - 1.8120329437061929e-02
         - 2.3141598945374819e-02
         - -7.7178198868723168e-03
         - -1.3247446845510537e-03
         - -3.0166943606089892e-03
         - 2.1075383332972111e-02
         - 7.0540620221933277e-03
         - -1.3113582913169951e-02
         - 9.8839063675269095e-03
         - -1.6920499230908315e-02
         - -3.2689140204914924e-02
         - -3.1964296570702856e-02
         - -2.9006142995672717e-02
         - 1.3305521658994341e-02
         - 6.0345725743093503e-03
         - 9.3009525111461128e-03
         - -1.5896319027411589e-02
         - -1.9603240154129377e-02
         - -8.0726512467087473e-03
         - 4.8362775879125883e-03
         - 3.2427534132414344e-02
         - -3.0666575078053039e-03
         - 2.8968213039366170e-02
         - -2.7954931259060130e-02
         - 4.1382918968745117e-02
         - -4.5418241255612959e-02
         - 6.9386497211528109e-03
         - 1.8971336225730016e-02
         - 1.1111693866511911e-02
         - -3.5693179829532087e-02
         - -1.0181341870451981e-03
         - -2.2936962040686199e-02
         - -6.1503118850189265e-03
         - -4.8884090200271325e-03
         - -4.2872742478040883e-02
         - -3.7936302952650644e-02
         - -7.6321368246246545e-04
         - 1.9556407210226827e-02
         - -5.0669601203153225e-03
         - 2.2674045519898243e-02
         - 3.5429143267417605e-02
         - 3.4150509321327092e-02
         - -1.2286845033759996e-02
         - -1.3960685880085550e-02
         - -3.1165358982630415e-02
         - -4.0168797714573105e-03
         - 1.0960005521365819e-03
         - 3.6533870895789931e-02
         - 1.2059666208305781e-02
         - -4.8770812706845175e-03
         - 2.3322650213054037e-02
         - -1.6723864069269411e-02
         - 1.0843249329789416e-02
         - 3.0655496420205163e-02
         - 4.2878032823975377e-02
         - 8.5771667297583291e-03
         - -1.3808856150227190e-02
         - 8.3059460609565348e-03
         - 4.1836001953092236e-03
         - -3.7062872770909708e-03
         - 4.3984885767998520e-02
         - -4.8042179539004035e-03
         - -3.4923405473650505e-02
         - 4.0346245864431009e-02
         - 4.5346025146385735e-02
         - 4.7927259046497306e-02
         - -7.3532079638018749e-02
         - 3.0347428588833276e-02
         - -1.0188062883158116e-02
         - 5.3008058645045507e-02
         - -1.0712758229549108e-03
         - -1.2178490511138106e-02
         - 3.3869778255937504e-02
         - 1.0813046023011906e-02
         - 1.5494100875066434e-03
         - 1.2910513413492629e-02
         - -1.6881379877137941e-02
         - -2.0517346967100853e-02
         - -2.2166499575521623e-02
         - -4.6212734878051422e-02
         - -3.2255919641047771e-02
         - -1.3173562605768652e-02
         - 1.8348511571029416e-02
         - 4.6814229200048391e-04
         - -2.4733458902637426e-02
         - 1.9944332034375078e-02
         - 4.0124503484346735e-02
         - -1.4610898039938182e-03
         - 1.2289112166032526e-02
         - -1.8903862831118792e-02
         - -3.0853156745357973e-02
         - -1.5586925176425286e-02
         - 2.5489022591904324e-02
         - 3.0748536627747642e-02
         - -1.7142188476308707e-02
         - -5.0895016130811765e-02
         - -4.2794580791487555e-02
         - -3.6001572228161742e-02
         - -5.3457060895904310e-02
         - -7.8913832345757131e-03
         - -9.8060315418390786e-03
         - -1.2726632818756353e-02
         - -1.6453793409471646e-03
         - -2.1912333376512574e-02
         - 2.0335273023499190e-02
         - 3.1807292566831569e-02
         - -1.3614915021876142e-02
         - 4.0427234903071485e-02
         - 2.1615262077460909e-02
         - 5.0140464324703440e-02
         - 3.6159725070430172e-02
         - 1.0211723696676080e-02
         - -4.2737097913439590e-02
         - -9.2520074746158193e-04
         - 3.6572843302258545e-02
         - 2.9837261609826391e-02
         - -6.4346559261372935e-02
         - -1.9609200801004971e-02
         - -7.3807966075277402e-03
         - -3.9069561847282141e-03
         - -4.0826192965259495e-02
         - 2.8965693590293465e-03
         - -1.0895179336720264e-02
         - 2.2622126672980282e-02
         - -2.1621685490878003e-02
         - -8.9934071161664811e-03
         - 4.1636582986925338e-02
         - 7.1207923322037431e-02
         - 4.2526095553798327e-02
         - -9.2498576184950429e-04
         - 1.7469678730514981e-02
         - 5.5071663145630750e-02
         - -2.6342655963783015e-02
         - 4.0068199339018933e-03
         - 2.7794764656170215e-02
         - -3.9997797943585156e-02
         - -8.4733459221237636e-02
         - -4.6985889988062184e-03
         - 4.2990011163166961e-02
         - -1.6363778364446170e-02
         - 1.8749265031899527e-03
         - -5.5148657036984284e-03
         - -2.9354843888571545e-02
         - 7.9755595171133772e-02
         - 4.3949931746396803e-02
         - 1.2426047250482016e-02
         - 4.5921006092383254e-02
         - 2.1833248504484260e-03
         - -2.7113884107644568e-02
         - -2.1801212626184889e-02
         - -2.4312364661596763e-02
         - 4.6483549497917172e-02
         - -4.1516905621750408e-02
         - -1.8608746261820342e-02
         - -1.4571190371101019e-02
         - -1.5951478699387688e-02
         - 6.6508303631273693e-03
         - -2.0630396386872259e-02
         - 1.6456595336498906e-02
         - 2.7820763429500042e-02
         - -8.7218136705500115e-03
         - 4.1826199165035917e-02
         - 1.3409384661232631e-02
         - 1.6223514768807689e-02
         - -2.1557343095233313e-03
         - 1.3750274209870706e-02
         - 3.9441622797589559e-02
         - 5.5654695874488069e-02
         - 3.6839319760622768e-02
         - -3.1802425885397931e-02
         - -3.4035928485324739e-02
         - 6.2625842003358873e-04
         - -1.3112228394606422e-02
         - 3.6795570160598187e-02
         - 5.3990636360742011e-03
         - 2.6281755178160725e-03
         - -2.7837719116580985e-02
         - -1.5260423560000777e-02
         - 2.7618647754298051e-02
         - 3.0754271753815701e-02
         - 1.2561255414100159e-03
         - 2.5311334467420694e-02
         - 2.2530331557796521e-02
         - -2.5461000001801914e-02
         - -1.5832564515619693e-02
         - 1.3220243605573341e-02
         - 2.3237606208658921e-02
         - 2.6336424405971125e-03
         - -1.0918161319863719e-03
         - 3.5030730702358792e-02
         - -1.2169446181482769e-03
         - 1.0267070833670120e-02
         - 1.0710186099753667e-02
         - -6.0403387983621829e-03
         - -1.9393905306905792e-02
         - -5.9752672298616864e-03
         - -1.1215940364305437e-02
         - -1.3465165493211946e-02
         - -1.8911478312539750e-02
         - 3.7949399798849162e-02
         - -2.7144153104096583e-02
         - 2.1103968166851103e-02
         - -4.6755013789098630e-03
         - 2.7342913792221497e-02
         - -4.0123318532083466e-02
         - -4.3084684961640099e-02
         - -4.4522942799149591e-03
         - -4.8771415854191279e-02
         - -2.6399420595409884e-02
         - -3.7908544676972786e-02
         - -3.5305689052307467e-03
         - -1.3237844739019206e-02
         - 5.5277547698799993e-03
         - 1.7622586637662553e-03
         - 1.7092970079500960e-02
         - -1.8168481838903117e-02
         - -2.5672132519239967e-02
         - 3.0407838924987090e-02
         - -3.4768759097350450e-02
         - -7.8966901458097562e-03
         - -1.3762119906551689e-02
         - -1.1966891380246774e-02
         - 3.0836836731856981e-02
         - 8.5999043343099619e-03
         - -4.0981707378956135e-03
         - -1.9932832124666729e-02
         - 2.7028852946599166e-02
         - -2.1230697601617658e-02
         - 1.2098193028331962e-03
         - -2.8718517116827092e-02
         - -4.1367937435401354e-02
         - 2.5972394849787185e-03
         - 1.7807645308056966e-02
         - -2.2359920102294754e-02
         - 1.1700802180998230e-02
         - -4.0487995971012221e-02
         - 1.1031706862942215e-02
         - 3.1988551743732961e-02
         - 2.0444132425089946e-02
         - 3.0731650806976769e-02
         - -7.4069514267705878e-03
         - -3.0212249349352030e-02
         - -1.0676055010275572e-02
         - 1.4135460548411376e-02
         - -2.5574927246352620e-02
         - 6.5876965586373383e-03
         - 2.9324765638875396e-02
         - 3.4800564273956655e-02
         - 1.0465239797932881e-02
         - 1.1817046784840669e-02
         - -2.9757587855459185e-02
         - 2.0948447795750485e-02
         - -3.9150482706307943e-02
         - 1.5114396751142616e-03
         - 2.6880814022777689e-02
         - 1.1627917353439184e-02
         - 2.0074508961080754e-02
         - 1.7351299520540164e-02
         - -1.9487074541554312e-02
         - 3.4334643465361560e-02
         - 3.4017313248273756e-02
         - 3.1507557344163328e-02
         - 2.2572142266127585e-02
         - -1.6501627524164054e-02
         - -2.0837637867884808e-02
         - 4.9215976999010371e-03
         - 8.1154094341921671e-03
         - -4.3593799151386992e-03
         - 1.4079629993885318e-02
         - 1.0061849602160026e-02
         - -2.4433340441167892e-02
         - 2.7479922571380194e-02
         - 7.1374530828052767e-03
         - 1.2283546003112303e-02
         - -1.1702335518383046e-02
         - 3.3944242345082414e-02
         - 4.8724055612417829e-03
         - -1.5118725237486792e-02
         - -1.2139222501408991e-02
         - 3.0730751202292562e-02
         - -2.8772621338333877e-02
         - 1.6604794051544667e-02
         - 4.0760755564765529e-02
         - 5.0271292771600661e-02
         - -4.6556958326513000e-02
         - -3.5138972017665295e-03
         - 1.7087312798518380e-02
         - 3.3117589101218523e-02
         - 2.5224937462537376e-02
         - -3.4117609475525064e-02
         - -3.8534933999090339e-02
         - -8.7767372824328598e-03
         - 4.0926992497523594e-03
         - 4.2357943251075121e-02
         - 1.4697186609057234e-02
         - 8.3875647577494866e-03
         - 4.6273025974802101e-03
         - -1.4274392260505579e-02
         - -2.8336890645815242e-02
         - -3.3498074001194131e-02
         - 4.0375401760614438e-02
         - -1.5911321769769445e-02
         - 1.6783284216128763e-02
         - 3.1378151982856053e-02
         - 4.0745675598571791e-02
         - 1.9371262522919494e-03
         - -3.5277632966019518e-02
         - -3.4365749507270019e-02
         - 2.6878455530916705e-02
         - 1.5483933514887778e-02
         - 1.2205009120549294e-02
         - 1.9158567025470995e-02
         - -1.1859763505607147e-02
         - 3.0451284157086375e-03
         - 2.0061396428265082e-02
         - 4.7754140098866797e-02
         - 4.0875511308572426e-03
         - 3.4398498254098818e-02
         - 1.9077955071144310e-02
         - 3.4665862786207036e-02
         - 1.7538263208110846e-02
         - -3.6622606522773632e-02
         - 2.9965499199513967e-02
         - 4.4640993881466383e-02
         - 1.5884288505031596e-02
         - 1.5883079233725641e-02
         - -4.9300871003503197e-03
         - -3.1727109005479565e-02
         - 1.4146488368576170e-02
         - 3.5068318857316899e-02
         - -2.0281625058545965e-03
         - 7.0763087284052891e-03
         - -1.8433440539118873e-03
         - -3.4120990920092235e-02
         - 1.4175551954840153e-02
         - 1.8103271145169870e-02
         - -1.8105923192522216e-02
         - -2.8963113579049311e-02
         - -3.6471078988736125e-02
         - -1.3588982624611777e-02
         - -2.4444132122972334e-02
         - 5.5034156169033567e-03
         - -1.6318441991939183e-02
         - 3.0027850668409517e-02
         - 2.0106496920437252e-02
         - -2.7868213868583631e-02
         - -2.6492260249122230e-02
         - 1.1667368256449253e-02
         - -5.2023388562445795e-02
         - -2.7500309221756693e-02
         - -1.4158015970339155e-01
         - 4.5580768781699914e-02
         - -4.0114289932788021e-03
         - -2.4939632270302072e-02
         - 8.5606321598286367e-03
         - 6.6800924491362268e-02
         - -5.4692044938677428e-03
         - -3.1460324887259875e-02
         - -5.0495748502806465e-03
         - -7.4106399695746436e-02
         - -2.7748976346436893e-03
         - 5.0145586834779564e-02
         - 3.1623594431718388e-02
         - 6.8389020862469029e-03
         - 3.3828330205695874e-02
         - 2.6440670885194764e-02
         - -9.5599944133114054e-02
         - 2.3235786814256910e-02
         - -2.2248425886282917e-02
         - 1.0780518455302901e-01
         - -2.9727815169579237e-02
         - 1.5373389076404275e-02
         - 7.9672538164622178e-02
         - -3.2423714684202937e-02
         - 1.1217985175362093e-01
         - 7.2927629188439091e-02
         - 5.8892909857374193e-02
         - 8.4147843270597655e-02
         - -7.0447132393837750e-02
         - 1.4768386292229598e-02
         - -1.0578143934750708e-01
         - 5.7531423826187762e-02
         - 2.6473345083739375e-02
         - -8.1916097188326625e-02
         - -2.1790724773949111e-02
         - -2.5537682202691349e-02
         - 6.3702157231711534e-02
         - -8.8644121458490391e-02
         - -3.2493901829878991e-02
         - -9.4415265589061118e-02
         - 1.0209271425048251e-01
         - 2.6836579388406497e-02
         - 1.9905864175827626e-02
      -
         - 7.9370365059459036e-01
         - -8.0060825973081728e-01
         - -3.1331411142166626e-01
         - -4.3234327052110494e-01
         - 2.7794672513644675e-01
         - 5.5440516763120939e-01
         - -5.6071926833641594e-01
         - -1.4502472009104140e-02
         - 5.6080221310444955e-01
         - 1.9399033995149140e-01
         - 3.6238362675185853e-01
         - 2.3502475766625180e-01
         - 7.9079126157107804e-01
         - -5.1834354524076898e-01
         - -8.9040727150764706e-02
         - 9.8952154061113029e-01
         - 5.5591846237865472e-01
         - 9.8993635390475010e-01
         - 6.2031373224845227e-02
         - -7.1165911978433838e-01
         - -8.6632918061131292e-01
         - 7.4659044163215948e-01
         - 5.9556198048167763e-01
         - -9.4842082737390987e-01
         - 7.7448671037612660e-01
         - 2.2137855747816331e-02
         - -2.6771296683938284e-01
         - -5.0917725433454120e-01
         - -7.5424453943193681e-01
         - 8.5633385165205267e-01
         - -3.7059346984467628e-01
         - -5.9493748341332442e-01
         - -4.2071418373693781e-01
         - 2.2025050681829353e-01
         - 3.3602193246766809e-01
         - -3.7391149978407168e-01
         - -9.1290139083938085e-02
         - 8.0798419379405118e-01
         - 1.2996963674052434e-01
         - 2.0326657986476621e-01
         - -3.2717137244001759e-01
         - -2.0683206880522217e-01
         - 3.7611681948157438e-01
         - 3.4696860622367806e-02
         - 6.3045429512878437e-01
         - 4.0671678393262539e-01
         - 4.8153547833618476e-01
         - -5.8738327248959532e-01
         - -5.4506400587730275e-01
         - -3.0471267736901264e-01
         - 4.8800016176409035e-02
         - -4.1564032816780727e-01
         - 8.8384504946753850e-01
         - -4.4203792304464723e-01
         - 5.5263210810446317e-01
         - -5.8936023523519487e-01
         - -5.7749014900123175e-01
         - -5.2658631316104654e-01
         - 6.3167004577749697e-01
         - -1.8501984845160818e-01
         - -4.0644104012915200e-01
         - 1.4937671097199443e-02
         - -1.7154455169219082e-02
         - 9.6319024261828767e-01
         - 6.0962187795693679e-02
         - 4.1552742337993709e-01
         - -4.6676600489310460e-01
         - -4.2841711662248766e-01
         - 3.3268550811997327e-01
         - 6.4884052265542946e-01
         - -9.3570259223181962e-01
         - -1.0899841638760909e-02
         - -5.7870143895887938e-01
         - -7.9865727008663046e-01
         - -7.3038964558523523e-01
         - -4.1768730882375066e-02
         - 5.1738373787263914e-01
         - 3.0729445604712197e-01
         - 2.6037670009757832e-02
         - -6.2239510830338529e-01
         - -3.5279866079838566e-02
         - -7.6043742540125470e-01
         - 4.6436467364176531e-02
         - -4.7125406877816167e-01
         - -1.9468942651582710e-01
         - 4.6038479371834751e-01
         - 6.2179247875507104e-01
         - -3.6187512127001326e-01
         - -8.5349781597528374e-01
         - -9.9666838397646851e-01
         - -3.4169747368317704e-01
         - 4.1297044447153503e-01
         - -1.0094467702037406e+00
         - -7.2594677323485968e-01
         - 8.1132520877899816e-01
         - -4.5522004402110983e-01
         - -5.6693400769181612e-01
         - -6.0633450423579494e-01
         - -3.2466752845548957e-01
         - 5.2201358092523797e-01
         - -8.0064298699262659e-01
         - 9.4828031571019389e-01
         - 3.1966882006358133e-01
         - -3.6649175759602221e-01
         - -3.1894556337830521e-01
         - 4.3037511222266833e-01
         - 9.0563047665783203e-01
         - 8.6527639096802345e-01
         - -2.1719369539107894e-01
         - -3.7456782573928871e-01
         - -4.4027143846785294e-01
         - -3.0533362779355872e-01
         - 2.1912775809574156e-01
         - -1.2154216736729263e-01
         - 7.1328831827854899e-01
         - -5.4653518702533577e-01
         - 5.6195306720218552e-01
         - -2.4871390700561197e-01
         - -6.5780462829547426e-01
         - 8.6008992631946957e-01
         - -1.5322809670701545e-01
         - -9.5222680060038811e-02
         - 3.8358552853187827e-01
         - -8.6183702256037165e-01
         - -6.6225309569281787e-01
         - 6.3428753577745828e-02
         - 8.8931441350401563e-01
         - -4.2199996461199596e-01
         - 5.8811832114969054e-01
         - 4.6638412387758976e-01
         - 1.2464116324075382e-01
         - -4.8729954407228926e-01
         - 3.7988103495320075e-01
         - 3.7493655844597501e-01
         - 7.2993655604187313e-01
         - -1.3263320302711148e-01
         - -9.6280505840695729e-01
         - -9.0534490852765215e-01
         - -5.6273296234669967e-01
         - -1.9718169580700903e-01
         - -1.0335980600092556e-01
         - 6.3231201555984073e-01
         - 5.6738830658012140e-01
         - -8.6077848413944213e-01
         - 2.2149852216361693e-01
         - -4.1831237691334722e-01
         - -2.4860339050136102e-02
