%YAML:1.0
opencv_ml_ann_mlp:
   format: 3
   layer_sizes: [ 64, 64, 3 ]
   activation_function: SIGMOID_SYM
   f_param1: 6.6666666666666663e-01
   f_param2: 1.7159000000000000e+00
   min_val: -9.4999999999999996e-01
   max_val: 9.4999999999999996e-01
   min_val1: -9.7999999999999998e-01
   max_val1: 9.7999999999999998e-01
   training_params:
      train_method: BACKPROP
      dw_scale: 1.0000000000000000e-03
      moment_scale: 0.
      term_criteria:
         iterations: 100
   input_scale:
      - 1.
      - -1.
      - 1.
      - 0.
      - 4.7417615414290432e-01
      - -2.4601424086968215e+00
      - 1.4687486238942698e+01
      - -1.1710435469670184e+01
      - 8.9783312968639741e+00
      - -8.3660573202247590e-01
      - 1.1681075985650411e+00
      - -4.3344156384598937e+00
      - 1.0139416845768755e+01
      - -6.9156403816182799e+00
      - 5.7536281773211071e+00
      - -1.0221421258497549e+00
      - 1.
      - -1.
      - 1.
      - -45.
      - 4.2577354543209656e-01
      - -3.7294270853685143e+00
      - 1.0566759730177012e+01
      - -6.8022625066311635e+00
      - 8.7241868116671935e+00
      - -7.3891243467400747e-01
      - 9.5492783229099742e-01
      - -3.8640135968872076e+00
      - 6.3568211598644098e+00
      - -3.5582263902055740e+00
      - 5.4257234075164567e+00
      - -8.6551955582091644e-01
      - 1.
      - -1.
      - 1.
      - -90.
      - 3.5970212462140783e-01
      - -1.4910784677463915e+00
      - 8.3556837654617055e+00
      - -6.9369284532195259e+00
      - 8.3846340755360984e+00
      - -7.9713607647239437e-01
      - 9.5300774685603684e-01
      - -3.5669328321714149e+00
      - 6.1383657612833309e+00
      - -4.1560439666327511e+00
      - 5.6081296227282627e+00
      - -9.7436136653338801e-01
      - 1.
      - -1.
      - 1.
      - -135.
      - 4.0412634681662213e-01
      - -3.5398046051624745e+00
      - 9.9283972076436058e+00
      - -6.3945552805155863e+00
      - 8.8435739429999902e+00
      - -7.4197949591123058e-01
      - 9.6209188688558978e-01
      - -3.8908251393391065e+00
      - 6.4014084581415567e+00
      - -3.5743949934543306e+00
      - 5.4564583605625465e+00
      - -8.6520462503217210e-01
      - 1.
      - -3.
      - 1.
      - 0.
      - 1.6095168549971836e-01
      - -2.3092148494259677e+00
      - 7.2855965114891417e+00
      - -2.8848343055574470e+00
      - 1.0202620469119601e+01
      - -7.4573143735973146e-01
      - 1.0389618128862377e+00
      - -4.2163623258600147e+00
      - 8.7720302037872777e+00
      - -4.8173885001684900e+00
      - 5.9274520878639558e+00
      - -8.9785050384158160e-01
      - 1.
      - -3.
      - 1.
      - -45.
      - 1.7502772931042998e-01
      - -3.5685235265609858e+00
      - 8.1599013606571003e+00
      - -7.4907564159290441e-01
      - 9.6831576668138677e+00
      - -6.9561603140926187e-01
      - 9.0528484688344457e-01
      - -3.8172671789760590e+00
      - 5.9338167772074835e+00
      - -2.6636714038075051e+00
      - 5.5447492008192434e+00
      - -7.8227842983754070e-01
      - 1.
      - -3.
      - 1.
      - -90.
      - 2.0440671617114958e-01
      - -1.7577478628592758e+00
      - 4.2514349516079371e+00
      - -2.7138139089530977e+00
      - 8.7933766609534718e+00
      - -7.5197906956041360e-01
      - 9.1408318996246796e-01
      - -3.6423312001128756e+00
      - 5.2354056231106281e+00
      - -3.0554677206905234e+00
      - 5.5923118438247243e+00
      - -9.0874155959532688e-01
      - 1.
      - -3.
      - 1.
      - -135.
      - 1.6755550409077097e-01
      - -3.3676077591883646e+00
      - 7.8736091671416073e+00
      - -8.4705728575430017e-01
      - 9.9948397573166936e+00
      - -7.0255914360346983e-01
      - 9.1282300385625270e-01
      - -3.8472638135041928e+00
      - 6.1012655575809118e+00
      - -2.7377258847750885e+00
      - 5.6052261161733901e+00
      - -7.7285127216117133e-01
   output_scale:
      - 5.2631578947368418e-01
      - 4.9999999999999994e-01
      - 5.2631578947368418e-01
      - 4.9999999999999994e-01
      - 5.2631578947368418e-01
      - 4.9999999999999994e-01
   inv_output_scale:
      - 1.8999999999999999e+00
      - -9.4999999999999996e-01
      - 1.8999999999999999e+00
      - -9.4999999999999996e-01
      - 1.8999999999999999e+00
      - -9.4999999999999996e-01
   weights:
      -
         - -2.6004054171473927e-02
         - -1.9586719579871053e-02
         - 7.9953140897202762e-03
         - 1.6902579313716859e-02
         - 2.9244805377145876e-02
         - -3.0739658152373096e-02
         - 2.2178974474245685e-02
         - 1.4888519706054579e-02
         - -2.2265015699576934e-02
         - 2.0358769922601699e-02
         - 2.5184763345363514e-02
         - -3.1057565262980567e-02
         - -1.0866125645727445e-02
         - -1.1539695975888904e-02
         - -6.4848349026989790e-03
         - -3.1028969179974298e-03
         - -2.6023066666201410e-03
         - 9.0541908630668369e-03
         - 8.1427727846843639e-03
         - -3.9298379810387626e-03
         - -3.6601717085302079e-03
         - -2.4137251879972493e-02
         - -8.8641277291695714e-03
         - -2.2469741090912210e-02
         - 2.5911121038100341e-02
         - -4.2518080425629065e-03
         - -2.4187154084053180e-02
         - -1.2542174510037354e-02
         - 2.8983126285812243e-02
         - 8.9745576081320059e-03
         - -2.5947116365531205e-02
         - 2.4422804468042021e-02
         - -2.3449648924728936e-02
         - 1.9128549504002521e-03
         - -5.4524355852059343e-03
         - 1.8036552383701273e-02
         - -3.7566383635948891e-03
         - -1.6551241462249386e-02
         - -3.0870672369847675e-04
         - -1.9069267519481761e-02
         - -9.6482360383586471e-03
         - 1.1242666306817510e-04
         - -3.0449265468270059e-03
         - -2.2675392229097983e-02
         - -1.5301035937520316e-02
         - 1.9767897726587279e-02
         - 2.4801100497416073e-02
         - 2.7606658760142878e-02
         - -1.1462356380542767e-02
         - -2.5852780961174139e-02
         - 1.8885370708195601e-02
         - 2.2723806261162938e-02
         - -6.8683582342402910e-03
         - -2.0606819720890849e-02
         - 1.5862723726012513e-02
         - 2.4599071151499088e-02
         - -1.5754939223577683e-02
         - -1.3012816751315973e-02
         - -2.5233921577249414e-02
         - 2.1780938555881580e-02
         - -1.0280447299732865e-02
         - 2.7333323688792104e-03
         - -1.5974771998234227e-02
         - 5.5498102794589808e-03
         - 5.5537489291366468e-03
         - 2.4890089529991097e-02
         - 1.3450201138401185e-02
         - 1.3579730956018437e-03
         - 2.0175119720372729e-02
         - 1.2972505761527733e-03
         - -8.9590577276239466e-03
         - 2.3391397860469586e-02
         - -2.0494034518887629e-02
         - 1.4627514756581774e-02
         - 1.5253208415055045e-02
         - 1.4052002195430735e-02
         - -1.6112920927159456e-02
         - -5.4389414570252190e-03
         - -3.0650442033734121e-03
         - -1.5114139388916663e-02
         - 2.8858994531769867e-02
         - 2.9718811076289129e-02
         - -3.0196358815967106e-02
         - -1.0199933582601921e-02
         - -2.8873739672180206e-02
         - -6.7848401472213552e-03
         - 1.0441623331948872e-03
         - 2.3372864503948036e-02
         - -1.1638490136842285e-02
         - 1.3916577351421188e-02
         - -3.4889119979764722e-03
         - -2.3614722601012293e-02
         - -4.1802795268476561e-03
         - 1.5350636667224015e-02
         - 2.2483833108400100e-02
         - 8.4153394128515322e-04
         - 8.0639212317767366e-03
         - -3.3789537896064523e-02
         - 3.3862035042773781e-04
         - -1.3345930290612011e-02
         - 3.0445025348937799e-02
         - 1.7921185040133684e-02
         - 1.3207327479777530e-02
         - -7.9286915035012926e-03
         - 1.0309056825276670e-02
         - 9.7162310282132985e-03
         - 2.9552864415997367e-02
         - 2.9758991647942106e-03
         - -2.6059730831683296e-03
         - -2.8757928488023993e-03
         - -2.2399544390619124e-02
         - -1.2761046680487912e-02
         - -1.2080710753848712e-02
         - 1.3324756972620765e-02
         - 5.1727273064942833e-03
         - 6.2793783533871914e-03
         - -5.6815834438065579e-03
         - -1.0879074316975134e-02
         - -2.9336379158420380e-02
         - 1.6185843813406302e-03
         - -1.6951155916631808e-02
         - 3.0327018831429357e-02
         - -1.6341506579018261e-04
         - -2.2003893019657571e-02
         - 2.7009865663660218e-02
         - -7.1082939777054269e-03
         - -3.0338626136490632e-02
         - 3.5477911479827429e-02
         - -2.9966986958585344e-02
         - -1.4162167774734450e-02
         - 1.6069773551576957e-02
         - 1.7020676720691401e-02
         - 4.1016436896886572e-03
         - 1.4786027623782141e-02
         - -3.6528722926206192e-04
         - 9.5045186941934319e-03
         - 2.2279569716471308e-02
         - 3.1697188856967080e-03
         - -3.7549355533141350e-02
         - 3.0732010974208017e-02
         - 9.0729540436587132e-03
         - 2.6631567574743126e-02
         - -2.3051458446634438e-02
         - 3.1820958032960367e-02
         - 1.3840198472981766e-02
         - 4.7101231749610648e-03
         - -9.6531926634071362e-03
         - -6.0093574916055374e-03
         - -3.7998223854830891e-02
         - 2.0102809086797208e-02
         - -3.2408727442132683e-02
         - 3.3240854956106237e-04
         - -2.7595397770048984e-02
         - 7.4306940231506772e-04
         - -5.0079284193963465e-02
         - -1.1119331563276481e-02
         - -3.2807967916570022e-02
         - 2.9693309652632487e-02
         - 1.8223652393169216e-02
         - 4.0104570369044129e-03
         - -2.2554688036116131e-02
         - 2.2920891596526619e-02
         - -2.3846163093353988e-02
         - 3.0034525117062474e-02
         - -2.8228167601162587e-02
         - 2.0778181070097538e-04
         - 3.0580243492414800e-02
         - 5.2839031002559267e-02
         - 5.2865099293124889e-03
         - 4.4292013611959349e-02
         - -1.6270694122957372e-02
         - 5.5493834303296366e-02
         - 3.4799366273674172e-02
         - 1.0821723997632702e-02
         - 4.7955171413319293e-02
         - -1.3504094178719575e-02
         - -1.6792696530399970e-02
         - -2.3762574338286015e-02
         - -2.8999080921457612e-02
         - 3.2973266533804497e-03
         - 8.8919999581827044e-03
         - 2.3275322762093507e-02
         - 6.3869936952452274e-03
         - 3.8810503952027044e-02
         - -3.3461312665289752e-04
         - 1.4787957260741065e-02
         - 7.0013897334345338e-03
         - -2.3328282609706423e-02
         - -5.5145218416176082e-02
         - -4.7619450150674217e-02
         - 1.0027093232289177e-02
         - -8.2622908460601909e-03
         - -1.4211696061080281e-02
         - 8.9310107945724682e-03
         - 2.8768647784972835e-02
         - 1.4844293990710918e-02
         - -1.9121148319689193e-02
         - -2.8201117311337780e-02
         - -2.6861658243777349e-02
         - -2.2830516462381333e-02
         - -2.7908792131134505e-03
         - 2.1565977646593154e-02
         - 9.2341265854834938e-03
         - -4.0246270150590582e-02
         - -2.6076639684273591e-02
         - 1.9058808024238198e-02
         - 1.5906017093135143e-02
         - -1.8216988896319467e-03
         - 1.6422883108444863e-02
         - -5.5407987230816594e-02
         - -4.1704006691204218e-04
         - 2.7729717333556371e-02
         - 1.8174664038473065e-02
         - -2.5705312289200647e-02
         - 3.6302211331326759e-02
         - -1.1161678832016298e-03
         - 1.4528453791906009e-03
         - 3.4031033921986004e-02
         - 3.8313544995154025e-03
         - 4.4464647501767728e-02
         - -1.5969519523611208e-03
         - -1.0479148892979673e-02
         - -2.8884349845061618e-04
         - -3.9883369744191854e-03
         - -1.9807808860322376e-02
         - -3.1824205793756007e-02
         - 3.5680702744570116e-02
         - 1.0925157053002215e-02
         - 2.1712876997249244e-02
         - -1.2731651723740607e-03
         - -1.3673723360614686e-02
         - -5.9089285179084773e-02
         - -3.6128162955162829e-02
         - -5.5228412505563873e-02
         - -1.5161351478613723e-02
         - -3.2882844246513297e-02
         - -6.0319705221059193e-02
         - 1.0767597300230389e-02
         - -6.1789909608457420e-02
         - -1.1990553334154991e-03
         - -3.0346080240542295e-02
         - 3.4342554081462966e-02
         - -2.1920322895117011e-02
         - -9.8899380840898020e-03
         - -3.2489640167010073e-02
         - -2.4167019122598873e-02
         - -1.0422061325142876e-02
         - -1.3927761903464649e-02
         - -2.9881548536875076e-02
         - -4.2296848162132708e-02
         - -3.3942021804408036e-02
         - 5.1636981880143096e-02
         - 6.1809304161529015e-02
         - 6.9834235869430383e-02
         - -2.7579646460033601e-02
         - 2.9070771021801677e-02
         - -2.3654784638590706e-02
         - -2.2284967351712679e-02
         - -2.9674928592458702e-03
         - 2.3096249632906588e-02
         - -2.0110085556426870e-02
         - 2.5227733212270093e-03
         - -1.8816256754758520e-02
         - -2.6843617340162242e-02
         - 2.9086833353285029e-02
         - -2.2772120126233267e-02
         - 2.4406521096235565e-02
         - -1.7158774964887667e-03
         - 1.5214218785743073e-02
         - -1.0895190209643631e-02
         - 1.1675383861807272e-02
         - -3.5905084405084492e-03
         - -2.2413883749712416e-02
         - -8.8944721502724113e-03
         - 5.2563905694277217e-03
         - 1.7343715257620674e-02
         - -2.5073137377768125e-02
         - 1.0233846204066345e-02
         - 2.1741935301255347e-02
         - -1.1564640300275750e-02
         - 1.0363835842438092e-02
         - -2.6971396562761644e-02
         - 2.9000775761970398e-03
         - -3.4176125148025070e-03
         - -9.1569286697863340e-03
         - 5.2131721658264865e-03
         - -1.5706046146207055e-02
         - -4.4868320862539429e-03
         - 8.5247300897556555e-03
         - -2.5807932596470348e-02
         - -3.4870044025995357e-04
         - 2.1547221325069060e-02
         - -2.2609954339068272e-02
         - 8.9514983673279387e-04
         - -2.3516586133070512e-02
         - 1.6037017567722141e-02
         - 1.2027113549831454e-02
         - -2.2745136545219969e-02
         - -4.2753806044017843e-03
         - 1.2948138122559951e-02
         - -5.9205928585998454e-03
         - -1.9091110646632638e-02
         - -1.8597054102279329e-02
         - -9.0796811962420513e-03
         - -1.3067832204621439e-02
         - 1.9215428203386356e-02
         - 2.9895551949290392e-02
         - 2.5052131101659506e-02
         - 2.6831820492623777e-03
         - -1.4503945615917254e-02
         - 3.8030966038042030e-03
         - -1.3867291049040983e-02
         - 4.7130886847607948e-03
         - 1.4814876933845192e-02
         - -2.2775884749147657e-02
         - -2.9858829534777923e-02
         - -1.1088022458575174e-02
         - -2.7387510721983605e-02
         - 6.3077566125034632e-03
         - -2.9327820448009856e-02
         - -6.9455847250003344e-03
         - -1.9115785733016210e-02
         - 1.5594269753933207e-02
         - 1.0856337652955607e-02
         - -6.5911741287606480e-03
         - -3.0626248380820443e-02
         - 3.7073981617104373e-02
         - 1.9935308438772345e-03
         - -5.7546444884712163e-03
         - 1.9642067903991506e-02
         - -2.3224060154502478e-03
         - 2.1276703639942818e-02
         - 1.5972634682610176e-02
         - 1.3107678156189054e-02
         - -3.5018277008392801e-02
         - 8.0674779999306435e-03
         - 1.7482258346027620e-02
         - 2.3062335187193448e-02
         - 3.5854158761707867e-02
         - 4.2248368110379665e-02
         - 3.6285203932413730e-04
         - 3.5522979773580703e-02
         - -7.7786421152615318e-03
         - 1.6354111027231676e-02
         - -3.7544724082461366e-03
         - -2.8874838644459722e-02
         - 1.8315491418817772e-02
         - -2.8303953230422643e-02
         - -3.1433927320606652e-03
         - -1.9978142992082643e-02
         - 3.5480572557206665e-04
         - -1.8285300153462969e-02
         - -2.5584758622800026e-02
         - 1.2535662463661227e-02
         - -1.6997395650375627e-02
         - 2.6464597780141146e-02
         - -2.9899602045320228e-02
         - -2.3403220250573686e-02
         - -2.0693469144776708e-04
         - 4.8641612998315514e-02
         - 2.8006172055185619e-02
         - 2.3568223626404470e-04
         - -1.0661375216450258e-02
         - 4.7325914665262390e-02
         - -5.1376587127445516e-04
         - -8.1755339689178631e-03
         - 2.8485413487721808e-02
         - 1.0090233363897144e-03
         - 3.5655326497144021e-02
         - 7.5759551093468498e-03
         - -1.9314125124741979e-02
         - -4.1993825610110808e-02
         - 3.2474644376012510e-02
         - 2.9639327626756752e-04
         - -6.3822875942440909e-03
         - 2.0845837154214102e-02
         - 2.2982961227473710e-02
         - 5.0348704465847577e-02
         - 5.6113955631941796e-03
         - -6.8124359092428931e-03
         - -4.7726854676147221e-02
         - -2.6568159379824707e-02
         - 7.1405819450611318e-03
         - -2.1599505929324546e-02
         - 1.3232404342829289e-02
         - -2.7380228163833325e-02
         - 3.5209397951157205e-02
         - -3.4047903946003146e-03
         - -4.3588372563701835e-02
         - -1.3686643861879379e-02
         - -7.1236636990502825e-02
         - 8.8291523132492961e-03
         - -5.1377189746995053e-02
         - -4.6450379149275790e-04
         - 2.3084008261563878e-02
         - -2.8355423345888274e-02
         - -2.1151008640849664e-02
         - 8.9355329915715830e-03
         - 3.5102660874734209e-02
         - -1.4404427509574214e-03
         - 1.8708678925315855e-02
         - -2.6728061100854870e-02
         - 2.2584297462142112e-02
         - 8.2569826918324780e-03
         - 1.0562247348181366e-02
         - -5.8826878747010154e-02
         - 5.9904431224700591e-03
         - -2.1770237549434052e-02
         - 1.0325953287872723e-02
         - 4.9019617367539660e-02
         - 4.6093820741246586e-02
         - 3.1827618050296227e-02
         - 5.8714643416040692e-02
         - -1.2578685494242051e-02
         - -1.0480800137846708e-02
         - 2.5642506524202005e-03
         - -2.3227765173680540e-02
         - -4.1488271519493719e-02
         - 4.3738432945212284e-02
         - -4.5092208995385373e-02
         - 4.8829080600218955e-02
         - -3.1013779490852024e-02
         - 3.6068197698443608e-03
         - -5.6186412972036463e-02
         - -4.3729565204583383e-02
         - -2.7514201590858382e-02
         - -3.3214315321627309e-02
         - -6.0385894426639587e-02
         - -7.2743360751435046e-02
         - -1.5823192077838735e-02
         - -2.9772412451415094e-02
         - -3.1017662885446988e-02
         - -2.2031498508138896e-03
         - 4.5293056787914759e-02
         - 1.1196856870239002e-02
         - 8.1259910032952919e-03
         - -2.9941079755004523e-02
         - 6.3434136625075896e-03
         - 2.7150455819772108e-02
         - -5.3416819896640469e-03
         - -2.3887134965890268e-02
         - -5.2791459090314893e-02
         - -6.2350600921207679e-02
         - 5.7371372600340940e-02
         - 5.7872146492110650e-02
         - 3.4381653485550022e-02
         - -8.3010084081762917e-03
         - 1.9356047082017405e-02
         - -1.6998710974808186e-02
         - 2.1676092593864223e-02
         - 2.0242832975587582e-02
         - 1.8772818368469987e-02
         - -3.3904624664824780e-02
         - -1.6636252266001585e-03
         - 2.3460282910954464e-02
         - -2.1500480733942770e-02
         - -1.1844777635033917e-02
         - 3.2495262963710123e-03
         - 2.2921429094036245e-03
         - 7.2946955196402964e-03
         - 3.1616987951372604e-03
         - 4.1219302266193303e-03
         - 9.4347126611198564e-03
         - 4.5849732027344913e-04
         - 2.0522671112945843e-02
         - 1.0223308759683639e-02
         - -3.0572657780369952e-02
         - 1.8735091931981217e-02
         - -2.2455767542994203e-02
         - 2.9681349871495601e-02
         - 7.2287954576078532e-03
         - -3.1874377462325710e-03
         - 4.7770285104496721e-03
         - -1.5063540487686679e-02
         - 2.2237796353691618e-02
         - 4.2498139923138856e-04
         - -3.7029602997650461e-03
         - 1.0105127106576852e-02
         - 1.5302405290588733e-02
         - 1.1192281269281495e-02
         - -1.6921372970705749e-02
         - -9.2847834128942028e-03
         - 7.3310743005048822e-03
         - 7.0500320741388595e-03
         - -2.2379144304691748e-02
         - 1.3278153014220449e-02
         - -1.1963736252043371e-02
         - -1.9870423276075185e-02
         - -2.7726961057620583e-02
         - -2.4878220013157482e-02
         - 1.9777829794725890e-02
         - 2.9740448419377868e-02
         - 1.1180965204240898e-02
         - -7.9309282831363272e-03
         - 2.6177305517238202e-03
         - -2.2875445590206503e-02
         - -1.1159566924984833e-02
         - 2.2403355317691868e-03
         - -1.3286992467173353e-02
         - 1.0532541286137440e-03
         - -1.2206889185621779e-02
         - 2.6905919339496463e-02
         - 5.8749408771734627e-03
         - 1.5861319437813257e-02
         - 3.1468416304038078e-02
         - -8.1885451307261662e-03
         - -2.4189478639789954e-03
         - -7.2830692119346899e-03
         - -2.4795546879141542e-02
         - 1.1245369594971806e-02
         - -1.5356357008060696e-02
         - 1.2553431694769419e-02
         - -1.6307540572607918e-02
         - -1.5133239654331642e-02
         - 2.1833537227652841e-02
         - -1.0716989865076499e-03
         - -2.5191342446430020e-02
         - 1.2603083462786822e-02
         - -1.8462753453760943e-03
         - 1.2706606308790348e-02
         - 8.2921320158948850e-03
         - -1.5840958306164016e-02
         - 7.0164899565337948e-03
         - -9.4713509410409465e-03
         - -2.2961719810012278e-02
         - -1.7831886692960749e-02
         - 1.4345063572415601e-02
         - 7.7351195546455868e-03
         - 2.4202156059770635e-02
         - 2.1250556918664374e-02
         - -2.9529555394248185e-02
         - 2.5015735912529043e-03
         - -8.1056145981532532e-03
         - -1.5547631773381251e-02
         - 2.3864253158044271e-02
         - -1.7761007121427370e-02
         - 1.5621866279557637e-03
         - -4.5097418161981727e-03
         - 6.4911661282778237e-03
         - 4.6752504521501478e-03
         - 3.0229880155607340e-02
         - -5.2691151244776296e-04
         - -1.1203154484029814e-02
         - 1.9818948146252627e-02
         - -1.5563116374219456e-02
         - 1.6709449377049680e-04
         - 3.0990657481043838e-02
         - -1.5056147599418370e-02
         - 2.0682162230363382e-02
         - 2.5707077892822706e-02
         - 1.9993356651240121e-02
         - 1.1168173867662447e-02
         - 6.7067473525386084e-04
         - 3.2207088940527273e-03
         - -2.6701546973631016e-02
         - -2.7996464621938558e-02
         - 2.7188482813633789e-02
         - 1.5463490043833052e-02
         - 2.4728797049252569e-03
         - 5.1393145319029365e-03
         - 2.7088033728417917e-02
         - -5.3515925862258123e-03
         - -6.0912246858412710e-03
         - 1.8024141883161617e-02
         - 1.9335551277759624e-02
         - 6.0263906428094753e-03
         - -2.9332188117777583e-03
         - 1.8706162377942503e-03
         - 1.9106158239679108e-02
         - -2.3443811916604388e-03
         - -3.9149245463684741e-03
         - 2.8707045200506619e-02
         - -1.6549791181773878e-02
         - 1.8081883063047085e-02
         - -1.9389130361650287e-02
         - -3.1683585489553148e-02
         - 1.9896681423968967e-02
         - -1.5916919869467624e-02
         - -1.6124016422370210e-02
         - 6.4049614175322430e-03
         - 9.1347729187003061e-03
         - 1.9142975299943903e-02
         - 1.9356977582971752e-02
         - -3.7060268604494173e-03
         - -8.2794102734848850e-03
         - 2.1615866207402110e-02
         - -2.3993763368786440e-02
         - 7.4851162539765637e-03
         - 7.2114998714157945e-04
         - -2.4236353746602369e-02
         - -1.3851089727721757e-02
         - 1.5689357729525642e-02
         - -1.0000144906077233e-02
         - -2.8384888071060922e-02
         - -8.6315099368912216e-03
         - -1.8492572416628019e-02
         - -1.3749369983029671e-02
         - -1.0293177284439575e-02
         - 1.1803828566068387e-02
         - 1.3099817642677813e-02
         - -5.3180976799124249e-03
         - 1.5722157586291415e-02
         - 2.6987622773577594e-02
         - -2.0137052169159980e-02
         - 1.3407923220394136e-02
         - 2.4119974902231753e-02
         - -6.6008773130151344e-03
         - 1.6859215474247815e-02
         - -3.0451394155255957e-02
         - -2.4781670238979921e-02
         - 3.0716325672794330e-03
         - 3.3104419355150577e-03
         - 1.6810935963783907e-03
         - -1.0589947005330868e-02
         - -3.1876917469575272e-02
         - -1.7626631948580749e-02
         - 2.1590708390887038e-02
         - -2.3230157475669460e-02
         - 1.6554725444117759e-02
         - -2.1842200688957408e-03
         - -2.0495441967410141e-02
         - -1.7450738429791855e-02
         - -3.3253582527908165e-02
         - -1.3489733933267767e-02
         - -1.4900386902738939e-02
         - 1.4071183732366330e-02
         - 9.9762155441337208e-03
         - -2.9553250181523574e-02
         - 2.0254324287091348e-03
         - 3.1200034395663132e-02
         - 4.3597708966737628e-03
         - 2.5329163735024158e-02
         - -3.1516625721316875e-03
         - 2.9749954753164351e-04
         - 8.9378621466817769e-05
         - -2.5849507009797990e-02
         - -2.2785561646683692e-02
         - -3.8864854791188356e-03
         - 1.7275200484365431e-02
         - -2.2898125846580016e-02
         - 7.5872988931295661e-03
         - 5.0571565473756189e-03
         - 9.2043763210992811e-03
         - -2.0132997896191399e-02
         - -1.6499743206286241e-04
         - 1.5079083308167963e-02
         - 2.3571996336760055e-02
         - -8.2913455293680445e-03
         - -3.4457894195930913e-02
         - -1.1312766158879599e-02
         - -7.8097966558775343e-04
         - 2.4145959318730693e-02
         - 1.3588376382692108e-02
         - 2.6649967669988908e-02
         - -1.9783024834632255e-02
         - -2.2035826427528864e-02
         - -1.7378551091049264e-02
         - 1.6519842111125563e-02
         - -1.0943705229981813e-02
         - 9.6153726722197658e-04
         - 7.7901770350635715e-03
         - -2.4086114651069444e-02
         - -4.0782466707006641e-03
         - 3.0709711874919676e-02
         - 3.0759974069297950e-03
         - 3.7284361194550618e-04
         - 5.4470701321108692e-03
         - -8.8944168275327026e-03
         - -1.1423016000287037e-02
         - 3.3307550936974489e-02
         - 2.8566425592149843e-02
         - 1.8810790963526773e-02
         - 9.9129039713029086e-03
         - -1.8903403926649399e-02
         - -2.0395174395176765e-02
         - 2.5266114996639638e-02
         - -2.9201610487935999e-03
         - 1.3908157817752833e-02
         - -1.7423370013388041e-02
         - 3.7438920111511585e-02
         - -1.1611242941623431e-02
         - 1.1459927652768266e-02
         - -1.4256772298483157e-02
         - -1.7999190952108800e-02
         - 3.3884718898090409e-02
         - -1.9121310453568308e-03
         - 2.9214960832626015e-02
         - 1.2887693206376940e-02
         - -1.3136216109316220e-02
         - -2.6356775953077963e-02
         - -2.3874953806427988e-02
         - 3.9959233082159810e-02
         - 6.5161013508541958e-04
         - -1.5989955383270176e-02
         - -3.5037973976050671e-02
         - 1.9617914060295484e-02
         - -1.3771426669231182e-02
         - -1.4762270177902668e-02
         - -1.4599241601397030e-02
         - 2.0605034424759192e-03
         - -1.7843378873354448e-02
         - -4.7815738670176234e-03
         - 9.7534227568539186e-04
         - 2.1449210257286938e-02
         - 8.0890236888063512e-03
         - 1.0222704494273560e-02
         - 2.1065301285402335e-02
         - -1.0831010019803085e-02
         - 9.5248340490077191e-03
         - 2.1654580303691225e-02
         - 1.1223636197196844e-02
         - 1.6949966992647149e-02
         - 6.9813984281016659e-03
         - 1.0348128989331134e-02
         - 2.8337680827789629e-02
         - -2.1900685682957131e-02
         - -3.5991122764393157e-04
         - 1.0882166493952281e-02
         - 2.0712858720737623e-02
         - 1.2966626145797092e-03
         - 1.2006358634369290e-02
         - -2.1462450742465524e-02
         - -1.7382905003338753e-02
         - 1.0887362878440179e-02
         - 7.0214710182325336e-04
         - 2.9782668927392456e-03
         - -9.6669220707694733e-03
         - -1.6025315893374976e-02
         - 1.8291966123248068e-02
         - 4.4345805959309162e-02
         - 1.3278789464530736e-02
         - -6.0281962338578675e-03
         - 3.3275316724195696e-02
         - 9.3662732195180752e-03
         - 1.0614342063406213e-02
         - -2.3984749528633189e-03
         - -1.2984738476924478e-03
         - 1.0534063619577755e-02
         - -1.0890475858597469e-02
         - 7.9536003160490965e-03
         - 3.3612245330284882e-02
         - 8.8293303039887194e-03
         - -1.7831586878422997e-02
         - 8.3245106160099412e-03
         - -1.9070731601460136e-02
         - -1.9350211115565317e-02
         - -1.6681693804311757e-02
         - -1.0464903928462983e-02
         - -3.3374628700611877e-02
         - -6.0188005694164102e-03
         - -2.3276469236795654e-02
         - -2.8263667909166606e-03
         - 1.9780360489241165e-02
         - 1.6332201777538077e-02
         - 2.0102125628773136e-02
         - 1.7616692271492367e-02
         - 8.1719643316490419e-03
         - 2.9549362738459702e-03
         - -2.3101456090371873e-02
         - -3.4182387255610319e-02
         - -3.6104480357093747e-03
         - 2.0366881841678282e-02
         - 1.1843712071387390e-02
         - 3.7028411190854586e-02
         - 2.3447673111082353e-03
         - 7.8439992243916692e-03
         - 2.8740659343982924e-02
         - 1.7491307316868633e-02
         - -1.8925297901014160e-02
         - -1.2250006797059943e-02
         - -1.2080836102493182e-02
         - -1.8637557682630368e-02
         - 5.8421430353443327e-03
         - 1.5539128905872741e-02
         - 2.8833388900247343e-02
         - 3.7865253747738155e-03
         - 3.5210075163898825e-02
         - -8.6390998111245104e-03
         - 1.3594018573501792e-02
         - -1.5309816339560670e-02
         - 1.8777871256064491e-02
         - -2.0494393817734609e-02
         - -1.0567585335070297e-02
         - 1.2655166560102160e-02
         - 3.0784293354744186e-02
         - -5.5656859921765422e-03
         - 6.2594021027867945e-03
         - -1.8752811407093499e-02
         - 2.3068554700783128e-02
         - 2.7042603634711646e-03
         - 7.6938990197736512e-03
         - 2.7799358859036956e-02
         - 2.6181923851372080e-02
         - -3.7678035127135898e-02
         - 9.2946764275207618e-03
         - 1.5505956456065444e-02
         - -2.5449819694369387e-02
         - 1.2509020719758599e-02
         - -8.1273120806409933e-03
         - -2.0741177483720851e-02
         - 1.5988374170898902e-02
         - -1.3199953556739150e-02
         - 3.4146603007964890e-02
         - -2.3371464022622354e-04
         - 2.4162160374750954e-02
         - -8.0887164511666866e-03
         - -1.0133169910647839e-02
         - 2.6216033921794158e-02
         - 2.3711479491335261e-02
         - 3.5695016511860765e-02
         - 1.0547176522420301e-03
         - 2.5910575409529072e-02
         - 1.9182471429403585e-02
         - -7.1843842809952282e-03
         - -6.8977890405237810e-03
         - 1.2714242183164394e-02
         - 2.2699610586711182e-02
         - -2.2251021357126040e-02
         - -1.8389704316852020e-02
         - 2.8791568613058625e-02
         - -8.5853992148873445e-03
         - -2.9672859436569096e-02
         - 2.8512787582765167e-02
         - 2.9940947572744785e-02
         - -2.3235629056128092e-02
         - -2.6759534356309671e-03
         - 3.1783519418424416e-02
         - -2.1637678225684645e-02
         - -2.8834659382308524e-02
         - 5.9701940302811819e-03
         - 2.0175449925078495e-02
         - 8.8893090202825046e-03
         - -3.9004869751132019e-03
         - 1.1611182511410528e-02
         - 6.4768742160790285e-03
         - -1.8317206414852699e-03
         - -1.9062126460293493e-02
         - 8.4417041415344486e-03
         - -1.6139646497543864e-02
         - -2.4449254448670903e-02
         - 2.8794557576625093e-02
         - -6.8795397925335514e-03
         - 2.2114235090846715e-02
         - -1.8134348327048487e-03
         - -2.1295122386334863e-02
         - -1.5733915734179593e-02
         - 1.4834248623621878e-03
         - 1.3700695713602044e-02
         - -2.3039213043266674e-02
         - 2.2675089784020809e-02
         - 1.6428625569828666e-02
         - 3.1429848757377213e-02
         - -6.0537217514125266e-03
         - -2.2044388278193677e-03
         - -1.3087196292228397e-02
         - -1.9778689511710017e-02
         - 2.7477917118001125e-04
         - -2.7101081305832921e-02
         - 1.4013034299994811e-02
         - 1.3786761641422032e-02
         - 6.9833246440959172e-03
         - -3.0535542332484636e-02
         - -2.1043851863844325e-03
         - -5.1896111513479830e-03
         - -3.0597253037130258e-03
         - -5.7862883721169689e-03
         - 6.5232350466901019e-03
         - 1.7204383520604837e-02
         - -1.1236480080736232e-02
         - 2.0065552408715537e-02
         - 1.6361709637353773e-02
         - 2.1911403871730278e-02
         - -1.2008839861491335e-02
         - 2.9701485863351081e-02
         - 3.1474929718006028e-02
         - -2.0131115144658707e-02
         - 3.7089312848190038e-02
         - -3.0287557139673744e-02
         - 6.8905332197165695e-03
         - -3.4641180995494035e-02
         - 1.2241217738738406e-02
         - -2.2318683209796644e-03
         - -3.4884321134258150e-04
         - -5.0365716259326277e-04
         - 3.1622512486642273e-03
         - 6.9568329063072153e-04
         - -1.2690444526079253e-02
         - -2.0190709868385202e-02
         - -2.4738936046606680e-02
         - 6.4049538003197338e-03
         - 3.1481894424784926e-02
         - -3.3153223835037486e-02
         - -3.4178119836433374e-02
         - -7.6556871796577153e-03
         - -3.3646011549972217e-03
         - 9.9839484825353506e-05
         - -2.5874878258603993e-02
         - 7.2373501933153629e-03
         - 2.1754698683596217e-02
         - 4.1364583945399684e-03
         - 8.0207379486451642e-03
         - -1.7937200135799903e-02
         - -8.0329951405630727e-03
         - -1.7215517486670603e-02
         - 9.8156144733097285e-03
         - 3.6050342405067083e-03
         - -2.4366384785271970e-02
         - -7.9953086497807895e-03
         - 3.1651735274960631e-02
         - -1.6352321991467487e-02
         - 7.3938282815938453e-03
         - -2.2086603266357790e-02
         - 2.1794886615558982e-02
         - -1.2709196936630071e-02
         - -2.9941470850321384e-02
         - -1.3337520193039281e-02
         - -3.1071737426138151e-02
         - -4.5575001366087494e-03
         - 1.0656304261175116e-02
         - -2.6588999466186442e-02
         - -2.4041947380717812e-02
         - 2.0862429306289145e-02
         - 1.4965779335917704e-02
         - 1.7875142849238621e-02
         - 2.0754945019882235e-02
         - -1.7371594914356324e-02
         - -2.9545688132896751e-03
         - 2.8792785221989574e-02
         - -6.7367572287720364e-03
         - 2.7372603451823407e-02
         - 4.4923133392475639e-02
         - -2.2899669696922236e-02
         - -3.0039785776640338e-02
         - -6.9499855995352701e-03
         - 4.6900847667321359e-03
         - 3.4739817818684765e-02
         - -2.5096541440090405e-02
         - 3.3905355546933046e-02
         - 1.0214822426032411e-02
         - 2.6972861677025495e-02
         - -2.2292962020266937e-02
         - -1.7511498579455019e-02
         - -1.5702820041050582e-02
         - 1.1259329668690411e-02
         - -1.0707556296008812e-04
         - 3.1345016678159306e-03
         - -8.8532772248721622e-03
         - 2.4190834109240481e-03
         - -2.9053376097984120e-02
         - -2.7775961514916975e-02
         - -3.1865928749289160e-02
         - 2.9964975500084829e-02
         - 1.3876352023057304e-02
         - -3.2406554753637275e-02
         - 1.4784358256983139e-02
         - -6.5425513923901869e-03
         - 1.9870589239008873e-02
         - -2.1161354596130950e-02
         - -6.3151057248765465e-03
         - 1.9368312756892234e-03
         - -2.3814662521677129e-02
         - -2.5155510220600728e-02
         - -2.2301067812203847e-02
         - -2.2366237623362917e-02
         - -7.2981342514518892e-03
         - 4.1606854521451892e-03
         - 1.5183978795545783e-02
         - -2.2794097174152088e-02
         - -1.0615638918134860e-02
         - -1.0567575130746909e-02
         - -2.2117361242223185e-02
         - 4.6530348515719147e-02
         - 3.0382395209678281e-02
         - 5.5614517505112038e-03
         - 1.9178124777970866e-02
         - -3.1889124811959350e-03
         - 1.4713279119283771e-02
         - -1.1018709109892484e-02
         - 8.6852976093762732e-03
         - 2.3330781500926181e-02
         - -2.9249861508623895e-02
         - 9.0685897091572435e-03
         - 1.2292915621814636e-02
         - 1.1268083339844706e-02
         - -2.2084519030426880e-02
         - -1.3928259529217947e-02
         - 1.8469177797920434e-02
         - 3.4752848065733423e-03
         - -3.2255624966872780e-02
         - -2.4598095602546446e-03
         - 2.5673853348786385e-02
         - 6.1350803023438490e-03
         - 1.1583005967623459e-02
         - 3.5655897734511728e-02
         - -6.2152322816538532e-03
         - 2.6951375437867992e-02
         - -3.5110339507947461e-03
         - 2.7161533453026538e-02
         - 3.3805308572044772e-02
         - 4.0587084666828480e-03
         - -1.8403006138112528e-02
         - 3.3978484596451655e-02
         - -1.8938725605084149e-02
         - -1.8116920392978721e-02
         - 1.6928305678489099e-02
         - -1.9562998858734606e-02
         - 9.6244068779414681e-03
         - -3.1850192474657618e-02
         - 2.5286565964924738e-02
         - -1.8637888840248969e-02
         - 9.1788548660984015e-03
         - -1.6973526645654921e-02
         - 1.3615663670593480e-02
         - 2.1385537941379457e-02
         - -7.4869999810497738e-03
         - 2.4335416860983342e-02
         - -2.5549685629319635e-03
         - 1.9639918933406303e-02
         - 6.8722045793274860e-03
         - 8.7510731297392348e-03
         - 9.0073692280814091e-03
         - -4.2758174297064452e-02
         - -1.7762393132772395e-02
         - -2.1380162307198400e-02
         - -1.5310139036250125e-02
         - -2.1540953603983514e-02
         - -5.9664191466880174e-03
         - 5.4602038056308184e-04
         - 1.8003299959754197e-02
         - 2.0156873334473253e-02
         - -1.8649357533756350e-02
         - 9.4021098130624148e-03
         - 2.8176506541941336e-02
         - -1.9031824657766861e-02
         - -1.0788243429970141e-02
         - -1.5142272984476568e-02
         - 9.4485224414532653e-05
         - 1.8447357411382131e-02
         - -4.4438214154817086e-03
         - -2.4966301797211675e-02
         - 2.0407284749417918e-02
         - 2.5974260207996525e-02
         - 2.8002341353367637e-02
         - -2.1281056919114985e-02
         - 1.0496792317679814e-02
         - -1.1084534493316818e-02
         - 1.7390037319850241e-02
         - 1.2377512443903402e-02
         - -2.8969101699235798e-02
         - 6.7996978345035101e-03
         - -5.8532320131154366e-03
         - -2.4255500787747519e-02
         - -2.1449289805929309e-02
         - 3.3946799064607461e-03
         - -1.2776579315911149e-02
         - -1.8137427027691829e-02
         - -1.3072037070078210e-02
         - -2.6875949130674526e-02
         - 2.1711490042440159e-02
         - -2.1032967851783251e-02
         - 2.7239102645035571e-02
         - 2.7562743036513385e-04
         - -1.4077207204198578e-02
         - 1.9304054100777932e-02
         - 8.3460341699797217e-03
         - 3.2028072497130078e-02
         - 1.2784167191807933e-02
         - -2.9051376166950048e-02
         - -2.7617899040724061e-02
         - 2.9197103705112852e-02
         - 8.5249655684397716e-03
         - 2.1004095380845231e-02
         - -6.2232121957778407e-03
         - -2.6503236673433572e-02
         - 1.2630730454639033e-02
         - 3.2117222636167474e-02
         - -1.5163663025412524e-02
         - 2.5196648723339102e-02
         - -9.6134976253198206e-03
         - -1.6811899246384685e-02
         - 2.4184295940426391e-02
         - -1.4106002229320392e-02
         - -1.9553801712026704e-02
         - -2.9106506853568973e-02
         - -1.0229681273415123e-02
         - -2.6902700984812448e-02
         - -7.8397589096642021e-03
         - 6.1126797247398560e-03
         - -8.1116951465419408e-04
         - -8.3458632932479244e-03
         - 2.3162501170737974e-02
         - 2.8780831680020921e-02
         - 2.3337107780168193e-02
         - 3.0317670096999812e-02
         - 4.8759025485439929e-03
         - 4.0245179533830470e-03
         - -3.1423817829939055e-02
         - 1.7591711517247637e-02
         - 1.8919990830597998e-02
         - -1.3458551428287367e-02
         - -2.3833133405963134e-02
         - 2.7194864775500999e-02
         - 3.6922490859400488e-03
         - -1.6970453354173857e-02
         - 1.7484044786472062e-02
         - 1.6762091227874038e-03
         - -2.9519646779888324e-02
         - -1.1428286958315853e-02
         - 2.1976995981828888e-02
         - -1.0296500544063430e-02
         - -1.6460898907753100e-02
         - -2.9292725576649182e-02
         - -1.9802929722445257e-02
         - 3.1732972971207724e-02
         - -1.2895799671349684e-02
         - -6.2264188488986988e-03
         - 4.9843312967462880e-03
         - -1.6474262208207691e-02
         - -2.6932003435690462e-02
         - 8.5997928937250733e-03
         - -1.0468065243672942e-02
         - 5.6233253714593678e-03
         - -2.8121097051218673e-02
         - 1.8708865315267061e-02
         - 3.3994255871362372e-02
         - 2.0157206747606657e-03
         - -3.8909638530149619e-03
         - -1.6991617378653991e-02
         - -2.2700637178314539e-02
         - 1.3452925620691983e-02
         - 9.9722708521922873e-05
         - -4.4231088921460830e-03
         - -2.3777669117862738e-02
         - 2.4385040072111775e-02
         - -3.5377676377307656e-03
         - 1.8321747942210490e-02
         - -2.5547362325759451e-02
         - 1.0693926409401073e-02
         - -1.2934365385556368e-02
         - 2.0117529021070345e-02
         - 1.0446198505467229e-02
         - -2.9326911824148028e-02
         - 1.4231843841008177e-02
         - -1.1207598849419551e-02
         - -3.9457443688647870e-03
         - -2.0810309879674506e-02
         - 6.3667831948047557e-03
         - 1.0216676556487650e-02
         - -2.5392606722778297e-02
         - 1.0110469774893488e-02
         - 2.8256783823551575e-02
         - -4.9020049982140875e-03
         - -1.3668567636035410e-02
         - -1.1993826446316776e-02
         - 1.5997362027771445e-03
         - 3.1403042146798147e-03
         - -6.4780672821638813e-03
         - 1.1585064753534654e-02
         - -9.4617342598838326e-03
         - -2.0618510560278174e-02
         - 1.2253195335278847e-03
         - 2.3410047918886238e-02
         - -1.2031277620498196e-02
         - 6.9380793140695115e-03
         - 1.4116110086327979e-03
         - 8.3496723217607958e-03
         - -1.0997432043810059e-02
         - -1.4119070006471455e-02
         - 1.8510320495048412e-02
         - 1.6179251946292471e-03
         - 3.0343256627279352e-02
         - -3.2008756545581288e-02
         - 2.0075625593497581e-02
         - 8.5891968115236750e-03
         - 9.4041543317383812e-03
         - 1.0244215525860379e-02
         - 2.7528637176732454e-03
         - -1.5051795250912705e-02
         - -1.0049066848376208e-02
         - 2.9748345492424711e-02
         - 3.7538271784512352e-04
         - 2.3556285404843939e-02
         - 1.6840341276433236e-02
         - -1.5338562138029019e-02
         - -7.9766612047310372e-03
         - -2.1811942072267467e-02
         - 2.1304564379676542e-02
         - 2.1434743752678610e-02
         - 5.6354026906836807e-03
         - -1.4517523772993389e-02
         - 1.7239276262262446e-02
         - 8.6113290290028063e-03
         - -1.0736394049661344e-02
         - 2.0168200233248969e-02
         - 1.7853370434968728e-02
         - -1.6281727180579391e-02
         - -1.0309272140330046e-02
         - 2.7258672390721609e-02
         - 1.9475225319331248e-02
         - 2.6896163992619845e-02
         - -4.1774452716723930e-03
         - 1.3244806568439156e-02
         - -3.1300292540816775e-03
         - 2.5762542772250407e-03
         - 2.3799803989613372e-02
         - 8.3588769207290480e-03
         - -8.9546910364635239e-03
         - -2.5284352997252724e-02
         - -2.4121115938291138e-02
         - -2.0990920622575775e-02
         - 9.1494194349697675e-03
         - 1.7809281407395804e-02
         - -5.3708171539809026e-03
         - -2.3004306001205468e-02
         - 1.6369681591613349e-02
         - -2.5875705053993503e-02
         - -8.6461868370086518e-03
         - -2.0206917851090141e-02
         - 1.5121587275738127e-02
         - -2.5146421943186982e-02
         - -6.6191734180788353e-03
         - -3.6713519595135513e-03
         - -2.2723443516530595e-02
         - -2.6489636305570236e-02
         - 1.2284440900761397e-02
         - 3.2238487321532977e-03
         - -1.4803337391302638e-02
         - 9.2713134669539128e-03
         - 1.7112358881031173e-02
         - -6.1618325685231599e-03
         - 2.7771311736967352e-02
         - 5.1510779319153214e-03
         - 4.2524852673422285e-03
         - 9.2361940287853592e-03
         - -3.1486431430983806e-02
         - -2.0758913852158729e-02
         - -1.4903545852341485e-02
         - 8.3811682265419150e-03
         - 3.0948287023000901e-02
         - -1.8722688438894207e-02
         - -1.1831544907818190e-02
         - 1.4228739065956543e-02
         - -5.1065261400599672e-03
         - 4.4183075764589033e-02
         - 3.5893834346805625e-02
         - -1.5608386298551552e-02
         - 2.0773886237134449e-02
         - -2.1249598041128102e-02
         - -1.1955208049584561e-02
         - 3.4764128201554829e-03
         - 4.3440478647375222e-03
         - -1.1761366687032695e-02
         - 3.1961110922895788e-02
         - -3.3005900818946714e-02
         - 2.7571050850414027e-02
         - 2.9148520850705768e-03
         - 1.7606555221131224e-02
         - 2.2618969628963155e-02
         - -2.0268588097380965e-02
         - -2.0957000203078099e-02
         - -1.5982020691983501e-02
         - -1.3001358126043597e-02
         - 1.3867906874582949e-02
         - 3.2753945218541171e-02
         - -2.8143122960457543e-02
         - 1.2651984757990261e-02
         - 2.9864399650543601e-02
         - -2.9924074337766962e-02
         - -4.0564904119586081e-03
         - -2.2211953109584407e-02
         - 1.4820017064110741e-03
         - 1.0007748986996500e-02
         - -1.2386020345896467e-02
         - -2.4180920639666488e-02
         - -1.1537100993906875e-02
         - 2.6790106834330783e-02
         - 9.7133692162350970e-03
         - -1.8620773437386565e-02
         - 1.2452536242091439e-02
         - -8.5455529048926518e-03
         - 1.4222490947364311e-02
         - -1.3767174695119046e-02
         - 2.2262466291508881e-02
         - 9.4874587915929048e-03
         - -2.0269070248077663e-02
         - 3.7358615488046060e-03
         - 1.8507673334891169e-02
         - 2.3178778820777429e-02
         - -2.1845552851015568e-02
         - 1.0472156695092143e-02
         - -1.2266810687490923e-02
         - 4.5574974048628461e-03
         - 9.4000499930572985e-03
         - -1.8860491964022428e-02
         - 1.1825249657547833e-02
         - -2.8822724177383303e-02
         - 7.1338406206519845e-03
         - 3.0174976457706691e-02
         - 2.3111982650527177e-02
         - -2.8615145691181898e-02
         - 1.6881978472362315e-02
         - 3.1727951461635241e-02
         - -1.0722256847180166e-02
         - 1.0661551123476408e-02
         - 7.7503737556295169e-03
         - -1.5230162119648668e-02
         - -4.5835116595304929e-03
         - 2.0161482197530594e-02
         - 3.8726843571010904e-03
         - 2.8546629561154332e-02
         - -1.2430362036642819e-02
         - 2.8394099812175644e-03
         - 9.1435105180183111e-03
         - 3.7945888079471114e-02
         - 2.9275208215903677e-02
         - 1.2831760616070203e-02
         - 2.2740336218047278e-02
         - -2.2592929636686965e-02
         - 1.4631554340985800e-02
         - 2.5448195825969799e-02
         - 2.6912462413484627e-02
         - 1.0211027915996330e-02
         - 7.0850092364901516e-04
         - -2.0335048620095122e-02
         - 1.4308457070603532e-02
         - 1.9888496729886993e-02
         - 2.4241427341834546e-02
         - 1.4906014526800543e-02
         - 5.5263733210948905e-03
         - 1.7164993778470639e-02
         - 9.1118827718417953e-03
         - -9.7279437546999043e-03
         - 2.8394493016033497e-02
         - 1.2913714569345673e-02
         - 4.8102008675309643e-03
         - -1.6882843605211351e-02
         - 1.1122189617054077e-02
         - -2.7263255081017398e-02
         - 1.8694712461162031e-02
         - -2.0065944241146588e-02
         - -9.8197318061609140e-03
         - -1.6412073472333821e-02
         - -2.3353570725337051e-02
         - -8.4458321845406776e-04
         - -5.4912961715169774e-03
         - 2.5866669697818975e-02
         - 2.0940805343948581e-02
         - -2.6971722828806530e-02
         - 4.0127559701429033e-03
         - 2.2652570975836884e-02
         - 1.0324075515437094e-02
         - -8.9390537495454402e-03
         - 5.9320320441977664e-03
         - 9.0405489229733963e-03
         - -1.5230684096606537e-02
         - -1.6969186814136850e-03
         - -3.0391089681104811e-02
         - -1.6576770491752133e-02
         - -2.4219204159545295e-02
         - -1.5579311287077006e-02
         - 5.6198997348818483e-03
         - 2.4442284783989271e-02
         - -1.6820246083855735e-03
         - 2.7358389886819393e-02
         - 3.6217707332648917e-02
         - 1.0573310987917658e-02
         - 2.5724655941806954e-02
         - 2.9613421277646525e-02
         - -1.9383325203317894e-02
         - 2.1059646578948266e-02
         - -1.4302810033185114e-02
         - -2.8056635996864893e-02
         - -2.7102188537283370e-02
         - -8.4667283022133756e-03
         - -1.1336603899222888e-02
         - -1.5470348758069756e-02
         - -2.4684348576418422e-02
         - -1.1566118110682330e-02
         - -3.2927582748070255e-03
         - -1.4445079220755974e-02
         - -1.1451270862715367e-02
         - 8.1030423229341009e-03
         - -1.0465454419924804e-02
         - -3.3390377786018761e-03
         - -1.1056129004211771e-02
         - 2.4555329468761511e-03
         - -2.1806617801626141e-02
         - 1.6452984976880951e-02
         - -4.5924290249119174e-03
         - -1.2029981565035843e-02
         - -2.1292712314133266e-02
         - 2.0910735892041778e-03
         - -6.0780201642385745e-04
         - 9.2653210641620888e-03
         - -8.0402456962996548e-03
         - -2.7576347597447537e-02
         - 3.0306693065836991e-02
         - -4.6879102959696576e-03
         - 1.2666721365187858e-02
         - 2.4414454462337799e-03
         - -7.3231632068874791e-03
         - -5.2512491314267717e-03
         - 2.2021649716452301e-02
         - -2.1257034530343315e-02
         - 1.5780448811790887e-02
         - -1.2651061628530160e-02
         - -2.2030645459872562e-02
         - 1.7227845971081117e-02
         - -1.9919377235311609e-02
         - -2.0431497254254963e-03
         - -6.5480894305212410e-03
         - -3.1229463755871052e-02
         - -2.3675071315300684e-02
         - -1.5099059020773265e-02
         - 3.6885008917555445e-02
         - -1.6341258603087487e-02
         - -9.1240390692285487e-03
         - -5.4825503081692610e-03
         - -1.0782273730802041e-02
         - 4.9214267683671806e-02
         - 3.2444221063474152e-02
         - 1.6682867506859805e-02
         - -1.5004642443837425e-02
         - -1.5845048160588123e-02
         - -4.0256825102505655e-04
         - 3.1367836433399944e-02
         - -3.4070127097747420e-02
         - -4.6105456631952962e-03
         - -2.3272614048491441e-02
         - -7.0678578132283112e-04
         - -4.4898977418728725e-02
         - -1.3927772922309348e-02
         - -2.1796060604543466e-02
         - 2.0770851135141006e-02
         - 1.2771910955745813e-02
         - -2.2670364785060586e-03
         - 7.4157429384315657e-04
         - 3.0025243302887212e-02
         - -1.6766580202160181e-02
         - 1.3265672307518883e-02
         - -1.3579708666413287e-02
         - 1.2259878376733089e-02
         - 1.3636905070028855e-02
         - 3.6817962665196172e-02
         - -2.8403467191186978e-02
         - -6.0210424939653381e-03
         - 3.3314645292341599e-02
         - -3.7245185834546869e-03
         - 2.1670618302835874e-02
         - -1.0110726164017857e-02
         - -1.6751852068572829e-02
         - 3.5338804597949365e-02
         - -1.8950625713008765e-02
         - -7.8841935285611509e-03
         - 2.7435739923661048e-02
         - 6.6644035806158308e-03
         - 2.5434025037729673e-02
         - 6.0112268232605862e-03
         - 1.5122602876376545e-02
         - 1.8955852001465580e-02
         - -1.0806371461096522e-02
         - -9.1333270984544929e-03
         - 2.3169601343792215e-02
         - 3.8055163861284609e-02
         - 1.9127099178095830e-03
         - -4.7170220914430029e-03
         - 2.4363297952083550e-02
         - -1.6414815941228515e-02
         - -1.9752012792773506e-02
         - -1.6755089160899041e-02
         - -3.9578731645994233e-04
         - 4.5219288566182569e-03
         - -2.4175574007256968e-02
         - -1.2582522134290341e-02
         - 2.5709681597324174e-02
         - 2.1530627535082631e-02
         - -1.9014937395450102e-02
         - 1.6146303063277842e-02
         - 3.8491578608849070e-03
         - 2.6008049497508047e-02
         - -2.5404585434959544e-02
         - -2.1813755747225747e-02
         - 6.9110311578220356e-03
         - -1.2137648271596824e-02
         - 5.4168196052589224e-04
         - -5.4262192899815018e-03
         - -2.2384318371923801e-02
         - -2.3132240997215503e-02
         - -6.2543508172443326e-03
         - -1.1838229918027958e-02
         - 9.5115707692267105e-03
         - 8.0103074552618642e-03
         - -1.4750191033510426e-02
         - -2.7196418641136751e-02
         - 2.5445232716435034e-02
         - -1.1212826909937763e-02
         - -2.0296792721141370e-02
         - -3.8828420908397977e-02
         - -3.7984120985445767e-03
         - -2.5950057467203427e-02
         - 2.7868570296645120e-02
         - 1.7509416402277826e-02
         - 9.1172949606346690e-04
         - -1.4895780058228792e-02
         - 1.4943370377632914e-02
         - 1.1517928730154021e-02
         - -4.7376450084233553e-03
         - 3.3241165112019994e-02
         - 2.8498342167925634e-03
         - 5.4789592864853860e-03
         - -1.1172301975615372e-02
         - -2.0521007345796965e-02
         - -6.1738228481255037e-03
         - -2.6604962526603763e-02
         - -5.8852017243589058e-04
         - -1.5790244880811405e-02
         - -1.6989771910336751e-02
         - 6.6998365670002105e-03
         - 9.9346651779593266e-03
         - -2.9005093190970173e-02
         - -1.3795215547673399e-02
         - -3.0607755150544936e-04
         - 4.9485711033007661e-03
         - -1.8100206767864171e-03
         - 9.6928398180744728e-08
         - -5.4107646227510844e-03
         - 1.1605637466070115e-02
         - -2.3922592520263193e-02
         - -2.9685953054172768e-02
         - 2.4904013032094129e-02
         - -1.6147487449823510e-02
         - -2.1324109979680931e-02
         - -1.3307526543874602e-02
         - -3.5764923762869369e-02
         - -1.6042509484529604e-02
         - -1.0078127635438628e-02
         - 1.8675351093876465e-02
         - -8.9750086456252976e-03
         - 2.5186233176926694e-02
         - 2.0228158269311021e-02
         - -2.3333045933043209e-02
         - -2.9120281990060351e-02
         - -2.0724663826801781e-02
         - 6.5135253415173379e-03
         - 3.0815480059932527e-03
         - 2.7717524450205252e-02
         - -2.5145894690999898e-02
         - 3.4286944448483431e-02
         - 1.2391260903575941e-02
         - -1.4700401139772773e-02
         - -1.3198800227002377e-02
         - 1.9093750722040743e-02
         - -6.0683192780755747e-03
         - -1.1730839643900811e-02
         - 2.5654616148397112e-02
         - -1.6237508511872261e-02
         - -2.6346216679476533e-02
         - -3.2089608763978903e-03
         - 2.8533144190088830e-02
         - 2.8480686077059004e-03
         - 1.1145082018005813e-02
         - -2.5845192636560689e-02
         - 1.9563914897296003e-02
         - 1.1884937705116458e-02
         - 8.0715190453379201e-03
         - 7.1145564141890287e-03
         - -1.5841554344149820e-02
         - -1.9578061332133856e-02
         - -1.6763375864383333e-02
         - 1.5703588694754574e-02
         - -1.6618911201921847e-02
         - 2.2173695347497129e-02
         - -3.2701304367620601e-03
         - 1.4674919077638791e-02
         - 2.3294444009975854e-02
         - 1.0356082838422074e-02
         - 1.4696711088413113e-02
         - -4.9525943126954115e-03
         - 1.0666439286757893e-02
         - -2.5784109498072635e-02
         - 1.5321414538200295e-02
         - 7.2021412640526639e-03
         - 2.6915409522591072e-02
         - -1.4496599285206703e-02
         - -2.4115290970042485e-02
         - 1.5443891423280027e-02
         - 2.8080533973707775e-02
         - 1.7813004451792597e-02
         - 2.9169403081355839e-02
         - -6.3959583094863057e-03
         - 1.9146765597130223e-02
         - 8.3118643982929372e-03
         - -1.3141628655758728e-02
         - 1.5012488261696393e-02
         - 1.8659537811752155e-02
         - 1.7261273924729420e-04
         - -2.2804843894562738e-02
         - -1.8101640712531231e-02
         - -2.8934617215075842e-02
         - 7.4346688454765475e-03
         - -2.5751285313277094e-02
         - -1.7059481031382967e-02
         - -1.3088429039825643e-03
         - 1.6569615167774887e-02
         - 3.4513345867140124e-03
         - -2.7467952438417872e-02
         - -1.4514971716231959e-02
         - -2.0321297143817425e-02
         - -1.9409788709219473e-03
         - -2.5569056635187444e-02
         - 1.7825581866132784e-02
         - 7.2985467975234530e-03
         - -1.3693067783731009e-02
         - 2.8682617809805223e-02
         - 3.9250241206541759e-03
         - 2.2577511613968374e-02
         - -2.4394554797459167e-02
         - 2.5553550495579121e-02
         - -2.3417271540314394e-02
         - 2.1658345701594157e-02
         - -3.8169933308821028e-03
         - -2.5858866878816104e-02
         - 1.1393523192681750e-02
         - 2.9614450813867998e-02
         - 1.4048948389412825e-02
         - 3.0791201236750384e-02
         - -1.9451587751202138e-02
         - -1.2054342094001320e-02
         - 1.5801017107934415e-02
         - -1.6355628659313025e-02
         - 1.1350188439646643e-02
         - -2.0304979105740511e-02
         - -1.8110825145433575e-02
         - 2.2008404728029920e-02
         - -2.9199806355919167e-03
         - 8.7081192747929699e-03
         - 6.9252399685713929e-03
         - -2.7242575631169122e-02
         - -2.8868748151840807e-02
         - -2.1568659246685204e-02
         - 1.6362771940166339e-02
         - -1.7061812661496683e-02
         - 3.6437974921886356e-03
         - 2.2683441465932482e-02
         - -8.7842949720371554e-03
         - 1.6742402603775436e-02
         - -3.2144894326460852e-02
         - -2.8290541155080614e-02
         - 8.7951274099019455e-03
         - 1.1265115625600163e-02
         - -1.0529498098876907e-02
         - -1.4102728321946803e-02
         - -3.4922997216184526e-02
         - 7.0226356006367974e-03
         - -1.3439252476317647e-02
         - -2.5703772540943089e-02
         - -2.8028170016629533e-02
         - 1.6240787025945089e-02
         - -8.1951480554128108e-03
         - 2.8312997219946019e-02
         - -1.6699248758524490e-02
         - 2.3620854982711204e-02
         - -7.0610841085264053e-03
         - -8.4399954361758390e-04
         - -3.6385688735360071e-02
         - 1.2165418924465193e-02
         - -1.4560556018615046e-02
         - 2.8358441860779661e-02
         - -4.5901043828721700e-03
         - 8.7881593227955527e-03
         - 1.3396559638748541e-02
         - -3.1027313927258649e-02
         - -1.7909543052449423e-02
         - -2.2715947631377971e-02
         - 2.2644801558873065e-02
         - 1.0587689516055002e-02
         - 3.8871469703042227e-02
         - -1.8424575513786155e-02
         - 9.7539886400190342e-03
         - -8.2132480534574427e-03
         - 2.2017302783160109e-02
         - 1.7297029742922587e-02
         - 1.4040132909403822e-04
         - -1.5919265742503106e-02
         - 1.4522985217481391e-02
         - -3.1467101902462574e-02
         - 1.8403345533628813e-02
         - 1.7073826591478838e-02
         - -6.3334779233578638e-03
         - 1.4385460620342688e-02
         - -3.8641691690295614e-03
         - -6.7886258986329827e-03
         - 1.1758522667332379e-02
         - 3.7625915430797345e-02
         - -2.2078101435402991e-02
         - -1.3940087528693745e-02
         - -6.7682428566415336e-03
         - -2.6142480106835730e-02
         - -8.5399650691422978e-03
         - 2.8668739220825013e-02
         - 1.2241730919630435e-02
         - 1.9609651004335198e-02
         - 8.8101305228758496e-03
         - -2.8873113104238974e-02
         - -3.5906976124046593e-02
         - 1.7835874145770408e-02
         - 5.9925014971086319e-03
         - -1.4153755693545796e-02
         - -2.9994470468626706e-02
         - 6.6972022824001278e-03
         - -1.4943052574805661e-02
         - 2.4043628785012459e-02
         - -3.1713599671969191e-02
         - -2.4721627958389340e-02
         - 1.8367019446959818e-02
         - -6.3614015068325157e-04
         - -2.0225455871051998e-02
         - -1.3732604366888673e-02
         - -2.1410093405153659e-02
         - 3.0390732804808005e-02
         - -6.0129651058930872e-03
         - -7.9216386638375925e-03
         - 1.1142551634997611e-02
         - 1.5882702908766644e-02
         - -1.8233643899025674e-02
         - 1.5282890546498951e-02
         - 2.7149636349950778e-02
         - -5.1249408650284366e-03
         - -2.0889211890195273e-02
         - -1.9999218670303485e-02
         - -9.5864033649907376e-03
         - -2.5417797255642964e-02
         - -1.8769173665258716e-02
         - 1.8733550977050362e-02
         - -2.7474739470445712e-02
         - 1.4534979002819103e-02
         - -1.5633841858340016e-02
         - 1.5430440594830282e-02
         - 2.1007792534381328e-02
         - 2.3752599021850873e-03
         - -1.8073424234723141e-02
         - -1.4825779458981002e-02
         - -2.9756802149851797e-02
         - -9.8408097102989107e-03
         - -2.2339364065917466e-02
         - 1.8158452765295638e-02
         - -5.7197398452798875e-03
         - -8.6370511500951166e-03
         - -2.4564044580842638e-02
         - 2.6175385722916424e-02
         - 1.3348221464716288e-02
         - 1.5098058772366252e-02
         - 6.7397978826563495e-03
         - -2.1971582770016333e-03
         - 2.6569440432248712e-02
         - -1.9413866558688278e-02
         - 1.5723588473038001e-02
         - -1.0146993850607985e-02
         - 9.2872682795697645e-03
         - -2.5363537807712663e-02
         - -8.9410299496578104e-03
         - 8.0522800258398339e-03
         - 2.0560340500692796e-02
         - -2.9083955587412110e-02
         - 8.7494502092720187e-03
         - 2.5616882807329031e-02
         - -2.9719747306508223e-02
         - -1.0076403824339174e-02
         - -1.2365585284916124e-02
         - 1.2789696947739992e-03
         - 3.8534041583208785e-02
         - -2.6532143034001311e-03
         - 8.4014349421143390e-03
         - -1.4163034152647273e-02
         - 1.5522291420336917e-02
         - -1.8545462335854863e-02
         - 2.1133989501381002e-02
         - -2.6433178254125059e-02
         - 1.6823654929519850e-02
         - -1.7585737392937337e-03
         - -1.4932774223997473e-02
         - 2.7157916962913045e-02
         - -2.5289967915381698e-02
         - 1.4983930186832389e-02
         - 1.7540148923453749e-02
         - 1.4747545786364041e-02
         - -2.2260596811532966e-02
         - 1.6619177673235105e-02
         - -2.0070458087152025e-02
         - -3.0831838459974656e-02
         - 2.4999892490474959e-02
         - 1.1586694564093693e-03
         - 2.1069163415703595e-02
         - -7.0062046422759957e-03
         - 1.7942862922764209e-02
         - 1.7422717743206903e-02
         - 1.8471564407235665e-02
         - 2.1696489960340237e-02
         - 8.6574486521443349e-03
         - -1.7042358094326686e-02
         - -1.3090781777536557e-02
         - 2.3096043638240447e-02
         - 1.7846370837665420e-02
         - -7.4486621395163134e-03
         - -8.1879000680874087e-03
         - 6.6660888714054943e-03
         - 7.7080044845551192e-03
         - 2.3635244234735654e-02
         - -2.2834548894195453e-02
         - 1.3305299646232255e-02
         - 2.6375545512875714e-03
         - -1.2303598905750841e-02
         - 1.9442277184971986e-03
         - 6.6224853672483229e-03
         - 5.2936189805701337e-03
         - 1.3986054402996112e-02
         - 1.5031478307809328e-02
         - -8.4726685760377757e-03
         - -7.8924467632020777e-04
         - 2.6187283021346510e-02
         - 2.9932171385772231e-02
         - -1.9717060134267380e-02
         - -9.1100144357880684e-03
         - -1.3216117908691406e-02
         - 7.5872793636631497e-03
         - -7.3977790188854715e-03
         - 1.9068670564611832e-02
         - -1.6946191626074178e-03
         - -2.2061011311229985e-02
         - -1.7716564882184038e-02
         - 2.8680858054233385e-03
         - 2.4351397008404250e-02
         - 7.1491436750325457e-03
         - -1.6774957837573413e-02
         - 1.2767618316026122e-02
         - -1.5024303744521492e-02
         - -4.1908319794961768e-03
         - -2.7749897976175952e-02
         - 5.1116635196276307e-03
         - -2.9700188377203642e-02
         - 1.1057866087904305e-02
         - 2.3960445503279096e-02
         - 7.7289854429928992e-03
         - -9.4300029335520272e-03
         - -1.1926784326007770e-02
         - -6.0999865073942108e-03
         - -1.2149201580685992e-02
         - 2.4141994549773376e-02
         - -8.5758349601886743e-03
         - -2.3115670310229736e-02
         - 1.6963481949002292e-02
         - 1.9310591397262426e-02
         - -2.1280428434701248e-02
         - 2.3558630379879833e-02
         - -2.4820254189810306e-02
         - 2.2723863943829026e-03
         - -1.0176899667383072e-02
         - -1.2640720847035344e-02
         - -1.5830488575022363e-02
         - 8.4188381461944867e-03
         - 1.1043433848210242e-02
         - 1.8526446322916813e-02
         - -9.5135237055995539e-03
         - -2.4597610080239043e-02
         - -2.3262464559030945e-03
         - 1.0641864908819583e-02
         - -4.1493421893287032e-03
         - 6.3500915630473713e-03
         - 7.4261743302042669e-04
         - -3.3115974619058260e-03
         - 4.8978433612839028e-03
         - -2.2333572120441292e-02
         - 1.4921032096664104e-03
         - 1.0146019342856289e-02
         - 1.5005357830028947e-02
         - -1.2494096593133356e-02
         - -8.7000549813257902e-03
         - 1.6501102176646191e-02
         - 1.3531966147896059e-02
         - 1.7494114434288163e-02
         - -1.2784474718720563e-02
         - 6.7517564739271963e-03
         - 3.1902701833531788e-03
         - -2.1781419537632140e-02
         - -2.7843087334562488e-02
         - -1.3642592636133355e-02
         - -1.7297876850909062e-02
         - 2.0314166527231572e-02
         - -2.8095151221992385e-02
         - -1.9989407539703066e-03
         - -3.9732565759421738e-02
         - -2.2267907047634698e-02
         - -8.7728349908645399e-03
         - -3.4203759581881397e-02
         - 1.4853926693579884e-02
         - 1.6191749882869651e-02
         - 2.4522978734327794e-02
         - 2.7523323712597692e-02
         - -1.4694946692453886e-02
         - 3.1501491912603124e-03
         - 7.7626071932146625e-03
         - 1.7783914654572006e-02
         - 3.4849074409052127e-03
         - -1.5826482399818643e-02
         - 2.6508197374139206e-02
         - -1.2749251001896443e-02
         - 9.2047208054956524e-03
         - -1.5183389409095608e-02
         - 4.3955738575208146e-03
         - 1.7118063231926588e-03
         - 4.1294430476861536e-03
         - -2.6549188376631307e-02
         - 1.7206014836881965e-03
         - -1.1267040077386811e-03
         - -1.0380207111136667e-02
         - -3.1051626761144153e-02
         - -8.9521886805027078e-03
         - -1.0530487178060322e-02
         - 2.5527948570711240e-02
         - -8.0865321683798175e-03
         - -3.6326277580354262e-02
         - -1.2467093556124111e-02
         - -1.9652384640359059e-02
         - 2.7920404845004170e-02
         - -2.9917231188223217e-03
         - 3.7007949688073118e-02
         - -1.0625892469081957e-02
         - 9.5268153719866352e-03
         - 2.4178420851069499e-02
         - -2.8280844979766916e-02
         - -1.6710677080876417e-02
         - 4.6262058926054908e-02
         - 4.5392005461230442e-02
         - -1.2300696564113516e-02
         - 7.6176719074673065e-03
         - 2.8784214359313564e-02
         - -5.7181814828919679e-03
         - -7.0699171612388098e-03
         - 4.8913691867598190e-03
         - 1.0305203253492462e-02
         - -2.0184628958459513e-02
         - 3.0102192744654279e-02
         - -3.9572284421844968e-02
         - 7.8306633517967426e-03
         - -2.1787058876409408e-02
         - -4.4240492190666232e-02
         - -1.4533754723000914e-02
         - 2.3119117654166691e-02
         - -9.7635071096547725e-03
         - -4.0141968558344314e-03
         - -2.3982332489312412e-02
         - 2.0860566628132040e-02
         - -2.1248499744532454e-02
         - 4.3548970105055054e-02
         - -2.3347814203381612e-02
         - 3.1210644619718772e-02
         - 3.5071455193652376e-03
         - 2.7085421478369814e-03
         - 2.3636472837586266e-02
         - -2.1905417142526248e-03
         - 2.3729686332655337e-02
         - 1.6387720488498427e-02
         - -2.7611606950770608e-02
         - -1.0553855968660901e-02
         - -2.1549760331964771e-03
         - 3.0794156224112860e-02
         - 2.1840449220539033e-02
         - 1.3413877575096855e-02
         - 8.0371965578134377e-03
         - 5.1551067426299762e-03
         - -1.7016974670747609e-03
         - -1.2342577466699920e-02
         - 2.5813020484958090e-02
         - 2.4310336893573595e-02
         - 9.0906109966939121e-03
         - 4.3077952302607220e-02
         - 4.2363870937009301e-03
         - 1.7385489966435106e-02
         - 3.3214874079984164e-02
         - 2.0392183776987129e-02
         - -1.4885396557899626e-02
         - -1.0015576920716321e-02
         - -2.1240028431514697e-02
         - -3.3880274865570915e-02
         - 7.2219722282419090e-03
         - -1.2979877484395734e-02
         - 1.3033521650823901e-02
         - -1.1777571014876951e-02
         - 2.0277151145511013e-02
         - -1.5891287111459394e-02
         - -1.3316130334874480e-02
         - -1.0758228531163238e-02
         - 5.1363150090608510e-05
         - 2.2149031923101997e-03
         - 2.3959404940884207e-02
         - 3.7857616792604230e-03
         - 1.3514309799450102e-02
         - 3.4609267097115849e-02
         - 2.4131830605152910e-02
         - 4.8894655465357394e-03
         - -1.3730208969026839e-02
         - 8.1180734668945733e-03
         - 2.6685991453476075e-02
         - -3.9407838368304034e-02
         - -2.8568506493246954e-02
         - -2.6477332961790945e-02
         - -3.8815624543915718e-02
         - 4.4515959355915843e-03
         - 1.2224020212321714e-02
         - -3.8401660386445333e-04
         - 1.2308819353973231e-02
         - 3.4184766847364947e-03
         - 3.3640683858069346e-03
         - -3.3614388279540166e-03
         - -1.8653964026272965e-02
         - -1.9703464048945955e-02
         - 1.8627664576960357e-02
         - 1.1176162388089278e-02
         - -5.5871534123948605e-03
         - 3.1062617556221219e-02
         - -2.7999410875307596e-02
         - 3.5985212057002766e-02
         - 1.2147243424038461e-02
         - 2.5860179714399373e-02
         - 7.3202906111603143e-03
         - 2.2398716337390926e-05
         - -1.8010445869141852e-02
         - 2.9093052424854150e-02
         - -2.0726737590989919e-02
         - 2.3354820129604711e-02
         - -1.7823588013260463e-02
         - -1.3055507416332197e-02
         - 4.8407460413626320e-03
         - -1.9425813489843687e-02
         - 1.7359396347435278e-02
         - 2.6946428487119790e-02
         - -1.8584800903626689e-02
         - -1.7703427396109155e-03
         - -9.4667276781663819e-03
         - -1.8908601195832857e-02
         - 6.4204312437262838e-03
         - -2.1740398878340412e-02
         - -1.9273962694663190e-02
         - -2.9803715038969448e-04
         - 1.4675795203218316e-02
         - 1.5685691287448941e-02
         - -1.8395914950458028e-02
         - 1.5382524589223465e-02
         - -4.6999971833083191e-03
         - 1.6445903723125606e-02
         - -3.0945226373174508e-02
         - -3.1526698475919560e-02
         - 7.9286791577390658e-03
         - -1.8615673088149425e-02
         - 2.6951004951859515e-02
         - -1.6345984472436660e-02
         - -1.3785579279112154e-02
         - 1.5937173826391683e-05
         - 1.8716918447242721e-02
         - 2.5739206099524462e-02
         - -2.1180169219906401e-02
         - -1.6584079071553529e-02
         - -2.8155444178779056e-02
         - -1.6343741158934728e-02
         - 2.5884069261849101e-02
         - 7.2444726485352802e-03
         - 2.5379018130873100e-02
         - 1.1922270045783317e-02
         - 2.7469719910375216e-02
         - 2.5511166425352269e-02
         - -5.0898530322248305e-03
         - 2.7623919377052660e-02
         - -2.5708585648213614e-02
         - -1.0322726583586307e-02
         - -1.7852335070554792e-02
         - -9.0800489059336825e-03
         - 2.4764382064080468e-02
         - -2.6208740813717761e-02
         - -2.4450749860652491e-02
         - -2.2964315123116261e-03
         - -2.3067960707358063e-02
         - -1.9733871629669997e-02
         - -2.7237537737461025e-02
         - 3.0087348295132273e-02
         - -1.4067326523633810e-02
         - -1.2038926664799061e-02
         - -2.7472710318301678e-02
         - -2.7091361144009948e-02
         - -1.1291099238945005e-02
         - 2.5028642048373129e-02
         - 2.3803947119846857e-02
         - -5.8302496371964814e-03
         - 1.7635150782054670e-02
         - 2.0386224385744802e-02
         - -1.8337807309442036e-02
         - -1.9515076475972080e-02
         - -7.7949303577124120e-03
         - 1.8725901641863017e-02
         - -6.0858737948383205e-03
         - -2.7267230717714615e-03
         - 9.7291224584286629e-03
         - -1.9703675588494288e-02
         - 1.3752604904026990e-02
         - -2.1653892755564275e-02
         - 2.5845882810209775e-02
         - -1.3082032042163315e-02
         - 1.8016336333301096e-02
         - 1.0093543843758821e-03
         - -1.6645540966467844e-02
         - -2.7116965632367908e-02
         - 1.2467369055541589e-02
         - -1.1971194285422175e-02
         - 1.1105168376065573e-02
         - 1.1682615674332682e-02
         - 1.4695064149869918e-02
         - 6.6692322329444317e-03
         - -6.2155844683115004e-03
         - -4.3173222238837459e-03
         - 6.1421205561942764e-03
         - -2.3671225798565176e-02
         - -1.7848512308278517e-03
         - 1.2250642904272685e-02
         - 1.4059699331145096e-02
         - 2.1960437803299256e-02
         - -1.3465181106311433e-02
         - -2.5093055188316459e-02
         - 2.4935407158804549e-02
         - 3.1313669001502738e-02
         - -4.2573754512254544e-03
         - -1.9243112828854023e-02
         - -1.2021125860274991e-02
         - 2.0072795376230607e-02
         - 2.6651032084567934e-02
         - -3.0174580992358032e-02
         - 2.7766194605675639e-02
         - 2.9037536759245437e-02
         - -2.0667883863329604e-02
         - -6.0170877305653955e-03
         - 2.7221806914121849e-02
         - 5.6884679549380323e-03
         - 1.3705252690708053e-02
         - -2.9937906046596130e-02
         - 2.7517236160416798e-02
         - -2.3331460622388760e-02
         - 1.8037889752930171e-03
         - -1.0827095781275055e-02
         - -3.8173226692054633e-03
         - -2.9946675482772901e-02
         - 3.3109472691331188e-02
         - 6.9928318755328117e-03
         - 2.8769363615379389e-02
         - -2.0384016839648508e-02
         - -1.6198668497610844e-02
         - 2.1686951385567237e-02
         - -9.4991280499033340e-03
         - 4.0393188997183936e-03
         - -8.9198169303245298e-03
         - 4.6625048368431942e-03
         - -3.0262147656768077e-03
         - -1.8508589658752742e-02
         - -2.7108663363075058e-02
         - -2.2598843425326663e-02
         - -2.1548070760069555e-02
         - -1.0910390460056769e-02
         - -1.8462847759424701e-02
         - 1.4928693821340985e-02
         - 2.0057075229169424e-02
         - -1.8130960589777988e-02
         - 1.4980112520017829e-02
         - 2.1172733321407466e-02
         - -1.7509300803075563e-02
         - 1.3778479498837405e-02
         - -3.1578869089704279e-03
         - 1.5427966427680712e-02
         - 1.0823333289964538e-02
         - -8.7357152095967425e-03
         - -2.1226690632503990e-03
         - 1.4069366954862304e-02
         - 6.6300012772285899e-03
         - 3.0153230371095344e-04
         - -2.4457686630341515e-03
         - -4.1304697659410592e-03
         - 1.6580701640874149e-02
         - 3.1293200028525295e-03
         - -1.9266616917103671e-02
         - 8.2614925578845481e-03
         - -1.2366363388624617e-02
         - -8.9679899941730191e-03
         - 1.1231621248344679e-02
         - 2.5576680735594850e-02
         - -2.6923523957811866e-02
         - -2.6571188978555811e-03
         - 3.4253550411367274e-02
         - 1.2183413999346615e-02
         - 2.0931696637748180e-02
         - 1.6612019264127531e-02
         - -2.6964052498127090e-02
         - -1.1680591005389882e-02
         - 5.6207006796729067e-03
         - 1.1090929320835621e-02
         - 2.1037466145058342e-02
         - -8.3987044428798212e-03
         - -3.5431833604542426e-02
         - -1.4855336737228140e-02
         - -8.6695046684615914e-03
         - -2.5930052280268744e-04
         - 2.3357080451245051e-02
         - -3.4002072015126067e-03
         - -1.5253801419572683e-02
         - 5.9634124909405214e-02
         - 1.0287734468501343e-02
         - -1.0973391289331306e-03
         - -3.8726298498201805e-02
         - -2.7361717757531669e-03
         - -1.6455151691944028e-02
         - 3.9613967758965016e-02
         - 1.2886651292552455e-02
         - 2.2116241211170548e-02
         - 6.7586071070397085e-03
         - -3.4871522948770653e-03
         - 1.3781581496329734e-02
         - -2.3401972602361369e-02
         - 4.4528892109861967e-02
         - -2.1464048396702719e-03
         - -1.4436634383991365e-02
         - 1.3674036710383128e-02
         - -2.0746660982438759e-02
         - 2.1043531528481679e-02
         - 3.0565399796846065e-02
         - 2.9019435172523134e-02
         - -2.1887279075815783e-02
         - 1.5140981173527744e-02
         - 3.7916197435383041e-02
         - 7.0031760627439887e-03
         - -6.6100544170816337e-03
         - -4.2638279990398251e-02
         - -1.2775136058631006e-02
         - -2.7486820950503688e-02
         - -1.7934677316042104e-03
         - -2.9446082830371759e-02
         - -1.3826920579650834e-02
         - 9.3772919437083053e-03
         - 2.1049449665385186e-02
         - -2.3717059737283885e-02
         - -9.4212444721577682e-03
         - 1.9442187269597608e-02
         - -7.5017897221876614e-02
         - -1.0979843718881362e-02
         - -7.0899241486835672e-03
         - 1.1448938839795642e-04
         - 8.6755510541129441e-02
         - -5.7840482010845289e-02
         - -3.9850632981338542e-02
         - 5.1001420801797615e-03
         - 3.5020040354013619e-02
         - -2.5796902369722603e-03
         - -3.3852758267497618e-02
         - -6.7380047437919005e-02
         - 9.2021389581707965e-03
         - 2.8120840704433180e-02
         - 2.5229165745026469e-03
         - -6.7942211804305402e-02
         - 6.9876553967669078e-02
         - -7.6104237284210410e-02
         - -1.7837330364559010e-02
         - 3.1272314520497495e-02
         - 6.9359558226896156e-02
         - 5.3229728468508583e-02
         - 2.0642789094706380e-02
         - -1.6548831782055424e-02
         - 2.8680496718600342e-02
         - 5.2974130300706204e-02
         - 1.3110305224410448e-02
         - -3.6191288597805557e-02
         - 5.8279532275989331e-03
         - -2.8710778223434208e-02
         - 7.0293381047776535e-02
         - -4.8334561782970638e-02
         - -2.1645599812195722e-02
         - -8.7970578913507486e-02
         - -6.4804015239202997e-02
         - -6.1455235486230449e-02
         - -1.4279492479992396e-02
         - -5.0974158501586909e-02
         - -8.5867093835582678e-02
         - -2.6271287434411573e-02
         - -7.8538223517728684e-02
         - -4.7881629504305297e-03
         - 5.4541211281298064e-04
         - 9.3938074253854830e-04
         - 8.4324136248993178e-03
         - -1.7426440210748403e-02
         - -9.2335085341120806e-03
         - 4.0125027591554766e-03
         - 3.2279162364618204e-02
         - -2.7719430898153177e-02
         - -5.3156264048986858e-02
         - -3.7762678926977655e-02
         - -6.5153702127942623e-02
         - 4.9070622570985371e-02
         - 4.8666019855926008e-02
         - 5.8069652974291674e-02
         - -3.9492556572038554e-02
         - 3.3467775368456944e-02
         - -5.8260299267948595e-03
         - 2.9802484212919034e-02
         - 1.0101524094457984e-02
         - 1.9087513471921974e-02
         - -4.5333070369900693e-03
         - 1.3224085103912686e-04
         - 1.8685146443166403e-02
         - -2.5184196406179367e-02
         - 8.6004532772287895e-03
         - -2.5491597764343038e-02
         - 1.8691970189245160e-02
         - 1.5014509974751964e-02
         - 2.2675506464790499e-02
         - 6.9158537121030983e-03
         - -1.4703018869982265e-02
         - 2.4661175954242453e-02
         - 8.2750453167949045e-03
         - 3.3953040483384107e-02
         - 7.3513265043688410e-03
         - 6.6723931392104543e-04
         - -1.1120348220264044e-02
         - 1.2317060972650295e-02
         - -2.7361904011851700e-02
         - -6.1185837036964461e-03
         - 2.1289685541171208e-02
         - 5.3797337124490393e-03
         - -7.4361311061476665e-03
         - 1.2712878846310874e-02
         - -1.6218582382747638e-02
         - -2.3580638933199487e-02
         - 5.3553151761530958e-03
         - -2.4968647414966034e-02
         - -2.7387891921469551e-02
         - 2.7893419927703979e-02
         - 2.8507315853476514e-02
         - 2.9311489328725723e-02
         - -2.0980152190843950e-02
         - -4.6444265869115273e-03
         - -1.1125956583004417e-04
         - -8.7687486754349040e-03
         - -9.3319338181625053e-03
         - -4.5815087304302881e-03
         - -6.3001981861123234e-03
         - -1.4145752737304059e-02
         - 2.6277630788272433e-02
         - -3.1890021603562149e-02
         - 1.0879014681298389e-02
         - 5.5155521717863968e-06
         - -7.8751155774629773e-05
         - 2.0291070042509629e-02
         - 2.2019942907541101e-03
         - 6.2714982005175925e-03
         - 2.8102131576661069e-02
         - -1.2743350163046159e-02
         - 2.9009434789286973e-02
         - -1.3684847052825196e-02
         - -9.8394307784410492e-03
         - 2.3401147545413288e-02
         - -1.8630811509713574e-02
         - 8.6386237217312856e-03
         - -2.5538148974906100e-02
         - -1.4864478506927084e-02
         - 7.4771893415383778e-03
         - 3.2731489626583725e-02
         - 3.3545103318238886e-02
         - 1.6837739716468802e-02
         - 1.2697069706799699e-02
         - 2.4230799889438798e-03
         - 2.2847787186521040e-02
         - -2.9914002212793934e-02
         - 6.9341944097886269e-03
         - -1.1240068634772952e-02
         - 4.1896273420550897e-02
         - -1.3465282254005746e-02
         - -4.3422068132816523e-02
         - 3.8032567862007080e-02
         - 1.8036440238195794e-02
         - 1.9798781823059518e-02
         - -2.6650943694699052e-02
         - -4.6953313002571192e-03
         - -1.5596421977530593e-03
         - 4.6137704833129060e-02
         - 2.6416893158564634e-02
         - 3.9096605322433781e-02
         - 3.2291479912387533e-03
         - 8.4625155811178575e-04
         - -2.1943405027243054e-02
         - 1.5931453928817278e-02
         - 3.1089476757720846e-02
         - -6.8143350362687878e-03
         - 4.7761341362322204e-03
         - -2.7923017080673813e-02
         - -1.0612006295783526e-02
         - 1.8217267328328028e-03
         - -9.2462158374361694e-03
         - -5.9859922352008058e-03
         - -2.4485918141888613e-03
         - 2.3771584548674788e-02
         - -1.5076780216790830e-02
         - 7.2804811712766553e-03
         - -7.2502009304715878e-03
         - -2.3545628362861046e-02
         - -4.0613606025706140e-03
         - 3.6336895996900237e-02
         - 4.8578362488061334e-02
         - 1.7945311189513424e-02
         - -1.8837080036353440e-02
         - 4.1505984182461542e-02
         - 1.8574895986865795e-02
         - -3.4892389602019541e-02
         - 4.5090162162788518e-03
         - -3.0900151130401499e-02
         - -2.2787395459305223e-03
         - -3.1214669492180776e-02
         - -1.0355972762456344e-02
         - -2.6088403394653441e-02
         - 3.3985490119249659e-02
         - 3.3529571356323472e-02
         - 2.2684491284626861e-02
         - 1.5090041919773733e-02
         - 7.0722075247674010e-03
         - -2.0721311076397960e-02
         - 2.1587244493077480e-02
         - -4.8750527755455707e-02
         - -1.3757959181343045e-02
         - 1.1005893971225648e-02
         - -2.1539119109142319e-02
         - -1.2772197582309965e-02
         - -1.3905045638762771e-03
         - 1.0975051256897454e-02
         - 1.6144885435217936e-02
         - -6.0317048620823913e-03
         - -5.6738942850340368e-02
         - -2.1753049689587000e-03
         - -5.6671690634069731e-02
         - -3.4307638225512020e-02
         - -2.7908630492051278e-02
         - -1.3703399879290352e-02
         - 1.5681121576389036e-02
         - -2.3781279373594040e-02
         - -2.9984349103181193e-02
         - -1.3521637001056930e-02
         - 3.2122903460075257e-02
         - -1.9562807736672242e-02
         - -1.9731885193426342e-02
         - -5.0082584011869540e-02
         - -1.0833802044469820e-02
         - -2.4254251757596334e-02
         - 2.0642117792509171e-02
         - -2.3601647901812156e-02
         - 1.3522293523431631e-02
         - -4.3847610109373242e-02
         - -1.1139460069089686e-02
         - 4.8532877679660830e-02
         - -4.9176140310686180e-03
         - 3.1318757001206607e-02
         - 3.6626930319001716e-02
         - 3.6677717983336994e-02
         - 3.4135493652790970e-03
         - 8.8616788079977291e-03
         - -2.2918058671107210e-02
         - -1.9330983734725363e-02
         - -3.0294192390295628e-03
         - -1.1161392035524142e-02
         - 1.7328546593067092e-02
         - -1.5850894526904673e-02
         - -1.3017758297474950e-02
         - -3.1966964863971464e-02
         - -7.4535095396761220e-03
         - -2.6827410608777767e-02
         - 1.7780748365259766e-02
         - -2.9618251850676489e-02
         - -5.3239466577388213e-02
         - 1.4048581260371926e-02
         - -5.6967855318614903e-02
         - -1.5051450608751333e-02
         - -3.5392163918464704e-02
         - 2.2311107074290657e-02
         - 3.0168995543604547e-02
         - 2.2152453708527243e-02
         - -3.6747093757958267e-02
         - 1.9375615501501939e-02
         - -1.6934143693356821e-03
         - -1.0310575183450023e-02
         - -3.8066561849425487e-02
         - -3.3130874993634200e-02
         - -3.8157911475684765e-02
         - 2.3761099071124794e-02
         - 3.3622519659395070e-02
         - 5.6299423163856721e-02
         - -1.5012985208414714e-02
         - 1.9478715323256212e-03
         - 1.6964005814602535e-02
         - -1.9218304598647165e-02
         - -7.7723040274457911e-03
         - 2.2391396437377205e-02
         - -1.2225897166176440e-02
         - 2.0480688904958223e-02
         - 1.1974595908921592e-02
         - -1.9845330912590855e-02
         - -3.0806221391521137e-02
         - -2.6903358458604431e-02
         - -5.0742023093503013e-03
         - 3.4158910333169867e-02
         - -3.1364263094161252e-02
         - 3.0406842273086689e-02
         - -4.4997991809611913e-05
         - 3.1258556834965104e-02
         - 2.1588692441239151e-05
         - 2.4339288634402240e-03
         - -3.0221478613138512e-02
         - 2.8050023929816217e-02
         - 1.9574490187575361e-02
         - -5.2671211571957673e-03
         - 1.0309365672449141e-02
         - -2.4951142108781899e-02
         - 3.0124823693568999e-02
         - -9.1566279258513822e-03
         - 2.6139711585164691e-03
         - -2.4891088802721114e-02
         - 1.6394168160650362e-02
         - 1.7560982581667491e-02
         - -1.6092767452199466e-02
         - -1.5404144430163030e-02
         - -2.9067960712354231e-03
         - -1.9436051483486746e-02
         - -1.4714652296481393e-02
         - 5.5540815960441999e-03
         - -3.0131143686801132e-02
         - 6.4818746471394665e-03
         - 7.8615599061069245e-03
         - -2.0375567790034608e-02
         - -6.3308931085568297e-04
         - -2.8211062806098371e-02
         - -2.2954168349346965e-02
         - -2.0751245256110336e-02
         - -1.5464368552622662e-02
         - -1.3844140900371426e-02
         - 1.6724988724459263e-02
         - -3.7123342231585145e-03
         - -2.0103040807929469e-02
         - 1.9742078663560477e-02
         - -3.1816178859518762e-02
         - 1.7703188048481748e-02
         - 1.0731609920771067e-02
         - 3.7550607239801330e-03
         - -3.0006409815169506e-02
         - 1.5312077394485781e-02
         - 3.0357925491125589e-02
         - 1.9695859566895832e-02
         - -1.8184871618092283e-03
         - -6.7158368667396447e-03
         - -1.2246796004975963e-02
         - -1.3976939792562088e-02
         - -1.0959362811107879e-02
         - 1.5509050501018128e-02
         - -2.6779060107788747e-02
         - -2.8805917099700731e-02
         - -1.2262896303678215e-03
         - -2.0012678539926970e-02
         - -7.6393808808109106e-03
         - -3.2355068886490583e-02
         - -1.4215626163239349e-03
         - -1.1427429081168240e-02
         - -1.1206734740910407e-02
         - -9.0534966787732801e-03
         - 1.4641911224300853e-02
         - -1.6131070047157317e-02
         - -2.8278232910009971e-02
         - -2.0025115720811865e-02
         - 2.4265735963246316e-02
         - -7.6855019354595813e-03
         - -2.9302064507507341e-02
         - -1.6624043158276210e-02
         - 4.4624460177977079e-03
         - -6.9845332515363675e-03
         - 1.9359080446693165e-03
         - 2.5132356880081912e-02
         - 9.9029106045616568e-03
         - -1.3696693294126290e-02
         - -9.1504082939764409e-03
         - 1.1233209754100193e-02
         - 7.8109105451694564e-03
         - 9.4295550673036740e-03
         - 1.3346023395342688e-02
         - -2.7237657040076146e-02
         - 5.2575022944425179e-03
         - -2.8702103363438126e-02
         - -2.0276337586851201e-02
         - -7.7535930979186565e-04
         - 3.1943495765023103e-02
         - -1.0102914027590652e-03
         - -6.7752926591236468e-03
         - 1.2030038417336880e-02
         - -5.3809860190907471e-03
         - 1.1597826268526465e-02
         - -4.0774045352534848e-04
         - -1.3270542306066505e-02
         - -1.1197403070195084e-02
         - 2.0505407418442097e-02
         - -1.0377588371907765e-02
         - 1.4448070519389082e-02
         - -1.4338205678410843e-02
         - 8.5421089673344917e-03
         - -1.8030815656281601e-02
         - 3.4336725011834385e-03
         - -8.8245959492891397e-03
         - 2.9949990225643344e-02
         - -1.3792386932729210e-02
         - 2.5560082111273634e-02
         - -2.8678775493541805e-02
         - -5.1848161762185090e-04
         - 2.9586882528745547e-03
         - -1.1192345022173131e-02
         - 2.6564419157701018e-02
         - -1.9306627005368528e-02
         - 1.6376249718666738e-03
         - -9.5404702719247454e-03
         - -2.1377069370572548e-03
         - 2.0728526492244215e-02
         - -2.0398644391341508e-02
         - -7.3910669063787307e-03
         - 1.7555611525381761e-02
         - -1.7610734162059379e-02
         - 5.1178006467819941e-04
         - -6.7541200939570918e-03
         - 1.3461010999998115e-02
         - 9.0170774965514736e-03
         - -1.3340652761266768e-03
         - -2.0651842772343838e-02
         - -1.2357605624530366e-02
         - -2.4025127476135874e-02
         - 1.3916584785684685e-02
         - 2.8972836760213332e-02
         - -1.9767092828668620e-03
         - 2.2081822682729235e-02
         - 5.4267050521054445e-03
         - -2.4613944996789205e-02
         - -2.9061169326995151e-02
         - -6.0506378606543215e-03
         - -1.0227528534060091e-02
         - -1.3882298574828570e-02
         - 1.0319111337024699e-02
         - -2.7959485358185914e-02
         - -2.5929936104724209e-03
         - -1.8089789453059592e-02
         - -1.1592328100276173e-02
         - 1.1895054417183085e-02
         - 4.3146584695494556e-03
         - 2.0625720632845648e-02
         - -2.1586198509915971e-02
         - -2.3264973960712330e-02
         - -3.0293359382633667e-02
         - -2.8082319499432441e-02
         - 3.0373142904287090e-03
         - 2.7708854497491570e-02
         - -1.2416057616453703e-02
         - -3.0885184221216538e-02
         - 2.4294164492182375e-03
         - 1.8203788700112875e-03
         - -2.2483923825732405e-02
         - 2.0433351059019975e-02
         - -1.8074631730559731e-02
         - -2.0402246526805522e-02
         - -1.6105954090208915e-02
         - 1.0304884019269576e-03
         - -1.6258777230528591e-03
         - -1.8898123011552199e-02
         - 1.6117268986736686e-02
         - -4.7350186598640156e-03
         - 2.9689824863848215e-02
         - -1.4416002349765854e-02
         - -3.2019628049765402e-02
         - -7.4665434733166688e-03
         - 1.7531159387952199e-02
         - 1.6038691383227225e-02
         - -2.9356936194505176e-02
         - 1.0460407357967970e-03
         - -1.9236776558256088e-02
         - -1.4163544580772700e-03
         - 2.2417333110484532e-02
         - 1.6412231584670183e-02
         - 2.9330329879918905e-03
         - -1.2365570545409559e-02
         - 8.2989213099218528e-03
         - 4.2711991925370252e-03
         - 1.4392315108606909e-02
         - 6.3252036050659797e-03
         - 3.0319908099754443e-04
         - 8.4742752822229116e-03
         - -3.9120277004141182e-02
         - -8.9330133063737268e-03
         - -3.8023388083487388e-03
         - -6.8951346820830756e-03
         - 8.0163824048009452e-03
         - -2.0972849327603724e-02
         - -3.0401060181712111e-02
         - 2.0605687388420016e-02
         - -1.9763477227122881e-02
         - -6.6110856381739530e-03
         - 9.2776816948626044e-03
         - -3.9566584930454812e-02
         - -4.2878423179152836e-03
         - -1.0570079331011471e-02
         - -1.0322924507113682e-02
         - 7.2871436694592513e-03
         - -9.3167993800935232e-03
         - -1.7596718340626791e-02
         - 7.8264866483245179e-03
         - 4.4825410664264317e-03
         - -2.9218929946686852e-03
         - 4.7943173250648207e-03
         - 5.6767853199696829e-03
         - -1.0350151901019976e-02
         - 6.0883851615078704e-03
         - -4.3821693652395409e-03
         - 8.5490901837555547e-03
         - -9.0741218849063523e-03
         - -1.0058999399373743e-02
         - -1.0491884517433873e-02
         - 1.4463228467349663e-03
         - -1.2174895077940546e-02
         - -8.3240083150938997e-03
         - 5.7898539388345121e-03
         - 1.0870579799271865e-03
         - 3.4193658817564354e-04
         - 2.9589536790630394e-02
         - -3.8061587327922829e-02
         - -7.5439181085766496e-03
         - -6.9840220821385203e-03
         - -2.9065498634326132e-02
         - 2.0644088542228475e-02
         - -2.8728349972342367e-02
         - 3.2471140685746719e-02
         - -1.7357115836196844e-02
         - 3.8606212556901845e-02
         - -1.9764797307358604e-02
         - -4.9451839613071091e-03
         - -1.8671694367639029e-02
         - 7.9687557857330835e-04
         - -1.0624673299907247e-03
         - -2.1695373851760614e-02
         - -1.3866975343160419e-02
         - 1.5383636417568416e-02
         - 7.2144498615388589e-03
         - 4.6127859189262425e-02
         - -1.7316309285371204e-02
         - -2.7366751918827406e-03
         - 1.5825089271286986e-02
         - 4.2553261928472653e-03
         - -3.3372565716037091e-02
         - -2.6344623498976072e-03
         - 3.5254043530267162e-02
         - 9.3548068777370725e-03
         - -1.4744972962424531e-02
         - 3.2176943983376005e-02
         - 5.5414547046574204e-03
         - 1.8558949026636174e-02
         - 7.6840921606803579e-03
         - -7.5579924043852201e-03
         - 1.3485627369811241e-02
         - -1.8089990095800312e-02
         - 1.4207314791851958e-02
         - 3.6721529214126659e-03
         - 2.1668258195237874e-02
         - 3.6370029797445679e-03
         - -1.1747817371922901e-02
         - 3.3855849969913594e-02
