%YAML:1.0
opencv_ml_ann_mlp:
   format: 3
   layer_sizes: [ 64, 100, 100, 26 ]
   activation_function: SIGMOID_SYM
   f_param1: 6.6666666666666663e-01
   f_param2: 1.7159000000000000e+00
   min_val: -9.4999999999999996e-01
   max_val: 9.4999999999999996e-01
   min_val1: -9.7999999999999998e-01
   max_val1: 9.7999999999999998e-01
   training_params:
      train_method: BACKPROP
      dw_scale: 1.0000000000000000e-03
      moment_scale: 0.
      term_criteria:
         iterations: 300
   input_scale:
      - 1.
      - -1.
      - 1.
      - 0.
      - 6.8033794153414429e-01
      - -3.2931293457753363e+00
      - 1.4712152038793935e+01
      - -1.1777169571248901e+01
      - 8.0760541923617346e+00
      - -8.1149686044889824e-01
      - 1.1574054910516942e+00
      - -4.2784670469285064e+00
      - 1.0595581205083048e+01
      - -7.2294736441380802e+00
      - 5.2522179208275928e+00
      - -1.0006998234197326e+00
      - 1.
      - -1.
      - 1.
      - -45.
      - 3.9599491601776438e-01
      - -3.4129653116792573e+00
      - 1.1886781520160058e+01
      - -7.7326505109203589e+00
      - 7.8210057222180946e+00
      - -7.2341872746777824e-01
      - 9.2996926412074332e-01
      - -3.7500498848797812e+00
      - 6.2223905234845054e+00
      - -3.4793243349643492e+00
      - 4.9419121534578156e+00
      - -8.4825561366546054e-01
      - 1.
      - -1.
      - 1.
      - -90.
      - 3.3480269934302936e-01
      - -1.4278340914591017e+00
      - 9.6508797676004150e+00
      - -8.0959573673284471e+00
      - 7.6464348463920437e+00
      - -7.7816958918689105e-01
      - 9.3444838969232058e-01
      - -3.4933488429431216e+00
      - 6.1744730771308856e+00
      - -4.1945433695496686e+00
      - 5.1031816746722667e+00
      - -9.4589121650991548e-01
      - 1.
      - -1.
      - 1.
      - -135.
      - 3.9381169348422845e-01
      - -3.3649069396472440e+00
      - 1.1886376516828797e+01
      - -7.7755453364369957e+00
      - 7.9304189952097772e+00
      - -7.2571234049898037e-01
      - 9.3841521650987336e-01
      - -3.7801070132505790e+00
      - 6.3283799878922373e+00
      - -3.5355346034683550e+00
      - 4.9772204951758665e+00
      - -8.5004224026771869e-01
      - 1.
      - -3.
      - 1.
      - 0.
      - 3.4703828987268170e-01
      - -4.5789024914262315e+00
      - 1.1612834828226276e+01
      - -4.8308096335139092e+00
      - 8.9378062586137812e+00
      - -7.2257966535711204e-01
      - 1.0226535123565501e+00
      - -4.1436513949744445e+00
      - 8.6368337145357081e+00
      - -4.7850973821239560e+00
      - 5.3912255515141787e+00
      - -8.8487532903384580e-01
      - 1.
      - -3.
      - 1.
      - -45.
      - 2.0421173576824250e-01
      - -3.9547045597224861e+00
      - 7.1875581015793468e+00
      - -9.2660109332283780e-01
      - 8.5093814803964563e+00
      - -6.7840621284598990e-01
      - 8.9025343671637236e-01
      - -3.7491791614999150e+00
      - 5.6490583439105135e+00
      - -2.5545343073806950e+00
      - 5.0376499558466366e+00
      - -7.6488224767196900e-01
      - 1.
      - -3.
      - 1.
      - -90.
      - 1.9210429943446250e-01
      - -1.6651408543992923e+00
      - 5.1892090633591792e+00
      - -3.4356429641840922e+00
      - 7.8553826431331890e+00
      - -7.3159877948324625e-01
      - 8.9455884231349647e-01
      - -3.5657957921232759e+00
      - 5.2330740855685889e+00
      - -3.0539417677062874e+00
      - 5.0504988964127504e+00
      - -8.8342702591176991e-01
      - 1.
      - -3.
      - 1.
      - -135.
      - 1.9707284953353391e-01
      - -3.7497540575350707e+00
      - 7.3229226323936327e+00
      - -1.0849123694337641e+00
      - 8.7748928382734341e+00
      - -6.8603908021708793e-01
      - 8.9795728997378299e-01
      - -3.7797042729479022e+00
      - 5.8327457245427983e+00
      - -2.6492875576338748e+00
      - 5.0942192317311026e+00
      - -7.6061671788302543e-01
   output_scale:
      - 5.2631578947368418e-01
      - 4.9999999999999994e-01
      - 5.2631578947368418e-01
      - 4.9999999999999994e-01
      - 5.2631578947368418e-01
      - 4.9999999999999994e-01
      - 1.
      - 0.
      - 1.
      - 0.
      - 1.
      - 0.
      - 1.
      - 0.
      - 1.
      - 0.
      - 1.
      - 0.
      - 1.
      - 0.
      - 1.
      - 0.
      - 1.
      - 0.
      - 1.
      - 0.
      - 1.
      - 0.
      - 1.
      - 0.
      - 1.
      - 0.
      - 1.
      - 0.
      - 1.
      - 0.
      - 1.
      - 0.
      - 1.
      - 0.
      - 1.
      - 0.
      - 1.
      - 0.
      - 1.
      - 0.
      - 1.
      - 0.
      - 1.
      - 0.
      - 1.
      - 0.
   inv_output_scale:
      - 1.8999999999999999e+00
      - -9.4999999999999996e-01
      - 1.8999999999999999e+00
      - -9.4999999999999996e-01
      - 1.8999999999999999e+00
      - -9.4999999999999996e-01
      - 1.
      - 0.
      - 1.
      - 0.
      - 1.
      - 0.
      - 1.
      - 0.
      - 1.
      - 0.
      - 1.
      - 0.
      - 1.
      - 0.
      - 1.
      - 0.
      - 1.
      - 0.
      - 1.
      - 0.
      - 1.
      - 0.
      - 1.
      - 0.
      - 1.
      - 0.
      - 1.
      - 0.
      - 1.
      - 0.
      - 1.
      - 0.
      - 1.
      - 0.
      - 1.
      - 0.
      - 1.
      - 0.
      - 1.
      - 0.
      - 1.
      - 0.
      - 1.
      - 0.
      - 1.
      - 0.
   weights:
      -
         - -2.6004054171473927e-02
         - -1.9586719579871053e-02
         - 7.9953140897202762e-03
         - 1.6902579313716859e-02
         - 2.9244805377145876e-02
         - -3.0739658152373096e-02
         - 2.2178974474245685e-02
         - 1.4888519706054579e-02
         - -2.2265015699576934e-02
         - 2.0358769922601699e-02
         - 2.5184763345363514e-02
         - -3.1057565262980567e-02
         - -1.0866125645727445e-02
         - -1.1539695975888904e-02
         - -6.4848349026989790e-03
         - -3.1028969179974298e-03
         - -2.6023066666201410e-03
         - 9.0541908630668369e-03
         - 8.1427727846843639e-03
         - -3.9298379810387626e-03
         - -3.6601717085302079e-03
         - -2.4137251879972493e-02
         - -8.8641277291695714e-03
         - -2.2469741090912210e-02
         - 2.5911121038100341e-02
         - -4.2518080425629065e-03
         - -2.4187154084053180e-02
         - -1.2542174510037354e-02
         - 2.8983126285812243e-02
         - 8.9745576081320059e-03
         - -2.5947116365531205e-02
         - 2.4422804468042021e-02
         - -2.3449648924728936e-02
         - 1.9128549504002521e-03
         - -5.4524355852059343e-03
         - 1.8036552383701273e-02
         - -3.7566383635948891e-03
         - -1.6551241462249386e-02
         - -3.0870672369847675e-04
         - -1.9069267519481761e-02
         - -9.6482360383586471e-03
         - 1.1242666306817510e-04
         - -3.0449265468270059e-03
         - -2.2675392229097983e-02
         - -1.5301035937520316e-02
         - 1.9767897726587279e-02
         - 2.4801100497416073e-02
         - 2.7606658760142878e-02
         - -1.1462356380542767e-02
         - -2.5852780961174139e-02
         - 1.8885370708195601e-02
         - 2.2723806261162938e-02
         - -6.8683582342402910e-03
         - -2.0606819720890849e-02
         - 1.5862723726012513e-02
         - 2.4599071151499088e-02
         - -1.5754939223577683e-02
         - -1.3012816751315973e-02
         - -2.5233921577249414e-02
         - 2.1780938555881580e-02
         - -1.0280447299732865e-02
         - 2.7333323688792104e-03
         - -1.5974771998234227e-02
         - 5.5498102794589808e-03
         - -1.9290334273570825e-02
         - 3.0612804376070370e-02
         - 2.5206291900972583e-02
         - 8.0245576825517806e-03
         - -1.7751448031913787e-02
         - -3.0894152999417362e-02
         - -2.9759009061646441e-02
         - -2.2680914995794353e-02
         - 5.8079211014127816e-03
         - 1.7882623457482597e-02
         - -1.4271785180410647e-02
         - -1.4594105390404302e-02
         - -5.6918541863188437e-03
         - 1.9663503710259374e-02
         - 2.0984781647688317e-02
         - 1.3352465620071351e-02
         - 2.7535072153425783e-02
         - 1.8065587522107806e-02
         - -7.0867903747429423e-03
         - -1.1225798755242529e-02
         - -4.7611722302701902e-03
         - 3.2967674709583464e-02
         - 3.0233303922016050e-02
         - -9.6158199331327215e-03
         - 5.2550313580409531e-03
         - 1.3518798838305040e-02
         - 2.0008053608099544e-02
         - 1.4767320805692754e-02
         - 2.1530987467254371e-03
         - -2.5273554557103318e-02
         - -1.7780944660400970e-02
         - -1.5250530280011205e-02
         - 3.0519460440054352e-02
         - -1.4522945822381386e-02
         - -1.6058332183109366e-02
         - 2.7198388253473146e-02
         - 5.5537489291366468e-03
         - 2.4890089529991097e-02
         - 1.3450201138401185e-02
         - 1.3579730956018437e-03
         - 2.0175119720372729e-02
         - 1.2972505761527733e-03
         - -8.9590577276239466e-03
         - 2.3391397860469586e-02
         - -2.0494034518887629e-02
         - 1.4627514756581774e-02
         - 1.5253208415055045e-02
         - 1.4052002195430735e-02
         - -1.6112920927159456e-02
         - -5.4389414570252190e-03
         - -3.0650442033734121e-03
         - -1.5114139388916663e-02
         - 2.8858994531769867e-02
         - 2.9718811076289129e-02
         - -3.0196358815967106e-02
         - -1.0199933582601921e-02
         - -2.8873739672180206e-02
         - -6.7848401472213552e-03
         - 1.0441623331948872e-03
         - 2.3372864503948036e-02
         - -1.1638490136842285e-02
         - 1.3916577351421188e-02
         - -3.4889119979764722e-03
         - -2.3614722601012293e-02
         - -4.1802795268476561e-03
         - 1.5350636667224015e-02
         - 2.2483833108400100e-02
         - 8.4153394128515322e-04
         - 8.0639212317767366e-03
         - -3.3789537896064523e-02
         - 3.3862035042773781e-04
         - -1.3345930290612011e-02
         - 3.0445025348937799e-02
         - 1.7921185040133684e-02
         - 1.3207327479777530e-02
         - -7.9286915035012926e-03
         - 1.0309056825276670e-02
         - 9.7162310282132985e-03
         - 2.9552864415997367e-02
         - 2.9758991647942106e-03
         - -2.6059730831683296e-03
         - -2.8757928488023993e-03
         - -2.2399544390619124e-02
         - -1.2761046680487912e-02
         - -1.2080710753848712e-02
         - 1.3324756972620765e-02
         - 5.1727273064942833e-03
         - 6.2793783533871914e-03
         - -5.6815834438065579e-03
         - -1.0879074316975134e-02
         - -2.9336379158420380e-02
         - 1.6185843813406302e-03
         - -1.6951155916631808e-02
         - 3.0327018831429357e-02
         - -1.6341506579018261e-04
         - -2.2003893019657571e-02
         - 2.7009865663660218e-02
         - -7.1082939777054269e-03
         - -3.0338626136490632e-02
         - 3.5477911479827429e-02
         - 5.1511178022258883e-03
         - -1.9688837671494393e-03
         - 4.1114698130674957e-03
         - -1.0723510153633889e-02
         - 2.5894545810468968e-02
         - -3.5146638853803011e-03
         - 1.5956104810067845e-02
         - 2.5800610109450711e-02
         - 1.7024634175012595e-02
         - -2.9147756807418834e-02
         - 2.6081030453174885e-03
         - -7.9540626179352859e-03
         - -2.2981379951550591e-02
         - 2.1639980609780642e-02
         - 9.1426092769687547e-03
         - 2.1930189069485795e-02
         - 1.8939374025855785e-02
         - 1.2517340115280690e-02
         - -1.0530231552031552e-02
         - 5.7899402409682717e-03
         - -1.4076212279460709e-02
         - -1.2028192082595464e-02
         - 5.4383543192991742e-03
         - -1.5676493376192500e-03
         - -5.7939271918020291e-03
         - -1.5849080641351213e-02
         - 7.0740197124737388e-03
         - -2.5092220467768152e-03
         - -2.7552474430435250e-02
         - -1.3969631183625352e-02
         - 9.3876755848358168e-03
         - -1.7342381718712812e-02
         - -1.5432632934086110e-03
         - -1.8497807407407661e-02
         - -5.6198612365743221e-03
         - 2.8979186491461955e-02
         - -3.4099672894793168e-02
         - -5.5702441717252152e-02
         - 3.2746538134243844e-02
         - 4.5770529135897707e-02
         - -1.8345639831269158e-02
         - -2.3205624581297832e-03
         - -1.6827974600445925e-02
         - 1.9951735434733123e-02
         - 3.2073004682237477e-02
         - 4.3878085252866076e-03
         - 2.7095862434599214e-03
         - -1.9561610132650412e-02
         - 2.2767484730655652e-02
         - -3.1916471020845324e-03
         - -4.2455080024817793e-02
         - 5.3596091363263383e-02
         - 7.5685795650533546e-03
         - 2.9136161355955183e-02
         - -1.4560113048187155e-03
         - 2.1194908326744796e-02
         - -6.7341105719960340e-02
         - 2.7318459060404487e-02
         - -2.8379701550652937e-02
         - -4.9319940142231913e-02
         - -2.8149826396980014e-02
         - 5.8004518274912001e-02
         - -2.3848141933597314e-02
         - 3.9916815389509072e-02
         - -2.1071066380921356e-02
         - 6.0532023176129469e-02
         - 2.9093028941124876e-02
         - 1.8016889594543228e-02
         - -5.7095370012078255e-02
         - 1.1160848179551656e-02
         - -2.6812568004458571e-02
         - 1.4931781354534837e-02
         - 9.9816540728000624e-03
         - -3.3416121253661543e-02
         - 1.8864983070937515e-02
         - 2.4832095734707575e-02
         - 3.4197510592063163e-02
         - 4.3981220043519453e-02
         - -5.3994888049393043e-02
         - 3.4846718289172164e-02
         - 6.9983228169543492e-03
         - -3.3499810031869040e-02
         - 8.7889141881015972e-02
         - -3.7276517332717710e-02
         - -2.7040241051312277e-02
         - 1.7096482467664918e-03
         - -1.6104945017613248e-03
         - -1.3043006645148859e-02
         - -7.0497930440224029e-04
         - 3.2388220860972691e-02
         - 3.4262320512460538e-02
         - 1.5747341355847509e-02
         - -4.2106079830139748e-03
         - 3.1292771523927690e-02
         - -1.0992218433489244e-02
         - -5.4994926474105678e-03
         - -2.4674285728495528e-02
         - -3.3230731127402248e-02
         - 7.2679968429305956e-03
         - -1.8639821553739966e-03
         - 6.7952419710781947e-02
         - 2.1301386180467081e-02
         - 2.5660280891285476e-03
         - -6.1887491355334619e-02
         - 4.6963423938604136e-02
         - 4.4334708453079470e-03
         - 2.3685826438434431e-03
         - 2.9896856679202173e-02
         - 1.9873523487322544e-02
         - -1.3373641523613517e-02
         - 6.4959822626870029e-02
         - 1.8971421224710600e-02
         - 4.4440964897096515e-02
         - 4.7859775593567515e-02
         - -6.9152921533252310e-02
         - 2.9758251848751190e-02
         - 5.4017063533662077e-02
         - 4.3172267573707672e-03
         - 3.3229794724247586e-02
         - -1.6243793061446726e-02
         - 4.2105284257723904e-02
         - -3.5239423167424920e-02
         - 2.2429060505159946e-02
         - -3.3112618818312144e-02
         - 2.8942685432721056e-02
         - -3.9279591777022518e-02
         - 2.1847508625182654e-02
         - -2.1682667509808108e-02
         - 1.9679156369829576e-02
         - 6.6513610572817752e-02
         - 6.5549274942421224e-03
         - -2.8067976531821248e-02
         - -5.9749124042689956e-02
         - 4.2587064358140095e-02
         - -5.1931360735988107e-02
         - 5.5534569574482162e-02
         - -7.8107748062622656e-03
         - 4.6734709273233484e-02
         - -1.0886251056876706e-02
         - -1.8820438951413734e-02
         - 2.2122802600980741e-02
         - -1.8622800149627226e-02
         - 3.3262775474665542e-03
         - -4.1942251277384240e-02
         - -1.4506400964622017e-02
         - 2.1286401709279031e-02
         - -5.3404181144386401e-02
         - -4.4386180719553978e-05
         - -4.1546508788500747e-02
         - 4.5588128762905043e-02
         - 4.2919763889482869e-02
         - -2.0030150839896736e-02
         - 2.7982556618539777e-02
         - -8.0879311560045200e-02
         - -1.5826607448215232e-02
         - -1.7489895562293628e-03
         - 6.3202266458092488e-02
         - -2.2450962912274268e-02
         - 3.6482132544252158e-02
         - 4.8596880591035514e-02
         - 9.9847832313088962e-03
         - -3.2641571759475081e-02
         - -1.4122185254642098e-02
         - -1.7026154886013910e-02
         - -1.9663322331587334e-02
         - -4.3815314987044253e-02
         - -1.6399549604124791e-02
         - -3.7599967686637294e-02
         - 1.0356019982492469e-02
         - -2.2014002494931410e-02
         - 2.9117876696135973e-02
         - 3.2694295425036740e-02
         - -6.2931889363653584e-03
         - 1.9733323385314468e-02
         - -1.2535622560475607e-02
         - -3.5664171363896276e-02
         - -6.6164307838239927e-02
         - -6.0931732802545290e-02
         - 1.5264717956774775e-02
         - -2.2746475430769159e-02
         - -3.4755908792913993e-02
         - 4.4849164290370266e-02
         - -1.0437434985629246e-01
         - 1.6016042077921528e-02
         - -1.2933644451503764e-02
         - 1.9827823763586067e-02
         - -3.3137761804854969e-02
         - 8.0666090520085890e-03
         - -3.6520678609607088e-02
         - -3.8896727107191720e-02
         - -4.1718711594205045e-02
         - 1.7305471472811695e-02
         - -1.3157800106134054e-02
         - -5.4253006657958451e-02
         - -7.3758809337675559e-03
         - 2.4044037032597141e-02
         - 2.4022678736436754e-02
         - 5.4438523107004942e-02
         - -1.7397207484085860e-02
         - 3.6595736585117375e-02
         - -4.5760447493973198e-02
         - -1.4723500213896845e-02
         - -5.3197733029113417e-04
         - -4.7752836425745846e-03
         - -3.0466548825620887e-02
         - -2.2361893004581700e-03
         - -2.7420586564271529e-02
         - 1.2232823748182924e-02
         - 1.1745177215563441e-02
         - 1.7461473904845492e-02
         - -6.5306845237494221e-02
         - -4.3874144709861160e-02
         - -1.7829342424985559e-02
         - -7.3561560957738550e-03
         - 7.2276000352582359e-02
         - 1.5371623370725779e-02
         - -5.3269467324313265e-02
         - 3.0574423889764193e-02
         - -3.6338434961631062e-02
         - 1.2811145881679835e-02
         - -2.7262020414660710e-02
         - -8.8158592704546505e-03
         - -1.4775349059815902e-02
         - 3.7577926842459641e-02
         - -2.2908957144052715e-02
         - -1.3554852938294092e-03
         - -8.3227054999882174e-04
         - 4.8496714763023835e-02
         - -3.3735783669858271e-02
         - -2.8285949228916599e-02
         - -1.5455877075919715e-02
         - 3.0565064558434794e-02
         - 6.3640386282915073e-02
         - 3.0183314191596766e-03
         - 4.9583798734198839e-02
         - -6.7545669668491029e-02
         - -2.7576018739422149e-02
         - -3.0964665224182997e-02
         - -7.8064288742641045e-03
         - 2.6105026553393980e-02
         - -1.7643832716937466e-02
         - 2.8926173947232091e-04
         - -1.7348256611916552e-02
         - -2.6530987432110253e-02
         - 2.7636002767264769e-02
         - -2.4175667616085295e-02
         - 2.1992510764010618e-02
         - -7.6795716956155986e-03
         - 2.0576748554322004e-02
         - -1.2493688179685384e-02
         - 1.2473115354005179e-02
         - 4.5512580386441326e-04
         - -1.9312490579941003e-02
         - -1.1199531153645649e-02
         - -2.3945344016366031e-03
         - 1.4725794539296053e-02
         - -2.6758067016897390e-02
         - 1.1920316583189563e-02
         - 2.2912978759915666e-02
         - -1.7806525015230012e-02
         - 1.4822888195708669e-02
         - -2.1975615296236026e-02
         - 4.4638708414718462e-03
         - 2.3971403032745399e-03
         - -6.9636014279726276e-03
         - 1.3931693400816144e-02
         - -1.5799876742515748e-02
         - -5.1242094643219544e-03
         - 5.6205166325905007e-03
         - -2.1919364604620951e-02
         - 9.4229881487664202e-04
         - 2.2266324944789324e-02
         - -1.6247371538905056e-02
         - -6.1506504773850886e-03
         - -2.1880115033457718e-02
         - 1.1700402933192399e-02
         - 1.3562797277310272e-02
         - -2.2711375049902300e-02
         - -6.7795194183403514e-03
         - 5.8739300386281392e-03
         - -1.6737520536783655e-02
         - -2.6582490688620432e-02
         - -1.0595868145802833e-02
         - -1.5436095730850590e-02
         - -1.0468304244652534e-02
         - 2.7830087200863954e-02
         - 4.1765104636112764e-02
         - 3.0971319486366878e-02
         - 3.4620311062800112e-03
         - -1.3582812276438559e-02
         - 5.4969319955676414e-03
         - -1.1777923263398129e-02
         - 6.6408767768646668e-03
         - 1.5618726284685315e-02
         - -2.4742976942645368e-02
         - -2.9667593528477150e-02
         - -4.7929562843647879e-03
         - -2.6179936402496252e-02
         - 9.2593147497891538e-03
         - -2.5521267254890841e-02
         - -6.4145437626066202e-03
         - -9.3057233989757085e-03
         - 2.5534839324064057e-02
         - -1.4489890638011520e-02
         - -9.8490140306481296e-03
         - 1.4862934536500226e-02
         - -2.0597998725952193e-02
         - -4.0374076960371140e-03
         - 3.1598984909348836e-02
         - -2.0187823604802522e-03
         - -2.0475282225138385e-02
         - 2.2460152647338090e-02
         - 1.7969521738818491e-02
         - 2.6183740346970141e-02
         - -6.4582243960763334e-03
         - 2.6298253939359591e-02
         - 1.9252947701257659e-02
         - 2.7880466591025659e-02
         - 3.1952831036609459e-03
         - 3.1034421957604294e-02
         - -2.6733905574044445e-03
         - 3.8638738147690421e-02
         - -3.5586550919371504e-02
         - 1.4560511513641610e-02
         - -5.1775497301066236e-03
         - 3.5525514838576186e-04
         - -1.9229516479666978e-02
         - -1.8428488612931841e-02
         - 9.5395773527674858e-03
         - 1.4759711343556159e-02
         - -2.3228820524134487e-02
         - 1.5853341719479538e-02
         - 2.1888173593375183e-02
         - 7.2016446803509476e-03
         - 1.5664441709487709e-02
         - -3.2785822182006537e-03
         - -1.4409666383300051e-02
         - -2.2624330806351099e-02
         - 4.9568478575879933e-02
         - 3.0449357827464198e-02
         - -4.3848928776033136e-02
         - -1.3332693311920586e-02
         - 1.0062812701544627e-02
         - 3.3141277930085291e-04
         - -7.7156794312894759e-03
         - 2.9166962972815489e-02
         - 3.8696131668288551e-02
         - 1.5401560620812653e-02
         - 2.3927380588965267e-02
         - 8.3955700651289038e-03
         - -4.3607263551954600e-02
         - -5.7720004801819422e-03
         - 1.3368221338583015e-03
         - 2.9818861402864261e-02
         - 5.0272646713952186e-02
         - 4.3481301627596010e-02
         - -2.7510927665204805e-02
         - 1.9981370587817408e-02
         - -1.3290525713833119e-02
         - -8.3740723014793760e-03
         - -2.5229384959500795e-02
         - -5.7633806691390005e-03
         - 1.7527195975937632e-02
         - 6.0943969517094077e-03
         - 5.8488941141619866e-03
         - -1.6375814454939578e-02
         - 1.0050001879429674e-02
         - 1.5988633028204281e-02
         - -4.0834289447539640e-02
         - 8.8226892551546577e-03
         - -4.5825742723860242e-03
         - 1.3057716027663323e-02
         - -3.1599020318424265e-02
         - -1.0087102964816040e-02
         - 1.8973396770034026e-02
         - 3.9240232047211498e-02
         - 2.6250205906274218e-02
         - -1.6156084426725108e-03
         - -2.6419709548870782e-02
         - 5.1767139050740568e-02
         - 2.3488435945328004e-03
         - 4.0216534146499047e-03
         - 2.7715611088156681e-02
         - 6.0449131937911228e-03
         - 1.3988778203784457e-02
         - -3.5214921083444677e-03
         - -3.3113324961383743e-02
         - -5.0671312399550715e-02
         - 3.9139386044543777e-02
         - 2.0636677720575671e-03
         - 5.9774200885324954e-03
         - -3.9458571761560920e-03
         - 3.9518212530863812e-03
         - 4.9931604001619244e-02
         - -1.9386768915850078e-02
         - 1.6873600291765146e-02
         - -2.2517117601512111e-02
         - -1.3247999813893543e-02
         - -9.8786418524206797e-03
         - -3.1345809218738988e-02
         - 1.4040167975543917e-02
         - -1.6976843632079328e-02
         - -5.4954978102516226e-02
         - 2.9220329045404357e-02
         - 3.1251782427348142e-02
         - -2.3101135444683236e-02
         - 3.0103767395095606e-02
         - -1.5014493674886201e-02
         - 7.7602154652735827e-03
         - 1.4041465374492045e-02
         - 3.0321885166934903e-02
         - 1.7428523629377659e-02
         - -1.3127820173550334e-02
         - -1.4409249013134390e-02
         - -2.7723623711284926e-02
         - -2.8083837965776813e-02
         - 3.5346412138352233e-02
         - -1.2632820639037883e-02
         - -8.4739255579873544e-03
         - 1.1616004508913192e-02
         - -2.3606525674655449e-02
         - -2.6795293354800007e-02
         - 1.7630931151133251e-02
         - 2.2824412956182327e-02
         - -1.4045601724952614e-03
         - -3.3344152685687863e-02
         - -2.4905707608354574e-02
         - -1.3054906540787481e-02
         - -8.2459390980398617e-03
         - 9.9818225978149088e-05
         - 8.1983405705719319e-03
         - 3.4364399124500174e-03
         - -5.2230082605645614e-02
         - 4.8090968679691030e-02
         - -2.5702192553179504e-02
         - 5.5481023030599583e-03
         - 2.4246012956488667e-02
         - -4.1117007276756708e-03
         - -2.5447591764045544e-02
         - -4.7707238012151723e-02
         - 2.4289956596031059e-02
         - -3.1928898688004845e-02
         - -2.2309481254195799e-02
         - 6.3087904015269383e-03
         - -5.4213941683126980e-02
         - -1.8042721197907615e-02
         - -5.8787079842897411e-02
         - 2.3854709030463744e-03
         - -3.7565278303719307e-02
         - 3.0511902424786151e-02
         - 5.9367294042621165e-02
         - 1.0424054687451039e-02
         - 4.7520057345825685e-02
         - -5.0567947894662631e-02
         - -6.2992448836497539e-03
         - -8.2344955594951929e-03
         - 6.5847712721667173e-02
         - -3.8899492300432867e-02
         - 1.3039352625506888e-02
         - 3.7204839206068721e-02
         - 4.4597915314693530e-02
         - -1.1429844809881547e-02
         - 3.6137539778540582e-02
         - -4.1703370091041310e-02
         - 4.1340824028101769e-02
         - -2.8885294857216588e-02
         - -3.0897785379252574e-02
         - -5.7030615704749599e-02
         - 1.5872076635012906e-02
         - -3.0502030986320688e-02
         - 2.6954430825826464e-02
         - -1.6553795077804540e-02
         - 3.5037125438132331e-02
         - -3.6979041961163597e-02
         - -2.0374534869503611e-02
         - -3.0051172798846979e-02
         - -5.6178320712554700e-02
         - -2.5653204713436233e-02
         - 7.0619656379586537e-03
         - -5.9073451095459556e-02
         - -6.7613228827703778e-02
         - -1.5330256409157608e-02
         - -4.6267724097357271e-02
         - -2.8865704029818792e-02
         - 3.5713446831011908e-02
         - 5.1882633509879733e-02
         - 2.1218489989719716e-02
         - 3.1029803908096731e-02
         - -3.8079007423645811e-02
         - 5.5143368853892655e-04
         - -5.1684967718832161e-03
         - 4.4879058319904901e-02
         - 7.3523220422745264e-03
         - -6.1298029814756301e-02
         - -1.5920255727381646e-02
         - 1.4985459001651054e-02
         - 6.7034573907532105e-03
         - 8.2345298653759627e-03
         - 1.8808474604148976e-02
         - 3.2888001229728916e-02
         - -3.0214074321930580e-02
         - -4.0766424405232801e-02
         - 6.2910971966264786e-02
         - 1.4567351535801703e-02
         - -1.0663215665249227e-02
         - -2.6997605148359034e-02
         - -3.4294999571278427e-02
         - 3.4067728769678805e-02
         - 3.9651174392345556e-02
         - 5.4283959838529898e-02
         - -6.3216815409026239e-02
         - -4.5256579187115543e-02
         - -4.1129203379015898e-02
         - 3.0272507404612964e-03
         - 2.1723575894730188e-02
         - 3.1537087049341654e-02
         - -7.1602444436942886e-02
         - -1.0638312510996794e-03
         - -3.3375573811831337e-02
         - -1.7593762303793555e-02
         - 9.9844188813419006e-03
         - 7.0962311458869096e-02
         - -7.7868687608373066e-02
         - 4.0542293749785699e-02
         - -3.5724871376405239e-02
         - 4.8120789772197921e-02
         - 2.3207466911166291e-02
         - 2.4954889917702731e-02
         - 7.1494825081098758e-03
         - -6.4109049040984925e-02
         - 2.1452503701770952e-03
         - 2.9405408496851741e-02
         - 5.5480103142487081e-02
         - -6.6080471554294362e-02
         - -4.9938216609954717e-03
         - -2.6460560704308640e-02
         - -1.9541902501243626e-02
         - 1.1262672398030261e-02
         - 1.1820880838447071e-02
         - 2.1698517369582095e-02
         - -2.8484317046105646e-02
         - -6.8415296629838387e-03
         - 2.6952974412796229e-02
         - -2.2161577454546069e-02
         - -1.2573386937134605e-02
         - 2.5968705453515927e-03
         - -2.3288614882976395e-03
         - -2.8051827634271330e-03
         - 7.3742281245709317e-03
         - 1.1902175164357110e-04
         - 9.9355480672968302e-03
         - 6.7310898427439900e-03
         - 2.3972421893357059e-02
         - 9.9291160444375560e-03
         - -3.7742327832334041e-02
         - 1.8646318788745973e-02
         - -2.1612786816094312e-02
         - 3.4426241015575586e-02
         - 9.7304733735386669e-03
         - -1.0430352591521386e-02
         - 1.0626006561209657e-02
         - -9.8162249872421770e-03
         - 2.6863703515475804e-02
         - 4.9754433885682309e-03
         - -2.9776219505748217e-03
         - 1.8274089364864656e-02
         - 1.4963562880078834e-02
         - 6.3616336151293418e-03
         - -2.2194905156665681e-02
         - -7.4918551589742699e-03
         - 5.7863501343053646e-03
         - 8.2699078043717844e-03
         - -1.2472155201090185e-02
         - 2.3351261521985605e-03
         - -1.4516549240997685e-02
         - -2.6109473688078699e-02
         - -2.4455327777938338e-02
         - -2.5991671115960211e-02
         - 1.4528223021608505e-02
         - 2.0283434048076608e-02
         - 2.7902854616952341e-04
         - -1.9597625097129142e-02
         - 1.1359882468277911e-02
         - -3.0931982167235743e-02
         - -7.3381876458505505e-03
         - 1.3689794583023674e-02
         - 1.9918636526841497e-03
         - 4.9425001542480942e-03
         - -1.5155893778622866e-02
         - 2.6735197758128972e-02
         - 8.1736295596483016e-03
         - 1.8179900345770130e-02
         - 3.5868418742386041e-02
         - -5.3219404637790879e-03
         - -2.7357364959574070e-03
         - -8.8913610286654576e-03
         - -2.0210387644610920e-02
         - 1.2590428241982103e-02
         - -1.1073352929316495e-02
         - 1.9093426914174521e-02
         - 2.9356309942731505e-02
         - 1.0501651505396697e-02
         - 3.9945059126944946e-02
         - -2.2446240709626222e-02
         - -8.7914558502371187e-03
         - -6.8837680076783061e-03
         - -1.3889333539421147e-02
         - -2.9790609275112265e-02
         - -1.9325441156908749e-02
         - -1.4450162867387286e-02
         - 1.9227483504202288e-02
         - -2.4687786918441670e-02
         - -2.2853971694953287e-02
         - 3.3317804169709503e-02
         - -4.1933611483308004e-03
         - 1.5720156858202269e-02
         - -2.8443322183975276e-02
         - 1.7227394641593174e-02
         - 4.4124378792215185e-03
         - 1.9623598789217263e-02
         - 3.2408519847320010e-02
         - -5.2686905261713343e-04
         - -3.9505987737276649e-02
         - 1.5624593026006151e-02
         - 1.4466839832571174e-02
         - 3.5320784488618866e-03
         - -1.4547846887218973e-02
         - 8.0147158434108867e-03
         - 4.6807697911757850e-03
         - 8.5668243030688346e-03
         - 1.4372438167534992e-02
         - -1.5596385508063533e-02
         - -1.3539146729405203e-02
         - -1.4968455216025104e-02
         - -3.1101365935600308e-02
         - 2.7503370371355397e-02
         - -1.6307540572607918e-02
         - -1.5133239654331642e-02
         - 2.1833537227652841e-02
         - -1.0716989865076499e-03
         - -2.5191342446430020e-02
         - 1.2603083462786822e-02
         - -1.8462753453760943e-03
         - 1.2706606308790348e-02
         - 8.2921320158948850e-03
         - -1.5840958306164016e-02
         - 7.0164899565337948e-03
         - -9.4713509410409465e-03
         - -2.2961719810012278e-02
         - -1.7831886692960749e-02
         - 1.4345063572415601e-02
         - 7.7351195546455868e-03
         - 2.4202156059770635e-02
         - 2.1250556918664374e-02
         - -2.9529555394248185e-02
         - 2.5015735912529043e-03
         - -8.1056145981532532e-03
         - -1.5547631773381251e-02
         - 2.3864253158044271e-02
         - -1.7761007121427370e-02
         - 1.5621866279557637e-03
         - -4.5097418161981727e-03
         - 6.4911661282778237e-03
         - 4.6752504521501478e-03
         - 3.0229880155607340e-02
         - -5.2691151244776296e-04
         - -1.1203154484029814e-02
         - 1.9818948146252627e-02
         - -1.5563116374219456e-02
         - 1.6709449377049680e-04
         - 3.0990657481043838e-02
         - -1.5056147599418370e-02
         - 2.0682162230363382e-02
         - 2.5707077892822706e-02
         - 1.9993356651240121e-02
         - 1.1168173867662447e-02
         - 6.7067473525386084e-04
         - 3.2207088940527273e-03
         - -2.6701546973631016e-02
         - -2.7996464621938558e-02
         - 2.7188482813633789e-02
         - 1.5463490043833052e-02
         - 2.4728797049252569e-03
         - 5.1393145319029365e-03
         - 2.7088033728417917e-02
         - -5.3515925862258123e-03
         - -6.0912246858412710e-03
         - 1.8024141883161617e-02
         - 1.9335551277759624e-02
         - 6.0263906428094753e-03
         - -2.9332188117777583e-03
         - 1.8706162377942503e-03
         - 1.9106158239679108e-02
         - -2.3443811916604388e-03
         - -3.9149245463684741e-03
         - 2.8707045200506619e-02
         - -1.6549791181773878e-02
         - 1.8081883063047085e-02
         - -1.9389130361650287e-02
         - -3.1683585489553148e-02
         - -7.1146915136570520e-03
         - 1.5534244110630653e-02
         - 2.5158052399802389e-02
         - -5.2491923291793181e-03
         - -1.3293484487120786e-02
         - -2.0293332365596356e-02
         - -2.6871582683959117e-02
         - 2.7127752685986471e-02
         - -1.7891588951202551e-02
         - -1.0376100146161473e-02
         - 7.6309035641056551e-03
         - 3.2955068592369734e-03
         - -2.4043451247565659e-02
         - -6.0227487508393756e-03
         - 5.7931450708346328e-03
         - -1.8999212198646837e-02
         - -1.2380053363311728e-02
         - -1.8557467362858911e-02
         - 1.1109926676001945e-02
         - -5.8439082206078845e-03
         - 8.2675868598212163e-03
         - -3.1490999281081132e-03
         - 2.5938931209964555e-02
         - 2.0900387314650777e-02
         - 1.5917563275922173e-02
         - -2.9901041583249837e-02
         - 1.1790269533320005e-03
         - 4.5040624246471964e-03
         - -2.0460030729777780e-02
         - 1.9567258999226276e-03
         - 1.9650841413266531e-02
         - 2.5818819182900455e-02
         - -1.3764304448250156e-02
         - 2.7832138592426735e-02
         - -2.5302361942491167e-02
         - 2.4780712840257971e-02
         - 1.9896681423968967e-02
         - -1.5916919869467624e-02
         - -1.6124016422370210e-02
         - 6.4049614175322430e-03
         - 9.1347729187003061e-03
         - 1.9142975299943903e-02
         - 1.9356977582971752e-02
         - -3.7060268604494173e-03
         - -8.2794102734848850e-03
         - 2.1615866207402110e-02
         - -2.3993763368786440e-02
         - 7.4851162539765637e-03
         - 7.2114998714157945e-04
         - -2.4236353746602369e-02
         - -1.3851089727721757e-02
         - 1.5689357729525642e-02
         - -1.0000144906077233e-02
         - -2.8384888071060922e-02
         - -8.6315099368912216e-03
         - -1.8492572416628019e-02
         - -1.3749369983029671e-02
         - -1.0293177284439575e-02
         - 1.1803828566068387e-02
         - 1.3099817642677813e-02
         - -5.3180976799124249e-03
         - 1.5722157586291415e-02
         - 2.6987622773577594e-02
         - -2.0137052169159980e-02
         - 1.3407923220394136e-02
         - 2.4119974902231753e-02
         - -6.6008773130151344e-03
         - 1.6859215474247815e-02
         - -3.0451394155255957e-02
         - -2.4781670238979921e-02
         - 3.0716325672794330e-03
         - 3.3104419355150577e-03
         - 1.6810935963783907e-03
         - -1.0589947005330868e-02
         - -3.1876917469575272e-02
         - -1.7626631948580749e-02
         - 2.1590708390887038e-02
         - -2.3230157475669460e-02
         - 1.6554725444117759e-02
         - -2.1842200688957408e-03
         - -2.0495441967410141e-02
         - -1.7450738429791855e-02
         - -3.3253582527908165e-02
         - -1.3489733933267767e-02
         - -1.4900386902738939e-02
         - 1.4071183732366330e-02
         - 9.9762155441337208e-03
         - -2.9553250181523574e-02
         - 2.0254324287091348e-03
         - 3.1200034395663132e-02
         - 4.3597708966737628e-03
         - 2.5329163735024158e-02
         - -3.1516625721316875e-03
         - 2.9749954753164351e-04
         - 8.9378621466817769e-05
         - -2.5849507009797990e-02
         - -2.2785561646683692e-02
         - -3.8864854791188356e-03
         - 1.7275200484365431e-02
         - -2.2898125846580016e-02
         - -2.2627764482826249e-02
         - -1.7024896352412208e-02
         - -1.8079472145383798e-02
         - -2.4335044650004045e-03
         - -1.5536958557908539e-02
         - 2.3137051848132716e-02
         - 2.4565068614647141e-02
         - 2.5450450728080228e-02
         - -9.9670819407475658e-03
         - -7.6089551005841622e-04
         - -7.4725213269375293e-03
         - 1.7224318221467708e-02
         - 1.2605328842453616e-02
         - -1.5888161132011473e-02
         - 3.5123387811178712e-03
         - -5.0306095635711786e-03
         - 2.1091253563079820e-02
         - 1.8616186914083184e-02
         - -3.1783925904824636e-02
         - -1.3613871792591230e-02
         - -5.9651972991359194e-03
         - 1.7114960234717945e-02
         - -1.6178717550474904e-03
         - 1.1899420838617915e-03
         - -2.4208189680794540e-02
         - -2.3839943343648265e-02
         - 2.2345945105208216e-02
         - 2.3976130460812307e-02
         - 7.1463481210261538e-03
         - -4.0054569422216784e-03
         - 2.3498408928283233e-02
         - 1.2549936216870160e-02
         - -3.2281017448316136e-02
         - 2.0122846448818989e-02
         - 1.7269108269642071e-02
         - -4.8748697991298703e-03
         - 2.0489906721235990e-02
         - -1.6005696468848793e-03
         - 4.3726467898154171e-03
         - -3.0247891256992711e-02
         - 7.9451962375569184e-03
         - -2.2948336308714905e-03
         - 1.8416742749575995e-02
         - -1.1075487049995109e-02
         - -3.1763025592683208e-02
         - -2.3185238397954652e-02
         - -4.1031180792720822e-03
         - 6.6545420112864382e-03
         - 8.7419912402849015e-04
         - 1.9548908006973661e-02
         - -1.3797096302605203e-02
         - -2.4905758158379473e-02
         - -8.3099648500156876e-03
         - 1.1648037778310314e-03
         - -1.2690894623276425e-02
         - 9.3330421158001591e-03
         - 2.2442376622478197e-02
         - -2.9363905351103618e-02
         - 1.6533893483170390e-02
         - 2.5526805427991135e-02
         - 1.6649062686229826e-02
         - 1.2172603894356392e-02
         - 2.5220170296343970e-02
         - 3.1359670238487367e-03
         - -1.6316010357781438e-03
         - 3.4334997835583247e-02
         - 1.8823010457952139e-02
         - 1.2117933857813979e-02
         - 2.3443412016061295e-02
         - -3.6443207682968340e-02
         - -3.0766821229274724e-02
         - 1.9680586049316579e-02
         - 1.5294536926420880e-02
         - -7.9208153266224750e-03
         - -3.5078270740195809e-02
         - 2.4140246486695171e-02
         - -2.1146724962804831e-02
         - -6.1303939254378405e-04
         - -1.1589921454547486e-02
         - -3.9965170343034435e-02
         - 8.8116631565501383e-03
         - -1.1883162470419047e-02
         - 1.7344624782520843e-02
         - 2.9012744729800190e-03
         - -1.1437485255132641e-02
         - -1.2758878982517582e-02
         - -1.9588386424808094e-02
         - 4.3071789847565566e-02
         - -8.2468669813481141e-03
         - -1.0763346627036983e-02
         - -3.1805569939418722e-02
         - 1.3120303527282108e-02
         - -1.6056909691275611e-02
         - -2.6327373694632134e-02
         - -1.8041796326692609e-02
         - 5.5371924158807550e-03
         - -4.6320199085752032e-03
         - 7.8053363654204599e-03
         - 4.9180591872712582e-03
         - 3.2069685881424490e-02
         - 1.8712530428397860e-02
         - 2.2800269754156839e-02
         - -3.3808497466486344e-03
         - 1.0886253467726651e-02
         - -3.1639141834555328e-03
         - -2.6382276121533463e-02
         - -1.7206584351321493e-02
         - 2.1734086649487287e-02
         - -1.4995177529519808e-02
         - 4.0440940922865910e-02
         - -3.8093721911498381e-02
         - -2.8475966485482392e-02
         - -1.4595554437017702e-02
         - -4.5924277301098507e-03
         - 2.0715639768772016e-02
         - -2.0687281137562841e-03
         - -3.4145033864610597e-02
         - -4.8442791539421264e-03
         - -2.2707229433267487e-02
         - -2.3873726979294206e-02
         - 3.8546026361615762e-02
         - 4.4789839819429106e-02
         - -4.5861177138841983e-02
         - -2.3478201280588137e-02
         - 7.3009582716355289e-03
         - 1.5966033342251613e-02
         - -1.7389736114197755e-02
         - 1.9427241068887532e-02
         - -1.6406613202900721e-02
         - 5.6045829670725369e-03
         - 2.1130212706444575e-02
         - -1.9754675963121478e-02
         - 4.0455039968204931e-02
         - 9.1809554613274218e-03
         - 9.4958422272995498e-03
         - -1.7101002467439962e-02
         - 7.2015054712539868e-03
         - 2.2939371210720514e-02
         - -2.3028606209941401e-03
         - -2.0917815841363784e-02
         - 2.9792939442602126e-02
         - 2.5985541118550139e-02
         - 2.3703021799565429e-02
         - 6.1078880745778887e-03
         - -1.1645943736874028e-03
         - 1.5353489239574905e-02
         - 2.1261256440499128e-03
         - -1.4050480140097304e-02
         - -5.3505790800144381e-03
         - 1.9444826953904742e-02
         - 3.2764110508852737e-02
         - -9.7603956700131498e-04
         - 1.5648607813857896e-02
         - -3.1273278022769524e-02
         - -2.6884588608548497e-02
         - -1.5804243250465504e-03
         - 2.2611928508924673e-02
         - 8.7798086839152873e-03
         - -7.6124499322989319e-03
         - -4.7228559228976760e-04
         - 2.2160790342721351e-02
         - 1.7965566350596866e-02
         - 8.3901644126052229e-03
         - -3.1395326075181584e-02
         - 2.4452219497731662e-02
         - -2.2404227787400643e-03
         - 7.0853609135113895e-03
         - -2.2117784643180503e-02
         - 1.5376091350814689e-03
         - 1.3143133705285154e-02
         - -1.2979875773429773e-02
         - 1.9034906026055069e-02
         - 3.0160477956751437e-02
         - 1.2160201297450034e-02
         - -2.0357593940612456e-02
         - 9.1193026209258708e-03
         - -3.1359375284883695e-02
         - -2.5724302514102428e-02
         - -1.0700170547354709e-02
         - -1.3281369067534918e-02
         - -2.6218683309496480e-02
         - 1.0834924078511792e-03
         - -4.0768943469813239e-02
         - 2.0872033596526182e-03
         - 2.9019931562326847e-02
         - 1.8480979929226461e-02
         - 2.8226663341168735e-02
         - 2.4490864860275754e-02
         - -1.2440918689772880e-03
         - -8.9749874868509365e-03
         - -3.5670299052203369e-02
         - -2.0109042747691402e-02
         - 6.0969615831120488e-03
         - 1.8154455101144783e-02
         - 2.1589028809012041e-02
         - 2.6590387275782543e-02
         - -1.2851398690475468e-02
         - 5.6370534849057548e-03
         - 3.4189652852522186e-02
         - 2.7778663485717073e-02
         - 1.5871689987565701e-02
         - -2.2915386245501570e-02
         - 3.3007138110251903e-02
         - -1.9738439354020261e-02
         - -1.8803371100557638e-02
         - -5.5635442914799185e-03
         - -2.4604818166998825e-02
         - 2.6300891471980593e-02
         - 2.5098270812585984e-02
         - -1.5893754016650351e-02
         - -3.9175041226224339e-02
         - -3.4640103660714384e-02
         - -2.2473349831130630e-02
         - -2.4576000825932243e-02
         - -1.0793308549432029e-02
         - 1.8526299425120438e-02
         - 6.5825750329643277e-03
         - -2.0026185845093934e-02
         - 1.7711360365348573e-02
         - -3.0973499982321854e-03
         - -1.4868208570121140e-02
         - 6.8621753353984554e-03
         - -1.1937373687695691e-02
         - -8.7883632075328091e-03
         - -2.1594697129022830e-02
         - -6.2896413982325150e-03
         - 2.5721541456813650e-02
         - 2.5671508362956581e-02
         - -3.3602804327944984e-02
         - 4.8303420911410570e-03
         - -4.7394929217215651e-03
         - -2.3169403638155821e-02
         - 9.1224560661344149e-03
         - 8.7572030712747637e-03
         - 2.0324440361978897e-02
         - 1.7784014822529580e-02
         - -2.3479448730438248e-02
         - -2.3511511046823533e-02
         - -1.3495837276031137e-02
         - -1.2379612294777135e-02
         - 4.2464166366285990e-03
         - 1.3668236599788424e-02
         - 2.7401850835429762e-02
         - 4.3064034672454570e-03
         - 3.4164175046438795e-02
         - -8.9384087745634864e-03
         - 1.6378114364314855e-02
         - -2.4494221931714934e-02
         - 2.5387521508347218e-02
         - -2.4211396370703991e-02
         - -1.1638142032171868e-02
         - 1.6603450751001829e-02
         - 3.2230085721924533e-02
         - -5.8693193998238550e-03
         - 3.5050582608040491e-04
         - -1.9744979059144734e-02
         - 1.7788300974803897e-02
         - 3.6771467758226393e-03
         - 8.6445251482462401e-03
         - 1.6945539784534405e-02
         - 2.8873601582701174e-02
         - -2.7982710482040846e-02
         - 1.2215000365601199e-02
         - 2.6584000285031145e-02
         - -2.2168115540401677e-02
         - 2.2870871671703832e-02
         - -6.8968656505532504e-03
         - -1.7945242401982014e-02
         - 9.9351445464637908e-03
         - -1.0169472353293647e-02
         - 3.6088099568308822e-02
         - -1.4277642992539031e-03
         - 3.2468988575860079e-02
         - -1.5938228913190841e-02
         - -7.5407286975270257e-03
         - 1.9613946356599167e-02
         - 2.6759329411909803e-02
         - 3.5582716178723370e-02
         - -4.7750370301035691e-03
         - 1.7986097119387236e-02
         - 7.3323504244876278e-03
         - -1.6032768743702536e-02
         - 3.1103291647017455e-03
         - 5.4275181490584948e-03
         - 2.3044191568860756e-02
         - -1.3094613257354422e-02
         - -6.0109126749227802e-03
         - 3.3098949634755376e-02
         - -7.6590496370406227e-03
         - -2.8294841495430909e-02
         - 3.2764419881509917e-02
         - 2.8685772363861831e-02
         - -2.2933096298934894e-02
         - -8.0183441970414630e-04
         - 2.6843956287905698e-02
         - -1.8929928181574809e-02
         - -1.8916237085278224e-02
         - 8.9435177435297688e-03
         - 2.1693296124901756e-02
         - 1.2286827252631459e-02
         - 2.9518128551666623e-02
         - -3.1824890758655480e-02
         - -6.5884818547761676e-03
         - 1.5492477355407730e-02
         - 2.9868899820886946e-02
         - -2.0148245430534052e-02
         - 2.4774063018755361e-02
         - 4.7780327447448593e-03
         - -2.5101569677029499e-02
         - 2.3587931588923205e-02
         - -1.6759123561600156e-02
         - -3.4534242413912189e-02
         - 1.5118686760727347e-02
         - -1.5212886258471271e-02
         - -2.4067992369960693e-03
         - 2.7996759775486615e-02
         - -8.8929225710328973e-03
         - 1.1207705827990112e-02
         - 8.6328403662590536e-03
         - 4.1362342752672629e-03
         - 4.6917197382128394e-03
         - -1.7106643286340926e-03
         - -1.2897655452125078e-02
         - 1.7890558373825673e-02
         - -9.9188197273543961e-03
         - 1.8867760771930767e-02
         - -1.6514265507783343e-02
         - -2.9511860288184592e-02
         - 1.8682520126779251e-02
         - -7.6537519741900857e-03
         - 2.6942031333624029e-02
         - -1.5905719004158960e-02
         - -5.9502011151042963e-03
         - 7.2572989629078677e-03
         - -2.7724317035152400e-02
         - -1.2720329133584439e-02
         - -9.4070980756680040e-03
         - 2.1130161622046919e-02
         - 2.1305574489116519e-02
         - 1.5603718589874550e-03
         - -3.4591423175942479e-02
         - 2.4863562134162076e-02
         - -2.5775296297366843e-02
         - -2.7749844696059286e-02
         - 2.4415426009425673e-02
         - -2.4329241438099248e-03
         - 3.3837217586071514e-02
         - 1.0370272625987007e-02
         - -1.7875410792386075e-02
         - -8.9725621849638323e-03
         - 2.6876384176543820e-03
         - 3.6751311209780042e-04
         - -3.0655397954622875e-02
         - 2.0592906674922896e-02
         - 2.1021391823192740e-02
         - 2.2552519339667086e-02
         - -1.6211928769229271e-02
         - -1.2743888419463731e-02
         - -1.9841289499341903e-02
         - -2.0335861167277852e-02
         - -1.2588682647642024e-02
         - -3.0430545241200528e-02
         - 4.6861309113616573e-03
         - 1.9279858270584746e-02
         - 8.8106942646633980e-03
         - -3.5166364533994805e-02
         - 7.3457004157547064e-04
         - 1.0895488191646752e-02
         - -3.3091368001840768e-03
         - -2.5267818801260234e-03
         - 1.5681391842565784e-02
         - 1.4911613552676641e-02
         - -2.4569569642146134e-02
         - 3.8854909989608229e-02
         - 3.2455985266439086e-02
         - 2.6105009567643202e-02
         - -2.0490093030064882e-02
         - 2.9940043807578171e-02
         - 3.1969707129897926e-02
         - -9.5417016938863820e-03
         - 4.7667520348596504e-02
         - -1.0636630992081696e-02
         - -2.4529087042616275e-03
         - -2.4802481105914077e-02
         - 2.4494911547176044e-03
         - -1.6972581095036493e-02
         - -1.6169185126980953e-02
         - -2.6231729481357630e-04
         - 9.6704791930642079e-03
         - -1.1863593258374853e-04
         - -1.4069819572791539e-02
         - -2.6091542017503591e-02
         - -3.3810764087156289e-02
         - 2.2008831141953934e-03
         - 2.3101540616414114e-02
         - -2.4105400230091119e-02
         - -2.9284655340248801e-02
         - -5.5978962395014835e-03
         - -1.2712687083794151e-02
         - -7.9118106573468090e-03
         - 8.4267602104889684e-03
         - -5.2830838621885732e-03
         - -1.7289176349263857e-02
         - 1.1196223169266993e-02
         - -3.5988900452635961e-02
         - 1.8479473321922239e-02
         - -6.5397091965526434e-03
         - 1.1676566112412174e-03
         - -3.1697778226394163e-02
         - -2.4689508983093553e-02
         - -1.5880076845017119e-02
         - -1.4350299384779459e-02
         - 9.0462516886077662e-03
         - -2.9317403977695233e-02
         - 2.2107672231912715e-04
         - -1.6417127542886250e-02
         - -1.5127240116242542e-02
         - -2.5454572920540777e-02
         - 3.1881236535913848e-02
         - -2.4646387725676448e-02
         - 3.6364811331772795e-03
         - -3.6949163252086269e-02
         - -1.7557212580888155e-03
         - -2.9448642900959679e-02
         - 4.3334669464585212e-03
         - -3.2972215579938111e-02
         - -1.0031294097288134e-02
         - -3.2246778827175950e-02
         - 2.4331224546982185e-03
         - 1.9091532608909671e-02
         - -3.0546620377671446e-02
         - 1.0387611537278421e-02
         - -3.6034896429270956e-02
         - -8.4195210392781234e-03
         - -1.6929933652024424e-04
         - -1.3691336331595604e-02
         - -2.1563652717993171e-02
         - -8.7095533933317874e-03
         - 1.7870695003949937e-02
         - 9.7035190794819738e-03
         - 1.1395162996481469e-02
         - -3.3213887145623511e-02
         - -7.0886354737891497e-03
         - -1.2868743128294882e-02
         - 1.5775062902631476e-02
         - 2.3195905539745783e-03
         - -2.0534612324958915e-02
         - -2.8118421673894885e-02
         - 3.1103529171238445e-02
         - -2.8893550834327666e-02
         - 1.9671146201310534e-04
         - -9.4263657939799086e-03
         - 2.4457245140071998e-02
         - -4.6796518844843702e-03
         - -2.8575851269725359e-02
         - 7.5604757210969288e-04
         - -3.1325427123440400e-02
         - 3.5325260527891869e-03
         - 1.6697732461104044e-02
         - -3.8073534854247679e-02
         - -1.6562523140463241e-02
         - 3.7196677385939722e-02
         - 2.7549313281652582e-02
         - 2.6756862314192262e-02
         - 2.1859239120795345e-02
         - -9.0337002619394306e-03
         - -1.9073036098739885e-03
         - 2.3158278673365510e-02
         - -1.4457919518132169e-02
         - 2.1503586434876515e-02
         - 3.7676053100442877e-02
         - -2.6360274903576893e-02
         - -1.2333987408283550e-02
         - -2.6988835203879125e-02
         - -8.5987440984959147e-03
         - 2.4911979536706343e-02
         - -1.2200538369882519e-02
         - 3.3668598983096272e-02
         - 1.3886709719388070e-03
         - 1.5048020654278288e-02
         - -3.4651354427070707e-02
         - -3.9965486071993316e-02
         - -1.0488008866559742e-03
         - -4.3202278914332692e-04
         - 3.1243298362300925e-03
         - 1.8278560373589502e-02
         - 6.5862202090033227e-03
         - -2.8990484390331466e-03
         - -3.4241747449929451e-02
         - -2.5490680307929406e-02
         - -2.3245263424849116e-02
         - 2.5925573551126940e-02
         - 1.7738683475290139e-02
         - -2.5360708108654970e-02
         - 1.4757431021657582e-02
         - -8.6132950833640622e-03
         - 2.4775084421771940e-02
         - -1.8555731023095174e-02
         - -1.3424962615569303e-03
         - 7.7095467424046927e-03
         - 2.3376883398017065e-02
         - -1.1087787305341788e-02
         - -4.6595931450236000e-03
         - -2.7811191399584056e-02
         - 3.2109746279913289e-02
         - -9.0772089333784629e-03
         - -1.7742348696965303e-02
         - 7.5379696843234653e-03
         - 2.2709221220292855e-02
         - 1.7688769869549859e-02
         - 6.9718433146196412e-03
         - -2.2898477528341199e-03
         - 1.0747797954119159e-02
         - 3.3861722296692189e-02
         - -3.1383897747233615e-03
         - -6.6085640294351201e-03
         - 7.5622614439824374e-03
         - -2.3233025951677273e-02
         - 3.1575452370470158e-02
         - 8.6478964325870065e-03
         - 3.9910401595725245e-02
         - -5.4434274260375679e-03
         - -2.8032640621516811e-02
         - 1.9927249882623305e-02
         - -1.1091439442664932e-02
         - 4.4721172405002702e-03
         - 9.9514097228619799e-03
         - 8.5657462778901908e-03
         - -6.3756569686542561e-03
         - 2.9312023888012496e-02
         - 2.6728956854368838e-02
         - 1.4142895609518423e-02
         - 1.3677086518604626e-02
         - -2.3424334813991414e-02
         - 9.2586914329048052e-03
         - -1.2514948569812119e-02
         - -2.5545573441697816e-02
         - -4.0043370250253091e-02
         - -2.4336681109300574e-02
         - -1.5079145405272708e-02
         - -8.8768255366629602e-03
         - -2.0940891213997075e-03
         - 1.0744204486429354e-02
         - -2.3905160063941597e-02
         - -1.0915543450253419e-02
         - -1.0310494285997512e-02
         - -1.6094384949761068e-02
         - 2.7912367943046697e-02
         - 3.3945727413321206e-02
         - -2.9790198261952453e-03
         - 1.7333487954571833e-02
         - 1.8506185670836125e-03
         - 1.5940346723946196e-02
         - -1.1296202341246083e-02
         - 4.8202403182246679e-03
         - 2.7460858635285836e-02
         - -3.2084581397647839e-02
         - 1.0663585020545187e-02
         - 1.8554768679769101e-02
         - -4.9383356220113533e-03
         - -1.7982320381717053e-02
         - 1.7892868859315674e-03
         - 2.8446581003509056e-02
         - 1.9746182855316999e-02
         - -2.7534342580567500e-02
         - 8.0526634326302804e-03
         - 2.6811764698967122e-02
         - 7.0391002940480103e-03
         - 2.7985868208873742e-03
         - 3.2143248086973275e-02
         - -7.3650932308673188e-03
         - 2.3461800929642885e-02
         - 1.2867662219944905e-02
         - 1.2065106079241451e-02
         - 3.0315404487517284e-02
         - -9.6296038517957039e-03
         - -1.5465371732813408e-02
         - 2.9688266437681774e-02
         - -2.9168360959345697e-02
         - -3.3136459197362765e-02
         - -7.3173552042617781e-05
         - -3.4085095172933504e-02
         - 1.7964808716766614e-02
         - -4.2194210552311207e-02
         - 2.4915694999073965e-02
         - -4.1379873661506437e-03
         - 2.5646037446172651e-02
         - -1.5623741267409900e-02
         - 9.1165480380220095e-03
         - 2.1970592329443376e-02
         - -2.3069564560717769e-04
         - 1.8755225497177664e-02
         - -2.7006303678636626e-03
         - 2.1467799313398376e-02
         - -5.6741454505357457e-04
         - 1.3516537841780345e-02
         - 2.2925088783166524e-02
         - -3.4762363808961534e-02
         - -1.6156358944738911e-02
         - -1.3756569681123100e-02
         - 1.2440934509466307e-02
         - -4.1750041118880062e-03
         - 2.4926270240638770e-02
         - -4.4868708645822125e-02
         - -1.8008712943392333e-02
         - 2.6063010547820193e-02
         - -1.3322131463799028e-02
         - -1.8317093575197473e-02
         - 4.3206894810027671e-03
         - 1.5248352408436356e-02
         - 1.4457816904524191e-03
         - -2.7428378964745059e-03
         - 2.9975440661836081e-02
         - -2.2075700974652505e-02
         - -2.9600238695095118e-02
         - 3.3102630749395692e-03
         - -4.2116046794424137e-03
         - -7.9760019673473376e-03
         - 5.7383918025036033e-03
         - 1.4932224535481804e-02
         - 3.1150604291258172e-02
         - -8.2493104339357616e-03
         - -2.4894389652162464e-03
         - -3.1139764110325777e-02
         - 6.8836022626182517e-03
         - -2.9254123858147216e-02
         - 2.9694842950919436e-02
         - -1.5186474101769784e-02
         - 2.8708778050983628e-02
         - -5.9308060509353291e-03
         - -1.5952515903369661e-02
         - -7.5499100773683808e-03
         - -1.0689784393742185e-02
         - 2.7160696141682122e-02
         - 1.0450795989496848e-02
         - 1.3779167435848711e-02
         - -1.5310139036250125e-02
         - -2.1540953603983514e-02
         - -5.9664191466880174e-03
         - 5.4602038056308184e-04
         - 1.8003299959754197e-02
         - 2.0156873334473253e-02
         - -1.8649357533756350e-02
         - 9.4021098130624148e-03
         - 2.8176506541941336e-02
         - -1.9031824657766861e-02
         - -1.0788243429970141e-02
         - -1.5142272984476568e-02
         - 9.4485224414532653e-05
         - 1.8447357411382131e-02
         - -4.4438214154817086e-03
         - -2.4966301797211675e-02
         - 2.0407284749417918e-02
         - 2.5974260207996525e-02
         - 2.8002341353367637e-02
         - -2.1281056919114985e-02
         - 1.0496792317679814e-02
         - -1.1084534493316818e-02
         - 1.7390037319850241e-02
         - 1.2377512443903402e-02
         - -2.8969101699235798e-02
         - 6.7996978345035101e-03
         - -5.8532320131154366e-03
         - -2.4255500787747519e-02
         - -2.1449289805929309e-02
         - 3.3946799064607461e-03
         - -1.2776579315911149e-02
         - -1.8137427027691829e-02
         - -1.3072037070078210e-02
         - -2.6875949130674526e-02
         - 2.1711490042440159e-02
         - -2.1032967851783251e-02
         - 2.7239102645035571e-02
         - 2.7562743036513385e-04
         - -1.4077207204198578e-02
         - 1.9304054100777932e-02
         - 8.3460341699797217e-03
         - 3.2028072497130078e-02
         - 1.2784167191807933e-02
         - -2.9051376166950048e-02
         - -2.7617899040724061e-02
         - 2.9197103705112852e-02
         - 8.5249655684397716e-03
         - 2.1004095380845231e-02
         - -6.2232121957778407e-03
         - -2.6503236673433572e-02
         - 1.2630730454639033e-02
         - 3.2117222636167474e-02
         - -1.5163663025412524e-02
         - 2.5196648723339102e-02
         - -9.6134976253198206e-03
         - -1.6811899246384685e-02
         - 2.4184295940426391e-02
         - -1.4106002229320392e-02
         - -1.9553801712026704e-02
         - -2.9106506853568973e-02
         - -1.0229681273415123e-02
         - -2.6902700984812448e-02
         - -7.8397589096642021e-03
         - 6.1126797247398560e-03
         - 8.9126049798753260e-03
         - 6.6600748002947014e-03
         - 1.1929588981000733e-02
         - -1.1790823173762040e-02
         - 1.3833809816228539e-02
         - 1.1822746803252127e-02
         - -1.0017355016771667e-03
         - -1.2895588922756458e-02
         - 4.5145929257861348e-03
         - -1.4718569195251071e-02
         - -2.5262223991015711e-03
         - 1.7447533709424416e-03
         - 1.8340242088031422e-02
         - 2.1536985608598951e-02
         - -2.4714256222872443e-02
         - -7.4610482054498677e-03
         - 1.5897931987175318e-02
         - -2.3217168287198751e-02
         - 1.8710576835015216e-03
         - -3.0918501486395588e-02
         - 2.7779486231594881e-02
         - -3.5514588816469036e-04
         - -2.4045127319214505e-02
         - -5.7753104512961754e-03
         - -1.0598092806687198e-02
         - 2.9014811593431649e-02
         - 2.0726519581769739e-02
         - -7.4303219760227289e-03
         - -3.0873228585431471e-03
         - -2.2451909144674063e-02
         - 1.3583243733525914e-03
         - -1.7746180697956082e-02
         - -6.9829087671724275e-03
         - 2.3356879839931791e-02
         - 4.8077549244777661e-03
         - -2.2057664291384293e-02
         - -8.1116951465419408e-04
         - -8.3458632932479244e-03
         - 2.3162501170737974e-02
         - 2.8780831680020921e-02
         - 2.3337107780168193e-02
         - 3.0317670096999812e-02
         - 4.8759025485439929e-03
         - 4.0245179533830470e-03
         - -3.1423817829939055e-02
         - 1.7591711517247637e-02
         - 1.8919990830597998e-02
         - -1.3458551428287367e-02
         - -2.3833133405963134e-02
         - 2.7194864775500999e-02
         - 3.6922490859400488e-03
         - -1.6970453354173857e-02
         - 1.7484044786472062e-02
         - 1.6762091227874038e-03
         - -2.9519646779888324e-02
         - -1.1428286958315853e-02
         - 2.1976995981828888e-02
         - -1.0296500544063430e-02
         - -1.6460898907753100e-02
         - -2.9292725576649182e-02
         - -1.9802929722445257e-02
         - 3.1732972971207724e-02
         - -1.2895799671349684e-02
         - -6.2264188488986988e-03
         - 4.9843312967462880e-03
         - -1.6474262208207691e-02
         - -2.6932003435690462e-02
         - 8.5997928937250733e-03
         - -1.0468065243672942e-02
         - 5.6233253714593678e-03
         - -2.8121097051218673e-02
         - 1.8708865315267061e-02
         - 3.3994255871362372e-02
         - 2.0157206747606657e-03
         - -3.8909638530149619e-03
         - -1.6991617378653991e-02
         - -2.2700637178314539e-02
         - 1.3452925620691983e-02
         - 9.9722708521922873e-05
         - -4.4231088921460830e-03
         - -2.3777669117862738e-02
         - 2.4385040072111775e-02
         - -3.5377676377307656e-03
         - 1.8321747942210490e-02
         - -2.5547362325759451e-02
         - 1.0693926409401073e-02
         - -1.2934365385556368e-02
         - 2.0117529021070345e-02
         - 1.0446198505467229e-02
         - -2.9326911824148028e-02
         - 1.4231843841008177e-02
         - -1.1207598849419551e-02
         - -3.9457443688647870e-03
         - -2.0810309879674506e-02
         - 6.3667831948047557e-03
         - 1.0216676556487650e-02
         - -2.5392606722778297e-02
         - 1.0110469774893488e-02
         - 2.8256783823551575e-02
         - -4.9020049982140875e-03
         - -2.4736075727548618e-02
         - -1.4048316601398997e-02
         - 1.5886048187481090e-02
         - -3.5487399373048976e-02
         - 1.5591872165299390e-02
         - -1.3327836253095573e-02
         - 3.2277942080387121e-03
         - 7.1938764019811681e-03
         - 1.2722805497397684e-02
         - 8.4842834556447854e-04
         - 1.3802293839408095e-02
         - 7.2309545148605764e-03
         - -1.1789456463528572e-02
         - 2.6278227306319436e-02
         - 1.5125937982105133e-03
         - -2.6157695462253917e-02
         - -1.5891545965133185e-02
         - -2.2651014370571130e-02
         - -1.3080676589153973e-02
         - 3.0545321647308252e-02
         - 2.3888140135092027e-02
         - 7.9908983024023373e-03
         - -1.7272868086212551e-02
         - -8.4246032247472374e-03
         - 1.8246343468999879e-02
         - 4.0934177075895809e-03
         - 1.7043673770023002e-02
         - 2.7472067370662927e-02
         - 2.2979381745790530e-02
         - 6.9272554536688232e-03
         - -7.5464493598612625e-03
         - -6.8588424811436219e-03
         - -2.5624607404448749e-02
         - -6.8781405546189667e-03
         - 7.0157539321881327e-03
         - 1.8893729070901050e-02
         - -3.6637049339611452e-03
         - 6.7093160252868227e-04
         - -3.9733187562915389e-03
         - -1.6228463377546829e-02
         - 4.3938938260977226e-03
         - 8.2767688306719014e-03
         - -1.1679583088026954e-02
         - -2.6953537625682370e-02
         - -2.3045686749560094e-03
         - 1.2184077349873776e-02
         - -2.6272810571902519e-02
         - 1.5574158864930767e-02
         - -1.3040578043056384e-02
         - 1.6918496824574806e-02
         - 2.8033041431591854e-03
         - -2.8680744383846359e-02
         - 2.7771495943169949e-02
         - -2.4785189308693056e-02
         - 2.4645699697816836e-02
         - -3.9385484520256128e-02
         - 4.0570625202072864e-02
         - -3.5686370655714562e-03
         - 2.4557367678536925e-02
         - 2.4794855932769144e-02
         - 1.2180806389849733e-02
         - -2.6696843775661862e-02
         - -6.6542808602570456e-03
         - 2.3760787978244827e-02
         - 6.8181513303699403e-03
         - 1.3475357173580345e-02
         - 4.9105456196873289e-03
         - -2.0545119122768379e-02
         - 1.9107991183583053e-02
         - -3.0504468957132762e-02
         - 1.7979165825556535e-02
         - 2.1749895391629623e-02
         - 2.7244690227741009e-03
         - -1.5112698159064629e-02
         - 1.2456856705682692e-02
         - 8.7876173617521779e-03
         - -3.4158818056314773e-02
         - 9.9706380801410834e-03
         - 3.7136887791233190e-02
         - -2.5270766318879652e-02
         - -2.1878720594062200e-02
         - 4.1735707641770113e-02
         - -8.4926575394351864e-03
         - 2.9890851464796059e-02
         - -1.1115243701445255e-03
         - 1.1870208434075746e-02
         - -1.3935031042928181e-02
         - 1.4446111864967644e-02
         - 2.3230600731444527e-02
         - 1.0080942544738718e-02
         - -1.7702422789677125e-02
         - -2.2959730465460331e-02
         - -2.8524343597111257e-02
         - -4.0865614478092831e-02
         - 9.5474638827097742e-03
         - 1.7990716303791600e-02
         - -2.0780436373745159e-03
         - -1.6262817208285624e-02
         - 1.8249592678602638e-02
         - -2.1766732108435039e-02
         - -3.6827385226988196e-02
         - 1.6903493098312072e-02
         - 1.9804514509311855e-02
         - -2.8396497062793655e-02
         - -4.5424927125965936e-02
         - 3.2341742438573018e-03
         - -2.3209121676350808e-02
         - -2.0993980709938260e-03
         - 1.4622592306088861e-02
         - -8.4710072169506337e-03
         - -2.2831120831563648e-02
         - -2.0079195300786314e-02
         - -2.4931782316715268e-02
         - -2.3919911613449179e-02
         - 4.7288821868446948e-02
         - -1.7403720917049108e-02
         - -3.7727375700421721e-02
         - -1.1136292867555034e-02
         - -1.4865779973872301e-02
         - -9.8245541980445487e-03
         - -5.8474712657252256e-03
         - 3.7782501749074965e-02
         - -4.5256353004508643e-02
         - 6.4872921144596678e-03
         - 1.9044783055793654e-02
         - -1.7494016213309708e-02
         - 2.7399424884585431e-03
         - 3.9759326268875107e-02
         - 1.2873571010510952e-02
         - -4.7809604011022307e-02
         - -1.3650611511484174e-02
         - -2.0823977923774016e-02
         - 3.7083033627620152e-02
         - -2.0343826590375494e-02
         - 2.2940690939940694e-02
         - -5.5810583038241142e-03
         - -1.4011352910076637e-02
         - -1.9320581087548812e-02
         - -2.4898591171745288e-03
         - -2.9115867835122482e-02
         - 9.1880358346316596e-03
         - -5.7587736470320625e-03
         - -1.0148491871761730e-02
         - -2.5266034929458461e-02
         - 9.2551177024096810e-03
         - 3.1891961048606129e-03
         - -3.0622684984813495e-02
         - 1.0508413689144505e-02
         - 2.0146178525432573e-02
         - -2.6758105861631049e-03
         - 3.1459394616248582e-02
         - 1.7818120483115648e-02
         - 8.9272198029385422e-03
         - 9.5644030165499428e-03
         - -4.1772387349467900e-02
         - -2.4946745421220187e-02
         - -6.5270775358232478e-03
         - 1.9131745291133647e-02
         - 2.8746242191169103e-02
         - -1.0418913225376216e-02
         - -5.1616690450044739e-03
         - 3.6542172878299239e-03
         - -8.7948493196810633e-03
         - 2.7784773128156696e-02
         - 3.0389772517010180e-02
         - -1.1951976389698150e-02
         - 2.1808683188351698e-02
         - -3.8517679402603630e-02
         - -1.5561664337743975e-02
         - 9.1481489714600340e-03
         - 3.9598315369375678e-03
         - -1.9983211635015577e-03
         - 3.3467068158006930e-02
         - -3.6537939959073312e-02
         - 2.1923010480774916e-02
         - 4.2691473205530850e-03
         - 2.0500061036900136e-02
         - 2.4181728458604512e-02
         - -1.8490687694829703e-02
         - -2.1397457782023385e-02
         - -1.5277154188031614e-02
         - -2.1756537552932741e-02
         - 1.9240420571498433e-02
         - 3.1530050097811436e-02
         - -1.7544797997907056e-02
         - 1.9895130480940538e-02
         - 4.3986577333006122e-02
         - -2.5840472775427174e-02
         - -1.1199469056711811e-02
         - -2.6855996828579629e-02
         - -5.1237829752775127e-03
         - 2.5448238146325342e-02
         - -1.9549672679075409e-03
         - -2.0502525736881785e-02
         - -2.0012994548177277e-04
         - 1.8538054081524195e-02
         - -4.2858004336490986e-03
         - -2.4809438086860230e-02
         - 1.9157304439690177e-02
         - -2.3146692338240657e-03
         - -1.8431156288238878e-02
         - 2.3786791607223301e-02
         - 3.7664800476817813e-02
         - -1.0929840348947398e-02
         - 2.4248050414286463e-02
         - -4.3636569735188268e-03
         - -2.9666809763199336e-02
         - 6.7947234663582137e-04
         - -1.5854844604484226e-02
         - -1.5619584248382575e-03
         - -1.7030574602536021e-02
         - -3.2288255052100388e-02
         - 1.3513323723337481e-02
         - 2.0342513915403659e-02
         - -2.3236946625586653e-02
         - 2.1245337299378229e-03
         - 4.0177371023763899e-03
         - -1.5558796772645666e-02
         - -2.7167176942806712e-02
         - 8.8063678549652087e-03
         - 9.7908581661170120e-04
         - -4.3703714928254138e-03
         - -3.3992865152318981e-02
         - 1.1036512119273081e-02
         - -2.2007909806600459e-02
         - 2.7346350632541212e-02
         - 9.8090948451444327e-03
         - -6.7636384191895127e-03
         - -2.4994507405201392e-02
         - -1.8399922752333511e-02
         - 1.7142316007148731e-02
         - 2.7432181521817780e-02
         - 1.6220550344165512e-02
         - 8.5079467587041348e-03
         - -1.3024206052009657e-02
         - 9.4121944966139934e-03
         - 1.1194776968414680e-02
         - -2.5258175173779332e-02
         - 1.9414247328275399e-02
         - 1.4668129175121652e-02
         - -1.9938942011463890e-02
         - -4.1780489904632466e-04
         - 1.7917073735413527e-02
         - 2.4072401592592586e-02
         - -2.2109704093318489e-02
         - 9.4944848688015750e-03
         - -1.0699235253355937e-02
         - -5.9101522237034092e-03
         - 1.4500828443829959e-02
         - -2.3396402160023290e-02
         - 1.0659923251124711e-02
         - -2.3654520937680407e-02
         - 9.4054875194628015e-03
         - 2.9948801659952194e-02
         - 1.7509569435086719e-02
         - -2.7904132233543519e-02
         - 1.3593650155053403e-02
         - 3.3692776291907166e-02
         - -8.4531637140556597e-03
         - 5.9205925241950091e-04
         - 1.1907405804479907e-02
         - -5.4107283855055009e-03
         - -1.7319713567832295e-04
         - 3.0050295652078771e-02
         - 6.9358493114972386e-03
         - 3.8438433927985433e-02
         - -1.1749505352069780e-02
         - 3.4283051839956087e-03
         - 3.8516753175186582e-03
         - 3.9582281537949980e-02
         - 2.9675139944441774e-02
         - 1.1701391597100697e-02
         - 3.2491622963807129e-02
         - -3.2564024287115030e-02
         - 1.4432448258758541e-02
         - 1.8411335670800884e-02
         - 3.0576463725463944e-02
         - 9.7172315993347066e-03
         - -4.7039352475822874e-03
         - -2.9359929098126351e-02
         - 1.7176372394074292e-03
         - 9.1655857799828825e-03
         - 3.4044077912493531e-02
         - 6.9309084717170850e-03
         - 6.8945661878427886e-03
         - 2.7558310046829178e-02
         - 2.2226048561693284e-02
         - -6.0980705817944708e-03
         - 2.8133836942207283e-02
         - 1.4353465852563391e-02
         - 9.0799452032894589e-03
         - -1.7781126219606733e-02
         - 1.2243967792172889e-02
         - -2.5312290902605016e-02
         - 1.4974502921578977e-02
         - -1.8407316544873726e-02
         - -9.9224359020443596e-04
         - -1.3451804305676780e-02
         - -2.0889291837180107e-02
         - 3.4042146931474084e-03
         - -1.1203297945405937e-02
         - 9.1654000909444228e-03
         - 1.5176895638598776e-02
         - -9.8013233475153436e-03
         - 2.4034209678471290e-02
         - -3.7470791309835246e-04
         - -1.9776184592650070e-02
         - -1.4550121235177124e-03
         - -2.3645333956318827e-02
         - -1.0734770435434152e-02
         - -1.5077719537581722e-02
         - 3.1674111267374408e-04
         - 2.3840762202764564e-02
         - -2.3140307277900039e-02
         - 3.5223438653683476e-03
         - 9.8548814709899409e-03
         - -6.1557424604128949e-03
         - 9.3087210221738902e-03
         - 2.3667551298645298e-02
         - 3.0609392075814049e-02
         - -2.5183460255216320e-03
         - -2.6426229726970779e-04
         - 1.4796566772450512e-02
         - 8.3174569834410569e-03
         - -8.5929876653368098e-03
         - 1.7452841221632744e-02
         - -2.1244191351061197e-02
         - 1.3797527012190218e-02
         - -1.3443568686620461e-02
         - 9.4776725202416947e-03
         - 2.8955363432863274e-02
         - -2.4492598049029715e-02
         - -2.9249084110293869e-02
         - 2.4319163289691494e-02
         - -1.6029364774416840e-02
         - -1.5283648815199657e-03
         - -8.6259616812622980e-03
         - 3.7734168137399181e-02
         - 3.0548914444188724e-02
         - -2.8379041842645131e-02
         - -5.1440849443606463e-03
         - 3.6470714043839864e-02
         - 4.8241236526602501e-03
         - -1.2502220954954677e-02
         - 1.8329313185960689e-03
         - 1.1299546791780059e-02
         - -1.1055428989451334e-02
         - 1.3073301120922805e-02
         - -2.9706284467551507e-02
         - -8.1622578955806765e-03
         - -2.0701360263890155e-02
         - -2.8538501197039427e-02
         - 9.3687805065914022e-04
         - 1.9612682630764006e-02
         - 9.4471214472595616e-04
         - 1.7781037969303217e-02
         - 3.1985249106023531e-02
         - 1.3095728781191140e-03
         - 2.0613228033210848e-02
         - 3.4744105324702956e-02
         - -2.8668689808735610e-02
         - 1.2490903505588720e-02
         - -2.3648086342581445e-02
         - -2.9065295828244964e-02
         - -2.6516889998123239e-02
         - -1.5402146420838408e-02
         - -1.1040768491021851e-02
         - -4.8076175948288929e-03
         - -2.0007102550560749e-02
         - -8.3859825563954490e-03
         - 3.5426039399642666e-03
         - -1.4721821062107503e-02
         - -2.5738526175500393e-02
         - 2.5711550559737562e-02
         - 2.5134459264581758e-03
         - 3.2050627447507483e-03
         - -2.1092911355608489e-02
         - 2.4539440429171113e-03
         - -1.7002227976347820e-02
         - 2.6638838259696308e-02
         - 5.9461152616189766e-03
         - 7.8621702584166665e-03
         - -3.3231818490345975e-02
         - 1.2007736437254113e-02
         - -7.0591326147454074e-03
         - -4.9670938234549055e-03
         - -2.3926806390267931e-02
         - -2.5536218054937505e-02
         - 3.6172596740547569e-02
         - -5.6306705956768142e-03
         - 8.5013088233644746e-03
         - 3.9211193933790206e-04
         - -1.3893656366247778e-02
         - -1.0871502623044963e-02
         - 1.7802315372021673e-02
         - -1.6157387921917430e-02
         - 1.6369694951992659e-02
         - -1.2570645222881656e-02
         - -2.8794946665709878e-02
         - 1.0454646022204568e-02
         - -3.7844128048887489e-02
         - -1.0583282694384636e-02
         - -3.0447560464631216e-03
         - 2.5499474184690816e-02
         - -9.3390672718512008e-03
         - 1.3508219650313773e-02
         - -2.9230901579223825e-02
         - 2.9675984332003285e-02
         - 1.2399454537869611e-02
         - 1.0601539046669906e-02
         - -1.4214389429153004e-02
         - -2.3526765420200128e-03
         - -3.0014685643525881e-02
         - -2.2927350191857824e-02
         - 3.3408844004790057e-02
         - -8.8987091723745585e-03
         - -2.2731332144913893e-02
         - 1.4742872766209525e-02
         - -2.4685805721061806e-02
         - -2.1086655002965745e-02
         - -3.8126255421490507e-02
         - -2.9053271031698739e-02
         - 3.4532762006595337e-02
         - 5.6257689939526396e-03
         - 2.7926488124117389e-02
         - -1.3439065504088105e-02
         - -2.6064339926981438e-02
         - -7.4589220866323009e-03
         - 9.5985619671825478e-03
         - 8.9446272846736095e-03
         - -3.1198633748908248e-02
         - -2.4744974762579672e-02
         - 9.4658278941340945e-03
         - 5.1209761783158718e-03
         - -1.0791050389540535e-02
         - -1.8143563176583312e-02
         - -1.9733630749490871e-02
         - -2.6116733792536616e-02
         - -1.3374064345226190e-03
         - -1.3593904292574692e-02
         - -3.2138500996277845e-02
         - -2.7831797029331147e-02
         - 3.3894534450441924e-02
         - -1.0053907274402361e-02
         - -9.2586503252467609e-04
         - -1.2068542575135663e-03
         - 6.5373487614070868e-03
         - 2.2243737146666120e-02
         - 3.9220711882495145e-02
         - -2.1084953476062256e-03
         - -3.0053902988454645e-02
         - -5.7026864417442243e-04
         - -4.1208007857027251e-03
         - 5.2429761968686490e-02
         - -2.6668096559313112e-02
         - 1.4120987920330254e-02
         - -3.7715753425337707e-02
         - 9.5483552106798777e-03
         - -4.5615319012349727e-02
         - -3.8104703979015234e-02
         - -2.1664661603638703e-02
         - 4.8204468205359244e-02
         - 2.5968825593635531e-02
         - 1.7843530580175217e-02
         - 1.1570535669765999e-03
         - 4.3545681606488265e-02
         - -1.0036160129172536e-02
         - 1.6887256020656178e-02
         - -3.5212208422250951e-02
         - 8.4474685423733663e-03
         - 8.3858316088385575e-03
         - 2.9678959111715728e-02
         - -8.3698181235826279e-03
         - -2.5413854922323339e-02
         - 2.4883265489806679e-02
         - -1.5677357703839715e-02
         - 4.5004830510330274e-02
         - -6.4968900915885761e-03
         - -3.8028154779471718e-02
         - 2.6868078724798596e-02
         - -2.6929559528016612e-02
         - -3.5380730252729475e-02
         - 5.4485736720929052e-02
         - -7.0381691940963271e-03
         - 2.2517928528647875e-02
         - 2.0196932584417061e-02
         - 3.2324853537767970e-02
         - 6.6019211543158285e-03
         - -1.4350156465164422e-02
         - -5.9157567521717410e-03
         - 3.9201795596137526e-02
         - 2.6826112317684406e-02
         - 4.2146955764724610e-03
         - 1.1184546198865950e-02
         - 1.9106382082335900e-02
         - -1.4507918397797540e-02
         - -9.7858763403169506e-03
         - -1.4347604759930153e-02
         - 7.1857496904467039e-04
         - 6.8707598471871127e-03
         - 1.8385326394236283e-02
         - 2.9084571051484934e-02
         - -4.0390125276716137e-03
         - -2.1418217772652796e-02
         - 3.5499221350685485e-02
         - 2.9238582320898886e-02
         - 1.4197814711652157e-02
         - 5.1427840087413896e-03
         - -2.0951812363285260e-02
         - -1.3662044561149273e-02
         - 3.9052401046423053e-02
         - 1.6864948460139056e-02
         - 1.6364853559331929e-03
         - -1.9655673891574424e-02
         - -3.2680660218081657e-02
         - 3.7343237431881296e-02
         - 1.0581441964117447e-03
         - -9.5110548938760302e-03
         - 4.0880932905178614e-02
         - -2.4778304335180988e-02
         - 1.9892927638254954e-02
         - -1.1435864551587170e-02
         - 1.2062075501933792e-02
         - 1.8237828427629805e-04
         - -1.6715098873657838e-02
         - -8.8788321862682974e-03
         - 1.9530586135335995e-02
         - -9.6513861671675277e-03
         - -1.6822035041750175e-02
         - 2.2363371757999261e-02
         - -2.4843784772584431e-02
         - 5.4783341054578808e-03
         - -3.3025695216783259e-02
         - 7.0282818274429518e-03
         - -4.1426887244220834e-02
         - 3.1300914797538180e-02
         - -2.5656925427485912e-02
         - -2.2280251740192155e-02
         - 1.6111693360657063e-02
         - 2.2426314742934550e-02
         - -1.2338779051072850e-02
         - 1.0126899027656424e-02
         - 5.2120601414586609e-03
         - 2.3462981751035471e-02
         - -2.7520952462821470e-02
         - -2.3504414069040670e-02
         - 1.9354451472016899e-03
         - -2.4422073524925213e-02
         - 2.3289977424818405e-03
         - -9.2858623798992065e-03
         - -1.9636286237093313e-02
         - -1.8480933655337650e-02
         - -1.6966521629143679e-03
         - -1.6995287880253670e-02
         - 1.1773477615919248e-03
         - 7.4169291637325458e-03
         - -1.0290432325814397e-02
         - -2.4375079772353349e-02
         - 3.2045579993420101e-02
         - -1.8676215057210982e-02
         - -1.2872954105765994e-02
         - -3.3147776281952972e-02
         - 3.2156184586847251e-03
         - -1.9936156276993026e-02
         - 3.0427320694082223e-02
         - 2.5078999946499553e-02
         - -6.2527159291124749e-04
         - -2.0944796371924503e-02
         - 1.1887877551863671e-02
         - 1.0143629682105576e-02
         - -6.6678698311351840e-03
         - 3.4095517573263491e-02
         - 1.5379725714562351e-02
         - -7.6472265845813235e-03
         - -1.5637796065001475e-02
         - -3.0267169277392352e-02
         - -7.4262153892229853e-03
         - -3.1198609841357056e-02
         - -4.7285667359579647e-03
         - -2.9628768078106878e-02
         - -3.2197821475884139e-02
         - -4.5427897597004304e-03
         - 1.3556436268313826e-02
         - -3.7479368655977487e-02
         - -9.8128373922890394e-03
         - 1.3372712697837231e-02
         - 2.1222923339845646e-02
         - 3.7116839168053850e-03
         - -5.4120076474160729e-03
         - -6.2312508833012644e-03
         - 1.3365310395609687e-02
         - -2.2393260755942071e-02
         - -2.6463489183265992e-02
         - 2.4287505744793821e-02
         - -1.8056668875794647e-02
         - -2.1195831154544740e-02
         - -6.1126744952930785e-03
         - -3.0885452178640527e-02
         - -1.1812395050615288e-02
         - -9.6957171979232223e-04
         - 1.6296961018112181e-02
         - -6.0486254862911299e-03
         - 4.4608296763811214e-02
         - 2.3306691094675297e-03
         - 7.4844902142785687e-03
         - 3.0067815502667749e-02
         - -2.0186718961539018e-02
         - -2.6072705636611210e-02
         - -1.3807520992978493e-02
         - 3.4339568487439187e-02
         - -1.2646707243102659e-03
         - -3.5010537789118674e-02
         - 2.6890432560137613e-03
         - 2.2007796287750875e-02
         - 2.6267431315452745e-02
         - 2.6857005106199528e-02
         - 1.0074218095985476e-02
         - 3.4710248137698923e-03
         - 8.4918601996886688e-03
         - -7.3902350895565082e-03
         - 3.6504665105494494e-02
         - 1.6154854566667955e-02
         - -1.4303418346709985e-02
         - 3.0868582979988426e-02
         - 2.7531947619050860e-02
         - -8.8602524980070860e-03
         - 2.4776121058055493e-02
         - -4.2849365049386435e-03
         - -3.9348273443048773e-03
         - -1.7167103182729709e-02
         - 9.4479353902374198e-03
         - -2.8685054927667405e-03
         - 2.4147503941953658e-02
         - -2.4153054455199188e-02
         - -2.5171666721797967e-02
         - 2.3306077134371970e-02
         - 1.8675351093876465e-02
         - -8.9750086456252976e-03
         - 2.5186233176926694e-02
         - 2.0228158269311021e-02
         - -2.3333045933043209e-02
         - -2.9120281990060351e-02
         - -2.0724663826801781e-02
         - 6.5135253415173379e-03
         - 3.0815480059932527e-03
         - 2.7717524450205252e-02
         - -2.5145894690999898e-02
         - 3.4286944448483431e-02
         - 1.2391260903575941e-02
         - -1.4700401139772773e-02
         - -1.3198800227002377e-02
         - 1.9093750722040743e-02
         - -6.0683192780755747e-03
         - -1.1730839643900811e-02
         - 2.5654616148397112e-02
         - -1.6237508511872261e-02
         - -2.6346216679476533e-02
         - -3.2089608763978903e-03
         - 2.8533144190088830e-02
         - 2.8480686077059004e-03
         - 1.1145082018005813e-02
         - -2.5845192636560689e-02
         - 1.9563914897296003e-02
         - 1.1884937705116458e-02
         - 8.0715190453379201e-03
         - 7.1145564141890287e-03
         - -1.5841554344149820e-02
         - -1.9578061332133856e-02
         - -1.6763375864383333e-02
         - 1.5703588694754574e-02
         - -1.6618911201921847e-02
         - 2.2173695347497129e-02
         - -3.2701304367620601e-03
         - 1.4674919077638791e-02
         - 2.3294444009975854e-02
         - 1.0356082838422074e-02
         - 1.4696711088413113e-02
         - -4.9525943126954115e-03
         - 1.0666439286757893e-02
         - -2.5784109498072635e-02
         - 1.5321414538200295e-02
         - 7.2021412640526639e-03
         - 2.6915409522591072e-02
         - -1.4496599285206703e-02
         - -2.4115290970042485e-02
         - 1.5443891423280027e-02
         - 2.8080533973707775e-02
         - 1.7813004451792597e-02
         - 2.9169403081355839e-02
         - -6.3959583094863057e-03
         - 1.9146765597130223e-02
         - 8.3118643982929372e-03
         - -1.3141628655758728e-02
         - 1.5012488261696393e-02
         - 1.8659537811752155e-02
         - 1.7261273924729420e-04
         - -2.2804843894562738e-02
         - -1.8101640712531231e-02
         - -2.8934617215075842e-02
         - 7.4346688454765475e-03
         - 2.2062455565302233e-03
         - 1.3354010854144822e-02
         - 1.5516183116324850e-02
         - 1.8307536286686368e-02
         - -2.1813250472729532e-02
         - 1.7166304444675484e-02
         - 2.7959334223671757e-02
         - 2.7747642017611939e-02
         - 1.6693148070271415e-02
         - 1.1702136213682735e-03
         - -2.4615997184647968e-02
         - -2.3392521187300268e-02
         - -1.1540448278780422e-02
         - 2.3098895412415821e-02
         - -2.1381643344488218e-02
         - 4.6427757414222890e-03
         - -1.2128338404636650e-02
         - -1.7785365321423659e-02
         - -2.2940841422443316e-02
         - 2.2086746597533239e-03
         - 1.3605494477933874e-02
         - 1.0871773373860171e-02
         - 8.8324293774620938e-03
         - 1.7963803868533221e-02
         - -3.5231605912537335e-03
         - 6.7967196455231329e-03
         - -1.8057986438116246e-02
         - -1.9976944851691450e-02
         - -2.5374266921596004e-02
         - -5.7501114961658302e-03
         - 3.9038197673747551e-03
         - -3.6577413528487155e-03
         - 6.8580842170103465e-04
         - 5.2787745349110043e-03
         - 2.1229792943485370e-02
         - -1.8065940943570058e-02
         - -2.5751285313277094e-02
         - -1.7059481031382967e-02
         - -1.3088429039825643e-03
         - 1.6569615167774887e-02
         - 3.4513345867140124e-03
         - -2.7467952438417872e-02
         - -1.4514971716231959e-02
         - -2.0321297143817425e-02
         - -1.9409788709219473e-03
         - -2.5569056635187444e-02
         - 1.7825581866132784e-02
         - 7.2985467975234530e-03
         - -1.3693067783731009e-02
         - 2.8682617809805223e-02
         - 3.9250241206541759e-03
         - 2.2577511613968374e-02
         - -2.4394554797459167e-02
         - 2.5553550495579121e-02
         - -2.3417271540314394e-02
         - 2.1658345701594157e-02
         - -3.8169933308821028e-03
         - -2.5858866878816104e-02
         - 1.1393523192681750e-02
         - 2.9614450813867998e-02
         - 1.4048948389412825e-02
         - 3.0791201236750384e-02
         - -1.9451587751202138e-02
         - -1.2054342094001320e-02
         - 1.5801017107934415e-02
         - -1.6355628659313025e-02
         - 1.1350188439646643e-02
         - -2.0304979105740511e-02
         - -1.8110825145433575e-02
         - 2.2008404728029920e-02
         - -2.9199806355919167e-03
         - 8.7081192747929699e-03
         - 6.9252399685713929e-03
         - -2.7242575631169122e-02
         - -2.8868748151840807e-02
         - -2.1568659246685204e-02
         - 1.6362771940166339e-02
         - -1.7061812661496683e-02
         - 3.6437974921886356e-03
         - 2.2683441465932482e-02
         - -8.7842949720371554e-03
         - 1.6742402603775436e-02
         - -3.2144894326460852e-02
         - -2.8290541155080614e-02
         - 8.7951274099019455e-03
         - 1.1265115625600163e-02
         - -1.0529498098876907e-02
         - -1.4102728321946803e-02
         - -3.4922997216184526e-02
         - 7.0226356006367974e-03
         - -1.3439252476317647e-02
         - -2.5703772540943089e-02
         - -2.8028170016629533e-02
         - 1.6240787025945089e-02
         - -8.1951480554128108e-03
         - 2.8312997219946019e-02
         - -1.6699248758524490e-02
         - 2.3620854982711204e-02
         - -7.0610841085264053e-03
         - -8.4399954361758390e-04
         - 7.5958385353049234e-03
         - 3.1356940006553854e-02
         - -5.2037948385271040e-03
         - -2.8484509370361101e-02
         - 1.8028428764129408e-02
         - -9.4707982140916757e-03
         - -3.9019646204918267e-03
         - 1.7931246843912247e-02
         - 2.3131894025356956e-02
         - -7.0375431398352704e-03
         - -1.2191420212903021e-02
         - 7.9644658072597803e-03
         - 6.4489789959414146e-03
         - 2.5994327187094664e-02
         - -2.5852378007156319e-02
         - 3.3469579368591004e-02
         - 2.8899723308329593e-02
         - -9.0795727757114163e-03
         - -1.9197375564459489e-02
         - 2.3347925139775755e-02
         - -1.5733136913554026e-02
         - 3.3329152712467829e-02
         - 5.0164302292859510e-03
         - -2.4038526110516815e-02
         - 2.1802238916884639e-02
         - 9.8864121883687258e-03
         - 2.4929379706403337e-02
         - 2.8334677466813639e-02
         - 2.6403079237423022e-02
         - 2.6915590752211675e-02
         - -2.1636751627124605e-02
         - -1.2645573851665774e-03
         - 2.2249658355071481e-02
         - 1.4177004386302575e-02
         - -1.2325808358169621e-02
         - 1.7503827050250123e-03
         - -2.1868042345817251e-02
         - 1.5727323534065210e-02
         - -3.4416031219939330e-02
         - 5.1508646049611131e-03
         - 2.0577181972807293e-02
         - -9.5211724572083802e-03
         - 2.0492613842828342e-02
         - -3.4795182683327951e-02
         - -1.7525360015314333e-02
         - -3.9036688975484048e-02
         - -2.6832717274194971e-03
         - 6.1406919920811917e-03
         - 2.1850905872198945e-02
         - -1.6385206758930272e-02
         - 2.4189350466569143e-02
         - -1.0276898749304842e-02
         - 3.8001048292857560e-02
         - -6.8256994192742492e-03
         - -1.0033807982244809e-02
         - -1.5277437271904443e-02
         - 4.3878467164312367e-02
         - -3.3637592793158172e-02
         - 3.9619138226103467e-02
         - 3.0381362753922562e-02
         - 1.4649566043687673e-02
         - 6.8387999481931295e-03
         - 1.0071272939577026e-02
         - -1.6197824943255678e-02
         - 1.7362931789520246e-02
         - 3.2971720557225838e-02
         - -3.7145394628460095e-02
         - -3.5115543903470700e-02
         - 1.8910936852375590e-02
         - -3.9415067038367502e-02
         - -2.1009866524437985e-02
         - 3.1354879568759826e-02
         - 2.2891459045981891e-02
         - 8.7727840792845002e-04
         - -1.2186421924897018e-02
         - -3.3207897507008442e-02
         - -5.1992231971265651e-02
         - 6.2932783959962742e-03
         - 2.1900049513776585e-02
         - -3.3118374640426350e-02
         - -5.1877291147022761e-02
         - 1.9023622522254058e-03
         - -3.4721734232962931e-02
         - 1.7537176340399901e-02
         - -2.0474887437001453e-02
         - -1.2634593712405856e-02
         - 2.2137056684159225e-02
         - 9.9362312870115380e-03
         - -3.0004578328232324e-02
         - -1.0578503618703975e-02
         - -2.8994981025850321e-02
         - 3.8413163207181911e-02
         - -1.2796917354698908e-03
         - -2.3966659976078025e-02
         - 1.9884916084067290e-02
         - 9.3536644100705672e-03
         - -1.9602405343444890e-02
         - 2.0749305920615219e-02
         - 3.7216957958669784e-02
         - 7.8362665037992590e-03
         - -2.8857384654348985e-02
         - 1.7803221739860299e-02
         - 1.6996622201940429e-02
         - -1.9952239889257754e-02
         - 7.9670471998733276e-03
         - -2.8373358406097261e-02
         - -3.5782495316369414e-02
         - -2.8052433118161686e-03
         - 2.4271803927365797e-02
         - -8.0700411147645295e-03
         - -2.9393386827201818e-02
         - -4.6777300462647518e-02
         - 1.2956578687341052e-02
         - -1.3464413486749387e-02
         - 2.7811974550025403e-02
         - 3.3546384703308590e-03
         - -1.1322072549407192e-02
         - 2.5387784509898943e-02
         - -1.7135227711021984e-02
         - 1.9727305395845388e-02
         - 2.7897445557493301e-02
         - -5.9525776029976923e-03
         - -5.8259866822756079e-02
         - 1.0907983189897705e-02
         - 1.8413205754160829e-02
         - 3.9905534720306848e-02
         - 2.7852356414025680e-02
         - 4.5699678753775605e-02
         - -1.9713835705711596e-02
         - -4.3852799007682193e-02
         - 3.1277136984696759e-02
         - 9.2986182883631543e-03
         - 4.2043097455141731e-02
         - -2.5713801987336742e-02
         - 2.4008785648284722e-02
         - -3.5408063601561901e-02
         - -2.5507709951074754e-02
         - -2.1201855942905065e-02
         - -1.0797524417649189e-02
         - -1.6220042675472109e-02
         - -2.3230546627586297e-02
         - 2.5961619105864229e-02
         - -3.0035190572261419e-02
         - 6.8001517963934945e-03
         - -1.9871946333196656e-02
         - 2.6796962957286244e-02
         - 2.4971547754411599e-02
         - -3.9915989545300772e-03
         - -1.4511816680946386e-02
         - -1.7808815236909966e-02
         - -3.0762605166310780e-02
         - -1.2633522818254701e-02
         - -2.8759786327563420e-02
         - 2.3439460963290120e-02
         - -3.3784446454515047e-03
         - -1.1504775451993297e-02
         - -2.6336239805504081e-02
         - 2.8454037215404626e-02
         - 1.0539657785203549e-02
         - 6.3290066159308982e-03
         - -9.7840875837075514e-04
         - -3.2835240462266218e-03
         - 2.6337563152034893e-02
         - -1.6846005973274850e-02
         - 1.1360927239988843e-02
         - -1.3232455284638102e-02
         - 1.3863815794088479e-02
         - -2.3226885187542835e-02
         - -2.3352834320707914e-02
         - 8.6629633318391960e-03
         - 2.2583086978892199e-02
         - -2.8714631756513773e-02
         - 1.1902935071338877e-02
         - 2.7949054941115645e-02
         - -2.4473862215872982e-02
         - -1.7569318973151633e-02
         - -1.2643393231995821e-02
         - -2.3771860893773700e-03
         - 2.6730284665917356e-02
