%YAML:1.0
opencv_ml_ann_mlp:
   format: 3
   layer_sizes: [ 64, 100, 100, 26 ]
   activation_function: SIGMOID_SYM
   f_param1: 6.6666666666666663e-01
   f_param2: 1.7159000000000000e+00
   min_val: -9.4999999999999996e-01
   max_val: 9.4999999999999996e-01
   min_val1: -9.7999999999999998e-01
   max_val1: 9.7999999999999998e-01
   training_params:
      train_method: BACKPROP
      dw_scale: 1.0000000000000000e-03
      moment_scale: 0.
      term_criteria:
         iterations: 300
   input_scale:
      - 1.
      - -1.
      - 1.
      - 0.
      - 4.7417615414290432e-01
      - -2.4601424086968215e+00
      - 1.4687486238942698e+01
      - -1.1710435469670184e+01
      - 8.9783312968639741e+00
      - -8.3660573202247590e-01
      - 1.1681075985650411e+00
      - -4.3344156384598937e+00
      - 1.0139416845768755e+01
      - -6.9156403816182799e+00
      - 5.7536281773211071e+00
      - -1.0221421258497549e+00
      - 1.
      - -1.
      - 1.
      - -45.
      - 4.2577354543209656e-01
      - -3.7294270853685143e+00
      - 1.0566759730177012e+01
      - -6.8022625066311635e+00
      - 8.7241868116671935e+00
      - -7.3891243467400747e-01
      - 9.5492783229099742e-01
      - -3.8640135968872076e+00
      - 6.3568211598644098e+00
      - -3.5582263902055740e+00
      - 5.4257234075164567e+00
      - -8.6551955582091644e-01
      - 1.
      - -1.
      - 1.
      - -90.
      - 3.5970212462140783e-01
      - -1.4910784677463915e+00
      - 8.3556837654617055e+00
      - -6.9369284532195259e+00
      - 8.3846340755360984e+00
      - -7.9713607647239437e-01
      - 9.5300774685603684e-01
      - -3.5669328321714149e+00
      - 6.1383657612833309e+00
      - -4.1560439666327511e+00
      - 5.6081296227282627e+00
      - -9.7436136653338801e-01
      - 1.
      - -1.
      - 1.
      - -135.
      - 4.0412634681662213e-01
      - -3.5398046051624745e+00
      - 9.9283972076436058e+00
      - -6.3945552805155863e+00
      - 8.8435739429999902e+00
      - -7.4197949591123058e-01
      - 9.6209188688558978e-01
      - -3.8908251393391065e+00
      - 6.4014084581415567e+00
      - -3.5743949934543306e+00
      - 5.4564583605625465e+00
      - -8.6520462503217210e-01
      - 1.
      - -3.
      - 1.
      - 0.
      - 1.6095168549971836e-01
      - -2.3092148494259677e+00
      - 7.2855965114891417e+00
      - -2.8848343055574470e+00
      - 1.0202620469119601e+01
      - -7.4573143735973146e-01
      - 1.0389618128862377e+00
      - -4.2163623258600147e+00
      - 8.7720302037872777e+00
      - -4.8173885001684900e+00
      - 5.9274520878639558e+00
      - -8.9785050384158160e-01
      - 1.
      - -3.
      - 1.
      - -45.
      - 1.7502772931042998e-01
      - -3.5685235265609858e+00
      - 8.1599013606571003e+00
      - -7.4907564159290441e-01
      - 9.6831576668138677e+00
      - -6.9561603140926187e-01
      - 9.0528484688344457e-01
      - -3.8172671789760590e+00
      - 5.9338167772074835e+00
      - -2.6636714038075051e+00
      - 5.5447492008192434e+00
      - -7.8227842983754070e-01
      - 1.
      - -3.
      - 1.
      - -90.
      - 2.0440671617114958e-01
      - -1.7577478628592758e+00
      - 4.2514349516079371e+00
      - -2.7138139089530977e+00
      - 8.7933766609534718e+00
      - -7.5197906956041360e-01
      - 9.1408318996246796e-01
      - -3.6423312001128756e+00
      - 5.2354056231106281e+00
      - -3.0554677206905234e+00
      - 5.5923118438247243e+00
      - -9.0874155959532688e-01
      - 1.
      - -3.
      - 1.
      - -135.
      - 1.6755550409077097e-01
      - -3.3676077591883646e+00
      - 7.8736091671416073e+00
      - -8.4705728575430017e-01
      - 9.9948397573166936e+00
      - -7.0255914360346983e-01
      - 9.1282300385625270e-01
      - -3.8472638135041928e+00
      - 6.1012655575809118e+00
      - -2.7377258847750885e+00
      - 5.6052261161733901e+00
      - -7.7285127216117133e-01
   output_scale:
      - 5.2631578947368418e-01
      - 4.9999999999999994e-01
      - 5.2631578947368418e-01
      - 4.9999999999999994e-01
      - 5.2631578947368418e-01
      - 4.9999999999999994e-01
      - 1.
      - 0.
      - 1.
      - 0.
      - 1.
      - 0.
      - 1.
      - 0.
      - 1.
      - 0.
      - 1.
      - 0.
      - 1.
      - 0.
      - 1.
      - 0.
      - 1.
      - 0.
      - 1.
      - 0.
      - 1.
      - 0.
      - 1.
      - 0.
      - 1.
      - 0.
      - 1.
      - 0.
      - 1.
      - 0.
      - 1.
      - 0.
      - 1.
      - 0.
      - 1.
      - 0.
      - 1.
      - 0.
      - 1.
      - 0.
      - 1.
      - 0.
      - 1.
      - 0.
      - 1.
      - 0.
   inv_output_scale:
      - 1.8999999999999999e+00
      - -9.4999999999999996e-01
      - 1.8999999999999999e+00
      - -9.4999999999999996e-01
      - 1.8999999999999999e+00
      - -9.4999999999999996e-01
      - 1.
      - 0.
      - 1.
      - 0.
      - 1.
      - 0.
      - 1.
      - 0.
      - 1.
      - 0.
      - 1.
      - 0.
      - 1.
      - 0.
      - 1.
      - 0.
      - 1.
      - 0.
      - 1.
      - 0.
      - 1.
      - 0.
      - 1.
      - 0.
      - 1.
      - 0.
      - 1.
      - 0.
      - 1.
      - 0.
      - 1.
      - 0.
      - 1.
      - 0.
      - 1.
      - 0.
      - 1.
      - 0.
      - 1.
      - 0.
      - 1.
      - 0.
      - 1.
      - 0.
      - 1.
      - 0.
   weights:
      -
         - -2.6004054171473927e-02
         - -1.9586719579871053e-02
         - 7.9953140897202762e-03
         - 1.6902579313716859e-02
         - 2.9244805377145876e-02
         - -3.0739658152373096e-02
         - 2.2178974474245685e-02
         - 1.4888519706054579e-02
         - -2.2265015699576934e-02
         - 2.0358769922601699e-02
         - 2.5184763345363514e-02
         - -3.1057565262980567e-02
         - -1.0866125645727445e-02
         - -1.1539695975888904e-02
         - -6.4848349026989790e-03
         - -3.1028969179974298e-03
         - -2.6023066666201410e-03
         - 9.0541908630668369e-03
         - 8.1427727846843639e-03
         - -3.9298379810387626e-03
         - -3.6601717085302079e-03
         - -2.4137251879972493e-02
         - -8.8641277291695714e-03
         - -2.2469741090912210e-02
         - 2.5911121038100341e-02
         - -4.2518080425629065e-03
         - -2.4187154084053180e-02
         - -1.2542174510037354e-02
         - 2.8983126285812243e-02
         - 8.9745576081320059e-03
         - -2.5947116365531205e-02
         - 2.4422804468042021e-02
         - -2.3449648924728936e-02
         - 1.9128549504002521e-03
         - -5.4524355852059343e-03
         - 1.8036552383701273e-02
         - -3.7566383635948891e-03
         - -1.6551241462249386e-02
         - -3.0870672369847675e-04
         - -1.9069267519481761e-02
         - -9.6482360383586471e-03
         - 1.1242666306817510e-04
         - -3.0449265468270059e-03
         - -2.2675392229097983e-02
         - -1.5301035937520316e-02
         - 1.9767897726587279e-02
         - 2.4801100497416073e-02
         - 2.7606658760142878e-02
         - -1.1462356380542767e-02
         - -2.5852780961174139e-02
         - 1.8885370708195601e-02
         - 2.2723806261162938e-02
         - -6.8683582342402910e-03
         - -2.0606819720890849e-02
         - 1.5862723726012513e-02
         - 2.4599071151499088e-02
         - -1.5754939223577683e-02
         - -1.3012816751315973e-02
         - -2.5233921577249414e-02
         - 2.1780938555881580e-02
         - -1.0280447299732865e-02
         - 2.7333323688792104e-03
         - -1.5974771998234227e-02
         - 5.5498102794589808e-03
         - -1.9290334273570825e-02
         - 3.0612804376070370e-02
         - 2.5206291900972583e-02
         - 8.0245576825517806e-03
         - -1.7751448031913787e-02
         - -3.0894152999417362e-02
         - -2.9759009061646441e-02
         - -2.2680914995794353e-02
         - 5.8079211014127816e-03
         - 1.7882623457482597e-02
         - -1.4271785180410647e-02
         - -1.4594105390404302e-02
         - -5.6918541863188437e-03
         - 1.9663503710259374e-02
         - 2.0984781647688317e-02
         - 1.3352465620071351e-02
         - 2.7535072153425783e-02
         - 1.8065587522107806e-02
         - -7.0867903747429423e-03
         - -1.1225798755242529e-02
         - -4.7611722302701902e-03
         - 3.2967674709583464e-02
         - 3.0233303922016050e-02
         - -9.6158199331327215e-03
         - 5.2550313580409531e-03
         - 1.3518798838305040e-02
         - 2.0008053608099544e-02
         - 1.4767320805692754e-02
         - 2.1530987467254371e-03
         - -2.5273554557103318e-02
         - -1.7780944660400970e-02
         - -1.5250530280011205e-02
         - 3.0519460440054352e-02
         - -1.4522945822381386e-02
         - -1.6058332183109366e-02
         - 2.7198388253473146e-02
         - 5.5537489291366468e-03
         - 2.4890089529991097e-02
         - 1.3450201138401185e-02
         - 1.3579730956018437e-03
         - 2.0175119720372729e-02
         - 1.2972505761527733e-03
         - -8.9590577276239466e-03
         - 2.3391397860469586e-02
         - -2.0494034518887629e-02
         - 1.4627514756581774e-02
         - 1.5253208415055045e-02
         - 1.4052002195430735e-02
         - -1.6112920927159456e-02
         - -5.4389414570252190e-03
         - -3.0650442033734121e-03
         - -1.5114139388916663e-02
         - 2.8858994531769867e-02
         - 2.9718811076289129e-02
         - -3.0196358815967106e-02
         - -1.0199933582601921e-02
         - -2.8873739672180206e-02
         - -6.7848401472213552e-03
         - 1.0441623331948872e-03
         - 2.3372864503948036e-02
         - -1.1638490136842285e-02
         - 1.3916577351421188e-02
         - -3.4889119979764722e-03
         - -2.3614722601012293e-02
         - -4.1802795268476561e-03
         - 1.5350636667224015e-02
         - 2.2483833108400100e-02
         - 8.4153394128515322e-04
         - 8.0639212317767366e-03
         - -3.3789537896064523e-02
         - 3.3862035042773781e-04
         - -1.3345930290612011e-02
         - 3.0445025348937799e-02
         - 1.7921185040133684e-02
         - 1.3207327479777530e-02
         - -7.9286915035012926e-03
         - 1.0309056825276670e-02
         - 9.7162310282132985e-03
         - 2.9552864415997367e-02
         - 2.9758991647942106e-03
         - -2.6059730831683296e-03
         - -2.8757928488023993e-03
         - -2.2399544390619124e-02
         - -1.2761046680487912e-02
         - -1.2080710753848712e-02
         - 1.3324756972620765e-02
         - 5.1727273064942833e-03
         - 6.2793783533871914e-03
         - -5.6815834438065579e-03
         - -1.0879074316975134e-02
         - -2.9336379158420380e-02
         - 1.6185843813406302e-03
         - -1.6951155916631808e-02
         - 3.0327018831429357e-02
         - -1.6341506579018261e-04
         - -2.2003893019657571e-02
         - 2.7009865663660218e-02
         - -7.1082939777054269e-03
         - -3.0338626136490632e-02
         - 3.5477911479827429e-02
         - 5.1511178022258883e-03
         - -1.9688837671494393e-03
         - 4.1114698130674957e-03
         - -1.0723510153633889e-02
         - 2.5894545810468968e-02
         - -3.5146638853803011e-03
         - 1.5956104810067845e-02
         - 2.5800610109450711e-02
         - 1.7024634175012595e-02
         - -2.9147756807418834e-02
         - 2.6081030453174885e-03
         - -7.9540626179352859e-03
         - -2.2981379951550591e-02
         - 2.1639980609780642e-02
         - 9.1426092769687547e-03
         - 2.1930189069485795e-02
         - 1.8939374025855785e-02
         - 1.2517340115280690e-02
         - -1.0530231552031552e-02
         - 5.7899402409682717e-03
         - -1.4076212279460709e-02
         - -1.2028192082595464e-02
         - 5.4383543192991742e-03
         - -1.5676493376192500e-03
         - -5.7939271918020291e-03
         - -1.5849080641351213e-02
         - 7.0740197124737388e-03
         - -2.5092220467768152e-03
         - -2.7552474430435250e-02
         - -1.3969631183625352e-02
         - 9.3876755848358168e-03
         - -1.7342381718712812e-02
         - -1.5432632934086110e-03
         - -1.8497807407407661e-02
         - -5.6198612365743221e-03
         - 2.8979186491461955e-02
         - -2.5424158718048553e-02
         - -4.0705382859521376e-02
         - 3.7000171491224039e-02
         - 5.2828585440008201e-02
         - -6.0895530469574684e-03
         - -1.0477854539511925e-03
         - -1.5799556012110281e-02
         - 1.1228914396332208e-02
         - 3.2905253946345907e-02
         - 7.7537350179988224e-03
         - 1.4982887355084589e-02
         - -1.6051151833657556e-02
         - 1.9920385184404771e-02
         - 7.8119758505040809e-03
         - -5.3060083438692472e-02
         - 4.7137854885423137e-02
         - 1.6026349202496334e-02
         - 3.6079710495493827e-02
         - 2.1723469255986480e-03
         - 2.3422039562999489e-02
         - -6.0645223197853787e-02
         - 2.3854597875234043e-02
         - -1.7865353425882240e-02
         - -3.4616388120115131e-02
         - -2.9832400418515939e-02
         - 5.9175427887566391e-02
         - -2.6382584004935393e-02
         - 3.4419596341732847e-02
         - -1.8556292230424244e-02
         - 7.6735740612942846e-02
         - 2.9456479459980502e-02
         - 1.4341877114077027e-02
         - -5.7317167664768770e-02
         - 2.4435358876274144e-03
         - -4.2116085160833573e-02
         - 2.9518474780219361e-02
         - 3.8592222475123906e-03
         - -3.7045153411799557e-02
         - 1.4596767147896209e-02
         - 3.7613270936613243e-02
         - 2.0965026909941377e-02
         - 6.0715594813974511e-02
         - -4.9729746571998190e-02
         - 2.8560280771331482e-02
         - 1.2376737207439696e-02
         - -3.7165127097926708e-02
         - 9.6027900234735078e-02
         - -3.0046173648373302e-02
         - -4.5887475047933071e-02
         - -5.0210703623620343e-03
         - -6.2134862712487360e-03
         - -4.8040908267354566e-03
         - -1.6347847504894252e-03
         - 2.7891203722857569e-02
         - 1.3991844349456634e-02
         - 1.7339692472890685e-02
         - -1.1244775632352448e-02
         - 2.9539905290751040e-02
         - -2.7349803804027923e-03
         - -1.0332419077321598e-02
         - -4.4444918810054614e-02
         - -2.3748102199167228e-02
         - 9.2307961674450781e-03
         - 3.1458690841495132e-03
         - 7.3940057423135530e-02
         - 3.1998501925143336e-02
         - 5.9252873374089111e-03
         - -4.9315127197654664e-02
         - 4.6822161358642152e-02
         - -2.8738806328815350e-03
         - -1.7690267893841058e-03
         - 3.7771731761550430e-02
         - 1.9835739244513855e-02
         - -1.3905208653991911e-02
         - 5.4605899187006833e-02
         - 9.4964463987524689e-03
         - 3.5491378060947321e-02
         - 3.9535273561311958e-02
         - -5.3453795169394809e-02
         - 1.3065991346042166e-02
         - 5.5765978289026991e-02
         - -2.5775597008308258e-03
         - 2.4833102242918657e-02
         - -2.5524574913873280e-02
         - 5.0915158262471616e-02
         - -2.6645322253000956e-02
         - 9.3261967114795213e-03
         - -4.2073169658939653e-02
         - 4.7192299064364111e-02
         - -2.7609289163061608e-02
         - 2.1745230186662877e-02
         - -8.3824827285738524e-03
         - 2.1832599242189145e-02
         - 5.3337866553481425e-02
         - 2.4357003892145630e-02
         - -3.7940372795202702e-02
         - -5.0758197354832016e-02
         - 5.0028477765968166e-02
         - -4.8765565305534629e-02
         - 4.0315665216687877e-02
         - -1.8033061899822816e-02
         - 2.7096243870168835e-02
         - -1.3169465862348644e-02
         - -2.1814662805313346e-02
         - 4.9374847904965187e-03
         - -2.1701023499109497e-02
         - 5.3465996937595971e-03
         - -3.2110272335671958e-02
         - -1.4871403627539793e-02
         - 1.7794423969480274e-02
         - -6.7469367238008782e-02
         - -5.5542051372330786e-03
         - -3.5355026007784687e-02
         - 3.2344672244166296e-02
         - 5.1324225164752546e-02
         - -1.4248013630699715e-02
         - 1.8072663817111582e-02
         - -8.6298439601302374e-02
         - -1.7226703709144940e-02
         - -4.8066867778892132e-03
         - 5.2047421028634168e-02
         - -1.7532907935534133e-02
         - 2.0669957239763236e-02
         - 2.9352226106244248e-02
         - 1.2599821993796209e-02
         - -3.3484991928635445e-02
         - -1.4016884296768829e-02
         - -8.7392523162648488e-03
         - -2.3709057480709745e-02
         - -6.3239299875292698e-02
         - -1.6509933703193449e-02
         - -3.0209619073807845e-02
         - 1.0219287273681836e-02
         - -6.2474864201192276e-03
         - 4.8163368662675898e-02
         - 1.5271380395424444e-02
         - -1.2030583818884741e-03
         - 2.5315998028418940e-02
         - -6.2598608122484646e-03
         - -4.9619203076745298e-02
         - -4.5508132796006129e-02
         - -7.9595182022575775e-02
         - 8.6162801998718418e-03
         - -1.3928525562872201e-02
         - -3.7901012929012670e-02
         - 4.8190917177551591e-02
         - -1.0998716705128750e-01
         - 5.6859265515386342e-03
         - 7.7246550793640453e-03
         - 2.8124549425318935e-02
         - -2.9529026311902795e-02
         - -3.5353339939252562e-04
         - -3.2038295471245488e-02
         - -3.3130942931709713e-02
         - -1.7223203816696831e-02
         - 1.4351726162225352e-02
         - -4.2257267322280394e-03
         - -4.6985771243678136e-02
         - -1.7095594416416386e-02
         - 2.7649561691486049e-02
         - 4.8899538295083589e-02
         - 4.2265536433709686e-02
         - -2.1068961286843466e-02
         - 2.9161177436829177e-02
         - -5.1378251349322897e-02
         - -2.6589761447304142e-02
         - -7.0382907308704544e-03
         - -1.9588521180336806e-02
         - -2.8544991616790086e-02
         - 8.2404649527260711e-03
         - -2.0114154179410128e-02
         - 3.2459105714878951e-03
         - 1.0735852745272188e-02
         - 1.6209058132375369e-02
         - -4.9100652201767493e-02
         - -3.2307484460088652e-02
         - -5.8367435586410667e-03
         - 6.0682431950677754e-04
         - 5.3640645691933012e-02
         - 3.5077581274301710e-02
         - -5.0525315334352242e-02
         - 3.8862501001410872e-02
         - -2.3990316480006029e-02
         - 2.4126612808956244e-02
         - -3.9793682451549982e-02
         - -2.2530704652823717e-02
         - 1.4536106556631216e-03
         - 4.6874191603053610e-02
         - -4.4249706758738863e-02
         - -1.8841927783335263e-02
         - -1.9175419790660028e-03
         - 3.0760387278039251e-02
         - -3.5102498103235825e-02
         - -8.5842567285945373e-03
         - -3.8087764965640952e-02
         - 3.9360557209698638e-02
         - 4.7619387003221693e-02
         - -2.7305764635278092e-03
         - 4.6341640054408030e-02
         - -4.9474484483776907e-02
         - -2.7280775819466748e-02
         - -3.0227947451441972e-02
         - -7.2129504555077740e-03
         - 2.6980485155527520e-02
         - -1.8537649669675551e-02
         - 1.0376105249806449e-03
         - -1.7201923493276872e-02
         - -2.7270522522964351e-02
         - 2.8115522104247170e-02
         - -2.3007526724735678e-02
         - 2.3335553088407054e-02
         - -7.1245500985643887e-03
         - 2.0000476371596573e-02
         - -1.1812070985635281e-02
         - 1.0397608837858808e-02
         - -2.5264621358680556e-04
         - -1.9958823677521997e-02
         - -1.0219584002437570e-02
         - -1.9838169126202643e-03
         - 1.5512933302517440e-02
         - -2.7783350541050588e-02
         - 1.2540785825353944e-02
         - 2.2958208096861797e-02
         - -1.6612545727385550e-02
         - 1.4424470736501851e-02
         - -2.2138766156672266e-02
         - 3.7813515627391305e-03
         - 1.9752736378244396e-03
         - -7.0486915729587709e-03
         - 1.3252548974884884e-02
         - -1.5510038071891011e-02
         - -6.0875261266763589e-03
         - 4.4579927937181910e-03
         - -2.2312013842251541e-02
         - 3.3916354562904728e-04
         - 2.2350699030300545e-02
         - -1.7620779616236558e-02
         - -5.1996306696445197e-03
         - -2.2202920847370369e-02
         - 1.3076803554576133e-02
         - 1.3510626569635647e-02
         - -2.2149270503650835e-02
         - -6.6851297883549132e-03
         - 5.7858989309529495e-03
         - -1.6335312810755922e-02
         - -2.6707098625561025e-02
         - -1.0929582790289530e-02
         - -1.4891921101777544e-02
         - -1.1212055334745622e-02
         - 2.9192684082044631e-02
         - 4.1522320544736931e-02
         - 3.0442577182400468e-02
         - 3.2204610243563854e-03
         - -1.4087514558264154e-02
         - 4.3733640622779747e-03
         - -1.2375002733305166e-02
         - 6.5851637022339852e-03
         - 1.5792802061646006e-02
         - -2.4331038540492299e-02
         - -3.0072066533581930e-02
         - -6.1218768736773458e-03
         - -2.5845500122618645e-02
         - 8.7797965178216773e-03
         - -2.5776183603189239e-02
         - -6.0723481259865389e-03
         - -8.1691342324670211e-03
         - 2.5709249749991232e-02
         - -1.4445132404871218e-02
         - -9.5344238533518217e-03
         - 1.4372923960554189e-02
         - -1.9863677478796072e-02
         - -4.1205866436593575e-03
         - 3.1168435910098272e-02
         - -3.0503357312913950e-03
         - -2.0570968067969379e-02
         - 2.2289594541439202e-02
         - 1.7658030354735923e-02
         - 2.5428525174990172e-02
         - -5.9853019253827914e-03
         - 2.5212444203295766e-02
         - 2.0545118781635740e-02
         - 2.6765991179268533e-02
         - 2.9206525359605226e-03
         - 3.0761870582712496e-02
         - -3.0551093935198836e-03
         - 3.7295933107727067e-02
         - -3.4167978126582663e-02
         - 1.3803510436702785e-02
         - -4.1479692970242269e-03
         - 4.6611151859658168e-05
         - -1.9185240628671486e-02
         - -1.8235906300049679e-02
         - 9.6568658284789579e-03
         - 1.5240328619114139e-02
         - -2.3169402848904539e-02
         - 1.5003128953585474e-02
         - 2.1658919295445899e-02
         - 9.0535430417303039e-03
         - 1.5865599722522484e-02
         - -3.8551786042952652e-03
         - -9.7883599114111392e-03
         - -1.9809227330040896e-02
         - 5.7136802344560422e-02
         - 3.6373704546720703e-02
         - -3.7494746941012957e-02
         - -1.2107195462679602e-02
         - 9.4690260022662291e-03
         - -1.1949819415431053e-03
         - -2.0185150253732216e-03
         - 3.2261199085380242e-02
         - 5.1974144903238269e-02
         - 1.6072026969136712e-02
         - 2.8787832979576895e-02
         - 1.0242465837122419e-02
         - -5.1209728494433317e-02
         - -5.9126754665933179e-03
         - 7.6987605528777677e-03
         - 4.5022690152982020e-02
         - 5.4757768683078807e-02
         - 4.8054809435130998e-02
         - -3.0177821572389629e-02
         - 1.8693277906270012e-02
         - -1.0733999209064177e-02
         - -4.2868591724843823e-03
         - -2.9072669129703806e-02
         - 6.0482521298863316e-04
         - 1.7308722558187460e-02
         - 7.0445399994161764e-03
         - 3.7707168330055681e-03
         - 1.2706101591042822e-03
         - 1.1175251454871180e-02
         - 2.0918257195195800e-02
         - -4.7054370264073241e-02
         - 3.1760238400792575e-03
         - -1.7406668207619352e-02
         - 2.4792774438383850e-02
         - -3.5515373534574582e-02
         - -1.2577821591620375e-02
         - 2.2712897755088758e-02
         - 4.9436537561389174e-02
         - 2.2654411007342948e-02
         - 1.6422639310784054e-02
         - -2.7993272701811189e-02
         - 5.2321982861114752e-02
         - 9.5694727226255973e-03
         - 1.2242697981183217e-03
         - 4.6613218866111354e-02
         - 8.2630240137074196e-03
         - -9.8469577397518955e-04
         - -1.5347355754325540e-02
         - -3.4101365717547169e-02
         - -4.9040203894575453e-02
         - 4.5023120438882978e-02
         - 4.0671393757607446e-03
         - -4.1935278561062240e-03
         - -6.6002195590394910e-03
         - -4.0208838753951647e-04
         - 5.4173768471720091e-02
         - -1.4263556341533805e-02
         - 1.2613264791470354e-02
         - -3.3826446404291305e-02
         - -1.1620628335586658e-02
         - -6.9767437320612229e-03
         - -3.2306707930269747e-02
         - 2.3866931978164564e-02
         - -8.3931024256327195e-03
         - -5.8124514988085081e-02
         - 3.4985318329614691e-02
         - 3.5764819287354810e-02
         - -2.6574963806714751e-02
         - 2.8360737573599797e-02
         - -1.3594442791979041e-02
         - 7.2916428264425794e-03
         - 1.2321219563504172e-02
         - 3.4655673685031974e-02
         - 1.6300025560248243e-02
         - -1.6007530735366610e-02
         - -1.9413702359646498e-02
         - -2.5184313082685841e-02
         - -3.9586841305659717e-02
         - 4.0759394898454454e-02
         - -1.6982029865252671e-02
         - -1.0996016158426554e-02
         - 5.9370944693325871e-03
         - -1.7650456940741445e-02
         - -2.1193730955927081e-02
         - 1.1412505981830525e-02
         - 1.4426778842265587e-02
         - 1.2713484278281124e-02
         - -2.7583454736850373e-02
         - -2.6736160786493719e-02
         - -1.3553772122422867e-02
         - -4.3319411286794488e-03
         - -5.0343576889726521e-03
         - 2.0628532034317578e-02
         - -1.3610990730569982e-04
         - -5.2210005644269593e-02
         - 5.3914516610547407e-02
         - -2.5969831032401733e-02
         - 3.0937019526699103e-03
         - 1.4270014978044566e-02
         - -1.1961060900708375e-02
         - -3.5352827765847909e-02
         - -5.7783436693979819e-02
         - 7.1065503179326035e-03
         - -3.3145102056020427e-02
         - -2.2661569185177140e-02
         - 1.3956567193895583e-02
         - -6.2286500843662516e-02
         - -2.1887031876523723e-02
         - -8.0937282878599789e-02
         - 1.4406380009000875e-03
         - -4.4397272318086371e-02
         - 2.3617242787886208e-02
         - 7.3586465428096548e-02
         - 1.3911770696090908e-02
         - 3.1945344441612920e-02
         - -7.3116943402691620e-02
         - -1.0859660696062815e-02
         - -1.4564953963666106e-02
         - 6.6024396414777184e-02
         - -3.5576996714302173e-02
         - 2.8397861154506655e-03
         - 2.5318452451581576e-02
         - 4.8741515853401703e-02
         - -2.2060057540058298e-02
         - 3.5406701523348003e-02
         - -4.2131003935678868e-02
         - 4.2647470098778520e-02
         - -6.4917308984242264e-02
         - -3.0615692601671546e-02
         - -6.0532730926105525e-02
         - 2.4528356654220408e-02
         - -1.7424182419902564e-02
         - 5.4090869831214375e-02
         - -4.1223822134264919e-02
         - 4.1668554366820765e-02
         - -2.9251616795731895e-02
         - -2.3878214408415629e-02
         - -5.0311152888707973e-02
         - -4.2649439115946514e-02
         - -5.8935496717084854e-02
         - 7.5215280658799729e-03
         - -5.3253971812464579e-02
         - -7.5717413603015329e-02
         - -8.1958977686300699e-03
         - -7.8205868594993649e-02
         - -3.3004025356565395e-02
         - 6.5475867837286941e-02
         - 6.9148677882875986e-02
         - 2.1285217625459769e-02
         - 2.2019877229573711e-02
         - -4.5063015211358727e-02
         - -1.5422491892988048e-03
         - 1.9416343164561530e-02
         - 4.7211255309381646e-02
         - 1.5513928852277469e-02
         - -6.4458045723334023e-02
         - -2.7000594061533927e-02
         - 2.3731528810185580e-02
         - 3.0290333676013276e-02
         - 1.1627543567194621e-03
         - 1.2516491330476446e-02
         - 3.0430717328033399e-02
         - -5.0336298021329016e-02
         - -5.7982354953914753e-02
         - 6.1741398463177173e-02
         - 4.4320230468824886e-03
         - -1.8111564679175390e-02
         - -1.8256472676555287e-02
         - -2.8424887559459617e-02
         - 2.9281643116968886e-02
         - 3.7704379833873050e-02
         - 5.4963533599953880e-02
         - -6.4991530538975772e-02
         - -3.6491006682138373e-02
         - -3.4170636619331417e-02
         - 1.2872988742129316e-02
         - 1.1521751395899950e-02
         - 5.2700492199348907e-02
         - -7.8670186047655702e-02
         - 6.4200581536003254e-03
         - -2.6470106056375779e-02
         - -5.2264906200771956e-03
         - -6.1362368728857539e-03
         - 5.5668825678370955e-02
         - -5.8833474016620417e-02
         - 5.7886953662929758e-02
         - -6.5381142324489827e-02
         - 3.3255852280245538e-02
         - 2.5423062773567585e-02
         - 1.8085931731490836e-02
         - 2.6457536904364419e-04
         - -5.0514137945437354e-02
         - -2.5736114195585025e-02
         - 3.7727681735459942e-02
         - 4.7579805136933891e-02
         - -7.6656309657155364e-02
         - -4.4142009671297106e-03
         - -1.6150570311680091e-02
         - -1.9571318203391547e-02
         - 1.1855445383166869e-02
         - 1.2165134262148776e-02
         - 2.3102826690217858e-02
         - -2.9206921932496032e-02
         - -6.8130640851063644e-03
         - 2.7638179501371977e-02
         - -2.3083621496243791e-02
         - -1.2606073028113294e-02
         - 3.3064235974239351e-03
         - -1.2423030625158006e-03
         - -2.7309616234281239e-03
         - 7.1461676870810571e-03
         - 1.0698653365636553e-03
         - 7.5568860278150242e-03
         - 6.0933055646108384e-03
         - 2.3654136586001753e-02
         - 1.0454244719033768e-02
         - -3.7627867589038327e-02
         - 1.9054075560953836e-02
         - -2.2718283262388138e-02
         - 3.5242773481858704e-02
         - 9.7188424537732847e-03
         - -9.3565844101379195e-03
         - 1.0783094492275842e-02
         - -9.6732224868415258e-03
         - 2.6048481334237653e-02
         - 4.6844257202805608e-03
         - -2.7325206929258040e-03
         - 1.8217419341876921e-02
         - 1.5336998914959656e-02
         - 4.9785724437773661e-03
         - -2.3128105251610468e-02
         - -7.1166479648580670e-03
         - 5.2923583027007799e-03
         - 8.4548789058151233e-03
         - -1.3706656627116601e-02
         - 2.8063094294023629e-03
         - -1.5365878120441762e-02
         - -2.4883269251799005e-02
         - -2.4115442292425373e-02
         - -2.5430224087673720e-02
         - 1.4447016714960428e-02
         - 1.9847610862815005e-02
         - 4.4550335972036415e-04
         - -2.0582053695398339e-02
         - 1.1267478044478146e-02
         - -3.0784626077644366e-02
         - -8.1017669048980730e-03
         - 1.5875753637168963e-02
         - 2.0853490450785327e-03
         - 5.2451176283495890e-03
         - -1.5970808833091068e-02
         - 2.6249504359523262e-02
         - 6.9799441694128762e-03
         - 1.8287461751950073e-02
         - 3.5960660739982074e-02
         - -4.8602624214752988e-03
         - -2.0209113604912265e-03
         - -9.4733313389337506e-03
         - -2.1568386968216155e-02
         - 1.3027840099428074e-02
         - -1.1767216712075264e-02
         - 1.9131706083313577e-02
         - 3.0266095811841469e-02
         - 1.1534418881714366e-02
         - 4.0684567707673543e-02
         - -2.2805180569676543e-02
         - -8.1667833139662700e-03
         - -7.2542143070962375e-03
         - -1.3197768904504437e-02
         - -2.9440221559120832e-02
         - -1.9713787139930491e-02
         - -1.5632700116147119e-02
         - 1.8890136704803405e-02
         - -2.5565169597831252e-02
         - -2.3082230846532204e-02
         - 3.2846657726247362e-02
         - -3.6798009265347344e-03
         - 1.5062084968870256e-02
         - -2.6906453036879288e-02
         - 1.6137235234965807e-02
         - 4.3487623068438445e-03
         - 1.9124726300290464e-02
         - 3.2616183642794505e-02
         - -1.6438132159419610e-03
         - -3.8651729998076839e-02
         - 1.4812056344527116e-02
         - 1.5567113790350350e-02
         - 3.2963405738146343e-03
         - -1.4180419329505858e-02
         - 8.7335988510639350e-03
         - 5.0547754338021592e-03
         - 9.6930097622294487e-03
         - 1.4683960420494810e-02
         - -1.7022808399496447e-02
         - -1.3879944441555261e-02
         - -1.3114987301068059e-02
         - -3.1296258075703305e-02
         - 2.6709150110190222e-02
         - -1.6307540572607918e-02
         - -1.5133239654331642e-02
         - 2.1833537227652841e-02
         - -1.0716989865076499e-03
         - -2.5191342446430020e-02
         - 1.2603083462786822e-02
         - -1.8462753453760943e-03
         - 1.2706606308790348e-02
         - 8.2921320158948850e-03
         - -1.5840958306164016e-02
         - 7.0164899565337948e-03
         - -9.4713509410409465e-03
         - -2.2961719810012278e-02
         - -1.7831886692960749e-02
         - 1.4345063572415601e-02
         - 7.7351195546455868e-03
         - 2.4202156059770635e-02
         - 2.1250556918664374e-02
         - -2.9529555394248185e-02
         - 2.5015735912529043e-03
         - -8.1056145981532532e-03
         - -1.5547631773381251e-02
         - 2.3864253158044271e-02
         - -1.7761007121427370e-02
         - 1.5621866279557637e-03
         - -4.5097418161981727e-03
         - 6.4911661282778237e-03
         - 4.6752504521501478e-03
         - 3.0229880155607340e-02
         - -5.2691151244776296e-04
         - -1.1203154484029814e-02
         - 1.9818948146252627e-02
         - -1.5563116374219456e-02
         - 1.6709449377049680e-04
         - 3.0990657481043838e-02
         - -1.5056147599418370e-02
         - 2.0682162230363382e-02
         - 2.5707077892822706e-02
         - 1.9993356651240121e-02
         - 1.1168173867662447e-02
         - 6.7067473525386084e-04
         - 3.2207088940527273e-03
         - -2.6701546973631016e-02
         - -2.7996464621938558e-02
         - 2.7188482813633789e-02
         - 1.5463490043833052e-02
         - 2.4728797049252569e-03
         - 5.1393145319029365e-03
         - 2.7088033728417917e-02
         - -5.3515925862258123e-03
         - -6.0912246858412710e-03
         - 1.8024141883161617e-02
         - 1.9335551277759624e-02
         - 6.0263906428094753e-03
         - -2.9332188117777583e-03
         - 1.8706162377942503e-03
         - 1.9106158239679108e-02
         - -2.3443811916604388e-03
         - -3.9149245463684741e-03
         - 2.8707045200506619e-02
         - -1.6549791181773878e-02
         - 1.8081883063047085e-02
         - -1.9389130361650287e-02
         - -3.1683585489553148e-02
         - -7.1146915136570520e-03
         - 1.5534244110630653e-02
         - 2.5158052399802389e-02
         - -5.2491923291793181e-03
         - -1.3293484487120786e-02
         - -2.0293332365596356e-02
         - -2.6871582683959117e-02
         - 2.7127752685986471e-02
         - -1.7891588951202551e-02
         - -1.0376100146161473e-02
         - 7.6309035641056551e-03
         - 3.2955068592369734e-03
         - -2.4043451247565659e-02
         - -6.0227487508393756e-03
         - 5.7931450708346328e-03
         - -1.8999212198646837e-02
         - -1.2380053363311728e-02
         - -1.8557467362858911e-02
         - 1.1109926676001945e-02
         - -5.8439082206078845e-03
         - 8.2675868598212163e-03
         - -3.1490999281081132e-03
         - 2.5938931209964555e-02
         - 2.0900387314650777e-02
         - 1.5917563275922173e-02
         - -2.9901041583249837e-02
         - 1.1790269533320005e-03
         - 4.5040624246471964e-03
         - -2.0460030729777780e-02
         - 1.9567258999226276e-03
         - 1.9650841413266531e-02
         - 2.5818819182900455e-02
         - -1.3764304448250156e-02
         - 2.7832138592426735e-02
         - -2.5302361942491167e-02
         - 2.4780712840257971e-02
         - 1.9896681423968967e-02
         - -1.5916919869467624e-02
         - -1.6124016422370210e-02
         - 6.4049614175322430e-03
         - 9.1347729187003061e-03
         - 1.9142975299943903e-02
         - 1.9356977582971752e-02
         - -3.7060268604494173e-03
         - -8.2794102734848850e-03
         - 2.1615866207402110e-02
         - -2.3993763368786440e-02
         - 7.4851162539765637e-03
         - 7.2114998714157945e-04
         - -2.4236353746602369e-02
         - -1.3851089727721757e-02
         - 1.5689357729525642e-02
         - -1.0000144906077233e-02
         - -2.8384888071060922e-02
         - -8.6315099368912216e-03
         - -1.8492572416628019e-02
         - -1.3749369983029671e-02
         - -1.0293177284439575e-02
         - 1.1803828566068387e-02
         - 1.3099817642677813e-02
         - -5.3180976799124249e-03
         - 1.5722157586291415e-02
         - 2.6987622773577594e-02
         - -2.0137052169159980e-02
         - 1.3407923220394136e-02
         - 2.4119974902231753e-02
         - -6.6008773130151344e-03
         - 1.6859215474247815e-02
         - -3.0451394155255957e-02
         - -2.4781670238979921e-02
         - 3.0716325672794330e-03
         - 3.3104419355150577e-03
         - 1.6810935963783907e-03
         - -1.0589947005330868e-02
         - -3.1876917469575272e-02
         - -1.7626631948580749e-02
         - 2.1590708390887038e-02
         - -2.3230157475669460e-02
         - 1.6554725444117759e-02
         - -2.1842200688957408e-03
         - -2.0495441967410141e-02
         - -1.7450738429791855e-02
         - -3.3253582527908165e-02
         - -1.3489733933267767e-02
         - -1.4900386902738939e-02
         - 1.4071183732366330e-02
         - 9.9762155441337208e-03
         - -2.9553250181523574e-02
         - 2.0254324287091348e-03
         - 3.1200034395663132e-02
         - 4.3597708966737628e-03
         - 2.5329163735024158e-02
         - -3.1516625721316875e-03
         - 2.9749954753164351e-04
         - 8.9378621466817769e-05
         - -2.5849507009797990e-02
         - -2.2785561646683692e-02
         - -3.8864854791188356e-03
         - 1.7275200484365431e-02
         - -2.2898125846580016e-02
         - -2.2627764482826249e-02
         - -1.7024896352412208e-02
         - -1.8079472145383798e-02
         - -2.4335044650004045e-03
         - -1.5536958557908539e-02
         - 2.3137051848132716e-02
         - 2.4565068614647141e-02
         - 2.5450450728080228e-02
         - -9.9670819407475658e-03
         - -7.6089551005841622e-04
         - -7.4725213269375293e-03
         - 1.7224318221467708e-02
         - 1.2605328842453616e-02
         - -1.5888161132011473e-02
         - 3.5123387811178712e-03
         - -5.0306095635711786e-03
         - 2.1091253563079820e-02
         - 1.8616186914083184e-02
         - -3.1783925904824636e-02
         - -1.3613871792591230e-02
         - -5.9651972991359194e-03
         - 1.7114960234717945e-02
         - -1.6178717550474904e-03
         - 1.1899420838617915e-03
         - -2.4208189680794540e-02
         - -2.3839943343648265e-02
         - 2.2345945105208216e-02
         - 2.3976130460812307e-02
         - 7.1463481210261538e-03
         - -4.0054569422216784e-03
         - 2.3498408928283233e-02
         - 1.2549936216870160e-02
         - -3.2281017448316136e-02
         - 2.0122846448818989e-02
         - 1.7269108269642071e-02
         - -4.8748697991298703e-03
         - 1.5261742016290462e-02
         - -1.0186977939499662e-02
         - 1.6707136989996960e-02
         - -8.5502756704875296e-03
         - -1.3478374454551652e-04
         - -1.2995347961038376e-03
         - 2.4501208588342913e-02
         - -3.3260951528563979e-03
         - -2.4158274967027556e-02
         - -1.7352131742803725e-02
         - 1.4788391523794788e-02
         - 2.7807587682931604e-03
         - 1.6573837754009033e-02
         - 1.6706239648190440e-02
         - -3.4245918572074138e-02
         - -1.2941925529359060e-02
         - -1.1520054671728652e-02
         - 3.1605900684672561e-02
         - -4.3673786170994435e-03
         - 1.8771171126231754e-02
         - -8.1062659220387584e-04
         - -2.0615694968795516e-02
         - 2.7849353987219310e-03
         - 1.8279890673944407e-02
         - 9.4078119608973932e-03
         - 2.7067633831627566e-02
         - 1.8266907033437262e-02
         - 1.0278477459141313e-02
         - -4.5519318204244570e-03
         - 5.5276967302748177e-02
         - 2.8019940326968296e-02
         - 2.0439989116486503e-02
         - 2.2133004536563188e-03
         - -2.7960930318854507e-02
         - -3.3077094312834565e-02
         - 2.4484661315781496e-02
         - 1.1902466496960860e-02
         - -8.3575468974063701e-03
         - -3.1307452974176558e-02
         - 3.5919054417153033e-02
         - 1.3758144088033026e-03
         - 2.0496104970881213e-02
         - -2.5584895224066120e-02
         - -2.9490027437577105e-02
         - 2.1253581538854850e-02
         - -2.8259425313461758e-02
         - 5.7131024650731672e-02
         - 1.1502646814447182e-03
         - -2.2769004305435436e-02
         - -1.8219797238722375e-02
         - -1.7606018346272879e-02
         - 3.6410712938500060e-02
         - -1.0184235938509576e-03
         - -7.6392372877662268e-03
         - -3.1539449265116745e-02
         - 1.2174562880471468e-02
         - -1.5542190880934354e-02
         - -6.8784270600857301e-03
         - -1.2953969736036186e-02
         - 2.7976439720729788e-03
         - -1.4865694920665324e-02
         - 1.0716634089782415e-03
         - 4.3616948308878838e-03
         - 2.5457361297862684e-02
         - 4.0041178181216178e-02
         - 2.9358981255204392e-02
         - -1.1990899375073331e-02
         - 7.8820762236294171e-03
         - 1.7242229736620100e-02
         - -2.7883586357259037e-02
         - -5.9370139685501356e-03
         - 2.1880054292324074e-02
         - -2.1518559667724500e-02
         - 2.7697217843158858e-02
         - -2.1711974712513314e-02
         - -2.3944439681551886e-02
         - -1.1243917728844316e-02
         - -2.2081176981088380e-03
         - 5.5304019284561920e-03
         - -9.8331720801147424e-03
         - -8.5287217294744040e-03
         - -1.1612768886434643e-02
         - -1.5982901511737906e-02
         - -2.7864904864590454e-02
         - 4.4294473335341339e-02
         - 3.4673527443135219e-02
         - -3.2864905980660594e-02
         - -3.1615029749552347e-02
         - 1.8336386388137043e-02
         - 6.8434597083550340e-03
         - -1.2382793400130871e-02
         - 7.6773118028310014e-03
         - -8.1198060796439930e-03
         - 2.5480770666120128e-02
         - 2.4807959585798383e-02
         - -2.7475373147160795e-02
         - 2.2728008214323303e-02
         - 2.3212488030866847e-02
         - 1.1217717091788057e-03
         - -3.9280883512445956e-03
         - 2.9535935055479429e-03
         - 1.6395226676289929e-02
         - -3.4522469429223114e-03
         - -2.1086782297565422e-02
         - 2.2944923139186193e-02
         - 2.4959667892664954e-02
         - 2.3863794582349114e-02
         - 1.0924512824355800e-02
         - -1.6238201458245842e-03
         - 1.4195858902841998e-02
         - -2.5950205254368641e-03
         - -1.6169283793473033e-02
         - -2.7561846884000744e-03
         - 1.5048042257866875e-02
         - 3.4959277565321974e-02
         - 2.6055063895634410e-03
         - 1.1399844083516653e-02
         - -3.3063119802878058e-02
         - -2.8454181861056312e-02
         - -2.6104595148713512e-03
         - 1.7495859992100606e-02
         - 1.1508866880287238e-02
         - -1.3671440785153350e-02
         - -8.0947396713075132e-03
         - 2.3143419595327040e-02
         - 1.7697628329108987e-02
         - 7.6448102030748141e-03
         - -2.8658274342290815e-02
         - 2.3715660911148333e-02
         - -9.9037548785921112e-03
         - 8.5123714094369144e-03
         - -2.0360153196425812e-02
         - 1.0920896014001739e-03
         - 2.0264633726040340e-02
         - -4.6331347827047635e-03
         - 1.1842304774788247e-02
         - 3.2149110368908836e-02
         - 1.3784904576264256e-02
         - -1.8792707923555658e-02
         - 3.5485321236997853e-03
         - -2.2063669504868988e-02
         - -3.2702310873487940e-02
         - -1.3552377782731918e-02
         - -9.1857417473453946e-03
         - -2.7769307750541299e-02
         - 3.4892203722006984e-04
         - -4.0097838667682191e-02
         - -1.3677088532919998e-03
         - 3.7571445557229431e-02
         - 2.3998332768643677e-02
         - 2.9858206676694272e-02
         - 2.0902549998281433e-02
         - -7.5524991653741686e-04
         - -7.7550569497004682e-03
         - -2.5680769899461046e-02
         - -1.9895920864748874e-02
         - 9.5577011921795779e-03
         - 2.1594352514336453e-02
         - 1.7957132637349129e-02
         - 2.8226918642765799e-02
         - -4.5986253221662150e-03
         - 1.0217250064940742e-03
         - 3.2385193009579344e-02
         - 2.5129139269644243e-02
         - 1.4497960477261937e-02
         - -2.7800963297509605e-02
         - 3.1641152526208721e-02
         - -2.4841456749109488e-02
         - -1.7439337530295789e-02
         - -1.4692434259861967e-03
         - -2.1170907451015530e-02
         - 2.4081656650422646e-02
         - 2.3981851227181415e-02
         - -1.6768577907247829e-02
         - -3.4030531365877519e-02
         - -3.0428460746831067e-02
         - -1.8419059394444669e-02
         - -2.0954463596845940e-02
         - -1.8312326604032488e-02
         - 2.6384842049517361e-02
         - 8.4488497329658005e-03
         - -1.7744121283449203e-02
         - 2.2017504154452836e-02
         - 7.9541227228924530e-04
         - -1.9993751167480422e-02
         - 8.5059199983008650e-04
         - -4.7689920107761774e-03
         - -4.5586015005065240e-03
         - -3.0173441452096394e-02
         - -1.2621227254506640e-02
         - 2.6296156649575887e-02
         - 1.9449776695845168e-02
         - -3.4073618453019240e-02
         - 1.3159773655250978e-02
         - -1.3427284775176275e-02
         - -2.0523443478944581e-02
         - 2.3562155258063265e-03
         - 6.8182600167299824e-03
         - 1.8271443399256737e-02
         - 2.4889856347379974e-02
         - -2.2478357785696429e-02
         - -2.1968323524844690e-02
         - -1.2250371330338591e-02
         - -1.0742930073028402e-02
         - 4.5590525310149257e-03
         - 1.4553610586182096e-02
         - 2.7573269471335104e-02
         - 2.9776964140370093e-03
         - 3.5112167404281705e-02
         - -7.4569104323653395e-03
         - 1.9331330868031755e-02
         - -2.3824466148365326e-02
         - 2.5165978522159294e-02
         - -2.2872219729829595e-02
         - -1.4821213253572453e-02
         - 1.5644353087337082e-02
         - 3.2626519290921856e-02
         - -3.4083649332137611e-03
         - 1.0627087915116506e-03
         - -1.8509684730420063e-02
         - 1.6830773296724479e-02
         - 4.0878014586715316e-03
         - 9.4891037506892126e-03
         - 1.9173212494107177e-02
         - 2.8202912010448583e-02
         - -2.7481907929604792e-02
         - 1.1475125296088441e-02
         - 2.6047890120950996e-02
         - -2.2255828227983141e-02
         - 2.4656447895141494e-02
         - -6.5582979362651022e-03
         - -1.8886651994899296e-02
         - 8.1668965671775166e-03
         - -1.1527595653902887e-02
         - 3.3637080509954884e-02
         - 4.1223102789242014e-04
         - 3.0574940521568294e-02
         - -1.5477938409352000e-02
         - -7.8287347014718341e-03
         - 2.2421905755846096e-02
         - 2.5686962219123952e-02
         - 3.8404227558217492e-02
         - -4.6275116537528227e-03
         - 1.7430805538979247e-02
         - 8.2750029085480910e-03
         - -1.6719440326746417e-02
         - 4.9164574650595923e-03
         - 6.3970892293572909e-03
         - 2.0214481626244587e-02
         - -1.2756399508355004e-02
         - -6.2971346887985991e-03
         - 3.3210393387245941e-02
         - -7.6194125231907241e-03
         - -2.8815909817560301e-02
         - 2.9755884716204824e-02
         - 2.8034977990733182e-02
         - -2.3586300885811796e-02
         - -4.9484606003794777e-04
         - 2.8085712774993315e-02
         - -1.9897100440481631e-02
         - -2.2099228196659413e-02
         - 9.9124059942207483e-03
         - 2.1595621275199966e-02
         - 1.2288223387280922e-02
         - 3.1224812278095111e-02
         - -2.9488172376980266e-02
         - -6.2351891847937579e-03
         - 1.6331871466343996e-02
         - 3.0654722908872830e-02
         - -2.1329866397782237e-02
         - 2.5113233465432257e-02
         - 5.1458789320718394e-03
         - -2.5463817587887363e-02
         - 2.2471877362287708e-02
         - -1.7043880733601604e-02
         - -3.5420609523391135e-02
         - 1.4160920676408067e-02
         - -1.6689487765305207e-02
         - -1.0324947256100244e-03
         - 2.5324124738171340e-02
         - -7.1004168636046791e-03
         - 9.4442781701960833e-03
         - 7.7344395336711958e-03
         - 2.9478896779274746e-03
         - 5.4280377192005465e-03
         - -2.0267919812249542e-03
         - -1.2743385066715521e-02
         - 1.5984721979041668e-02
         - -6.7809757905960685e-03
         - 1.9679083609398944e-02
         - -1.6524627243844424e-02
         - -2.8591073959575681e-02
         - 1.9249983771793780e-02
         - -8.1413162275256936e-03
         - 2.8961318555576755e-02
         - -1.7474042694816155e-02
         - -5.4926502655107887e-03
         - 9.8836554680429966e-03
         - -2.7507584578536439e-02
         - -1.4173288427977982e-02
         - -8.3725711649850921e-03
         - 2.2284878875952381e-02
         - 2.4300762279738566e-02
         - 1.1947366303652106e-03
         - -3.3970241047386447e-02
         - 2.5840049963503395e-02
         - -2.7714017567502826e-02
         - -2.6173791294561974e-02
         - 2.6411198240841951e-02
         - -1.0758084584835709e-03
         - 3.7669122854646776e-02
         - 1.0991101271754469e-02
         - -1.7076861385088606e-02
         - -9.4714177229962091e-03
         - 3.0325375275485913e-03
         - 1.6567490132527579e-03
         - -3.0224587301216500e-02
         - 2.4668219556644222e-02
         - 2.3220637502449949e-02
         - 2.4145918259222961e-02
         - -1.6477147639066460e-02
         - -1.3663163644311443e-02
         - -1.9981573675586489e-02
         - -2.0202836370841640e-02
         - -1.4471045753433165e-02
         - -2.9427041182401980e-02
         - 4.6494162466763243e-03
         - 1.9104075573204371e-02
         - 7.3534582481924902e-03
         - -3.3130672052874600e-02
         - 1.7696191880342399e-03
         - 1.4096085680050916e-02
         - -4.6199134372640069e-03
         - -4.2463647872711171e-03
         - 1.3945009691458076e-02
         - 1.6975096574592941e-02
         - -2.5373191973003813e-02
         - 3.9395439648059478e-02
         - 3.4566921662187902e-02
         - 2.6724878330624272e-02
         - -2.0967412901780939e-02
         - 3.3235423850369934e-02
         - 3.1968830289859002e-02
         - -7.0014592196186339e-03
         - 5.1143020177155274e-02
         - -9.0853915323972703e-03
         - 7.2796528525317461e-04
         - -2.3596573864118505e-02
         - 2.6798870671171653e-04
         - -2.2732572918819471e-02
         - -1.7091527344449308e-02
         - -2.1414772119325519e-03
         - 1.2101694725839834e-02
         - 6.9315361156357556e-04
         - -1.4722752649421250e-02
         - -2.7608047987884111e-02
         - -3.5555223643641901e-02
         - 3.7222560802526255e-03
         - 2.3656697862163279e-02
         - -2.4322759951628248e-02
         - -3.0946535898062018e-02
         - -6.1095396923214855e-03
         - -1.2112781051639234e-02
         - -9.1591890826387516e-03
         - 8.1681491221463186e-03
         - -4.5461929645903374e-03
         - -2.0832239457050875e-02
         - 1.3819560931148262e-02
         - -3.6548764095234915e-02
         - 1.8544725530327419e-02
         - -7.2628554248656526e-03
         - 9.3823044558445743e-04
         - -3.2895442876755839e-02
         - -2.4840334655536582e-02
         - -1.4119774248420236e-02
         - -1.2016535770984061e-02
         - 7.9039577044975086e-03
         - -3.0650361865776386e-02
         - 4.0905674903833140e-05
         - -1.9454464274903369e-02
         - -1.5219266285185195e-02
         - -2.6613378466808738e-02
         - 3.0703636711650398e-02
         - -2.5339169680468954e-02
         - 2.6569110881513756e-03
         - -3.5989766257997824e-02
         - -1.3732913786895049e-03
         - -2.9594628219286670e-02
         - 5.6780549984851558e-03
         - -3.1552179833634265e-02
         - -1.1183788040528905e-02
         - -3.4647944489697241e-02
         - 2.9381980590071671e-03
         - 1.7143151835167104e-02
         - -2.9322234527316186e-02
         - 1.0960467092904280e-02
         - -3.7607544588885308e-02
         - -8.9742977586772677e-03
         - 5.8891786843434115e-04
         - -1.3001390028309318e-02
         - -2.0488665210526003e-02
         - -8.9645189837074708e-03
         - 1.6906482287980362e-02
         - 1.2570698014212485e-02
         - 1.4208601877523729e-02
         - -3.4115195026457407e-02
         - -4.5154349962261220e-03
         - -1.6414785646703938e-02
         - 1.5586501557692121e-02
         - 1.5597420932846019e-03
         - -2.0212456082075794e-02
         - -2.8743157160118080e-02
         - 3.2175170388999322e-02
         - -2.7168970705154300e-02
         - -3.4116751157245184e-03
         - -1.1988428147782336e-02
         - 2.7559336682421783e-02
         - -3.7994687012903577e-03
         - -2.9862923154153329e-02
         - 2.5864767374946082e-04
         - -3.1379458402381412e-02
         - 3.8435360856345848e-03
         - 1.8756915235930250e-02
         - -3.6044190871130852e-02
         - -1.5273972323059305e-02
         - 3.8549306117136757e-02
         - 2.7820203015518703e-02
         - 2.7535965200690963e-02
         - 2.3007561773278992e-02
         - -3.3131784197210743e-03
         - -3.4486790820026096e-03
         - 2.0790599502348732e-02
         - -1.4952882454107501e-02
         - 2.0818186105760163e-02
         - 3.3533297482425277e-02
         - -2.3159522713889425e-02
         - -1.2973978901344102e-02
         - -2.9112210665568541e-02
         - -9.8264830613895519e-03
         - 2.8855906639098088e-02
         - -1.4272090497923964e-02
         - 3.7422002339531878e-02
         - 1.0065694225076848e-03
         - 1.0948058405515462e-02
         - -3.6683195636807019e-02
         - -4.3052411407566479e-02
         - 2.9619799548429157e-03
         - -1.2302129802165965e-03
         - -1.1211784032952891e-03
         - 2.0835669570650157e-02
         - 7.4411977541147716e-03
         - 1.1974169794393258e-03
         - -3.4781819355421802e-02
         - -2.5612882084336642e-02
         - -2.7761768471144529e-02
         - 2.6722030064189346e-02
         - 1.8228841927085893e-02
         - -2.6127138190072206e-02
         - 1.6341815887621867e-02
         - -1.0408137325970516e-02
         - 2.2033623940543475e-02
         - -1.6614388502410586e-02
         - -5.3229594967662522e-04
         - 9.3767568043764248e-03
         - 2.8243677981603640e-02
         - -7.9055166005089789e-03
         - -7.1717667367694705e-04
         - -2.8842709943220531e-02
         - 3.4596007452769167e-02
         - -1.0911908128033167e-02
         - -1.8022817518175284e-02
         - 8.5122304263852821e-03
         - 2.4706396437120238e-02
         - 1.7746819783975801e-02
         - 6.2026786939961415e-03
         - -6.6333523500837323e-03
         - 1.0933553433480198e-02
         - 3.3067357246768743e-02
         - -8.8181173386848565e-04
         - -7.6804016588559879e-03
         - 9.5936931814054327e-03
         - -2.3341300287529971e-02
         - 3.1819024742513864e-02
         - 6.9730942004179826e-03
         - 4.4327380358155186e-02
         - -3.3690605846122099e-03
         - -3.2735000605116818e-02
         - 1.5962133132575253e-02
         - -6.0242663982591690e-03
         - 5.6108135498648456e-03
         - 1.0407654724722817e-02
         - 1.2340598332289199e-02
         - -5.4015175866238951e-03
         - 2.8781095153007325e-02
         - 3.1318185335618233e-02
         - 1.1777754607567520e-02
         - 1.6903581340188219e-02
         - -2.0110008058736122e-02
         - 8.4011904553829651e-03
         - -1.5237966948109005e-02
         - -2.4615860115883799e-02
         - -4.1190174995381808e-02
         - -1.9552844745689659e-02
         - -7.7863458950430658e-03
         - -9.4967272484249403e-03
         - -1.8741986748492248e-03
         - 1.2890294774605054e-02
         - -2.4940909521997359e-02
         - -7.6196984348890712e-03
         - -7.9452199175770784e-03
         - -8.5104453019529437e-03
         - 2.7723733537816538e-02
         - 3.8104069263793894e-02
         - -2.5114466458897411e-03
         - 8.3989878954708243e-03
         - 1.5455914191604889e-03
         - 1.7261613958284062e-02
         - -7.3596251521827717e-04
         - 7.8250408598241217e-03
         - 3.0715801433161712e-02
         - -3.8669743208556130e-02
         - 1.2590244428885452e-02
         - 1.6721402771908696e-02
         - -4.0807245481105968e-03
         - -2.0205798627773816e-02
         - 6.4385408559307494e-03
         - 2.6759295614234457e-02
         - 2.1603798511700200e-02
         - -2.8662253849049212e-02
         - 1.6718299862502152e-02
         - 2.8179297959722113e-02
         - 8.8948339547902187e-03
         - -3.2666672712311829e-03
         - 3.2535991183391864e-02
         - -1.3023824104579572e-02
         - 2.7628538532392038e-02
         - 9.3006519792240266e-03
         - 1.1933686208959179e-02
         - 3.1830094533720779e-02
         - -2.1623333712068897e-03
         - -1.2151318746459533e-02
         - 3.9735094118622076e-02
         - -3.2405397489160569e-02
         - -3.1985138890781251e-02
         - 4.3722735589843652e-03
         - -3.8341625817342836e-02
         - 3.0614124619175707e-02
         - -4.2270030825050910e-02
         - 1.7051327337980406e-02
         - -6.0413105045844023e-03
         - 2.5178156056914765e-02
         - -1.5529657248036653e-02
         - 1.2118721465902970e-02
         - 2.3171676767678166e-02
         - -4.1741106560197827e-03
         - 1.7158295298157388e-02
         - -3.3219413225194852e-03
         - 2.6459108550038850e-02
         - 2.2071109297666109e-03
         - 1.0416388994951604e-02
         - 1.7110507166402618e-02
         - -3.5395999862198047e-02
         - -1.6146688814182349e-02
         - -1.5759827483576069e-02
         - 2.0471295709256387e-02
         - 1.6556756501931011e-03
         - 2.3389671778373523e-02
         - -4.4480057082384991e-02
         - -1.2086880517584660e-02
         - 2.4522432334332350e-02
         - -1.0956871363955904e-02
         - -1.8168181582214431e-02
         - 3.3825086392106998e-03
         - 1.1069119193376735e-02
         - 6.6859854427573188e-03
         - -3.1206171084140460e-03
         - 3.0565409960781949e-02
         - -2.3964134846305881e-02
         - -3.1115677364009449e-02
         - -1.8886689110275843e-03
         - 4.0113351556643429e-03
         - -1.1084082146651412e-02
         - 7.3168963439581135e-03
         - 1.2323374557406118e-02
         - 3.4106977612566300e-02
         - -9.9882309000106223e-03
         - -1.5933957262515058e-03
         - -3.7233741599339322e-02
         - 1.4659116732478689e-02
         - -3.0191620632097245e-02
         - 2.9516050278532411e-02
         - -1.7021701288356610e-02
         - 3.1761524442308238e-02
         - -2.7135386880828729e-03
         - -1.1108837243983162e-02
         - -1.1400146743025023e-02
         - -1.4492173699568010e-02
         - 3.4672817075426111e-02
         - 8.7415695609332367e-03
         - 1.4342937282734234e-02
         - -1.5310139036250125e-02
         - -2.1540953603983514e-02
         - -5.9664191466880174e-03
         - 5.4602038056308184e-04
         - 1.8003299959754197e-02
         - 2.0156873334473253e-02
         - -1.8649357533756350e-02
         - 9.4021098130624148e-03
         - 2.8176506541941336e-02
         - -1.9031824657766861e-02
         - -1.0788243429970141e-02
         - -1.5142272984476568e-02
         - 9.4485224414532653e-05
         - 1.8447357411382131e-02
         - -4.4438214154817086e-03
         - -2.4966301797211675e-02
         - 2.0407284749417918e-02
         - 2.5974260207996525e-02
         - 2.8002341353367637e-02
         - -2.1281056919114985e-02
         - 1.0496792317679814e-02
         - -1.1084534493316818e-02
         - 1.7390037319850241e-02
         - 1.2377512443903402e-02
         - -2.8969101699235798e-02
         - 6.7996978345035101e-03
         - -5.8532320131154366e-03
         - -2.4255500787747519e-02
         - -2.1449289805929309e-02
         - 3.3946799064607461e-03
         - -1.2776579315911149e-02
         - -1.8137427027691829e-02
         - -1.3072037070078210e-02
         - -2.6875949130674526e-02
         - 2.1711490042440159e-02
         - -2.1032967851783251e-02
         - 2.7239102645035571e-02
         - 2.7562743036513385e-04
         - -1.4077207204198578e-02
         - 1.9304054100777932e-02
         - 8.3460341699797217e-03
         - 3.2028072497130078e-02
         - 1.2784167191807933e-02
         - -2.9051376166950048e-02
         - -2.7617899040724061e-02
         - 2.9197103705112852e-02
         - 8.5249655684397716e-03
         - 2.1004095380845231e-02
         - -6.2232121957778407e-03
         - -2.6503236673433572e-02
         - 1.2630730454639033e-02
         - 3.2117222636167474e-02
         - -1.5163663025412524e-02
         - 2.5196648723339102e-02
         - -9.6134976253198206e-03
         - -1.6811899246384685e-02
         - 2.4184295940426391e-02
         - -1.4106002229320392e-02
         - -1.9553801712026704e-02
         - -2.9106506853568973e-02
         - -1.0229681273415123e-02
         - -2.6902700984812448e-02
         - -7.8397589096642021e-03
         - 6.1126797247398560e-03
         - 8.9126049798753260e-03
         - 6.6600748002947014e-03
         - 1.1929588981000733e-02
         - -1.1790823173762040e-02
         - 1.3833809816228539e-02
         - 1.1822746803252127e-02
         - -1.0017355016771667e-03
         - -1.2895588922756458e-02
         - 4.5145929257861348e-03
         - -1.4718569195251071e-02
         - -2.5262223991015711e-03
         - 1.7447533709424416e-03
         - 1.8340242088031422e-02
         - 2.1536985608598951e-02
         - -2.4714256222872443e-02
         - -7.4610482054498677e-03
         - 1.5897931987175318e-02
         - -2.3217168287198751e-02
         - 1.8710576835015216e-03
         - -3.0918501486395588e-02
         - 2.7779486231594881e-02
         - -3.5514588816469036e-04
         - -2.4045127319214505e-02
         - -5.7753104512961754e-03
         - -1.0598092806687198e-02
         - 2.9014811593431649e-02
         - 2.0726519581769739e-02
         - -7.4303219760227289e-03
         - -3.0873228585431471e-03
         - -2.2451909144674063e-02
         - 1.3583243733525914e-03
         - -1.7746180697956082e-02
         - -6.9829087671724275e-03
         - 2.3356879839931791e-02
         - 4.8077549244777661e-03
         - -2.2057664291384293e-02
         - -8.1116951465419408e-04
         - -8.3458632932479244e-03
         - 2.3162501170737974e-02
         - 2.8780831680020921e-02
         - 2.3337107780168193e-02
         - 3.0317670096999812e-02
         - 4.8759025485439929e-03
         - 4.0245179533830470e-03
         - -3.1423817829939055e-02
         - 1.7591711517247637e-02
         - 1.8919990830597998e-02
         - -1.3458551428287367e-02
         - -2.3833133405963134e-02
         - 2.7194864775500999e-02
         - 3.6922490859400488e-03
         - -1.6970453354173857e-02
         - 1.7484044786472062e-02
         - 1.6762091227874038e-03
         - -2.9519646779888324e-02
         - -1.1428286958315853e-02
         - 2.1976995981828888e-02
         - -1.0296500544063430e-02
         - -1.6460898907753100e-02
         - -2.9292725576649182e-02
         - -1.9802929722445257e-02
         - 3.1732972971207724e-02
         - -1.2895799671349684e-02
         - -6.2264188488986988e-03
         - 4.9843312967462880e-03
         - -1.6474262208207691e-02
         - -2.6932003435690462e-02
         - 8.5997928937250733e-03
         - -1.0468065243672942e-02
         - 5.6233253714593678e-03
         - -2.8121097051218673e-02
         - 1.8708865315267061e-02
         - 3.3994255871362372e-02
         - 2.0157206747606657e-03
         - -3.8909638530149619e-03
         - -1.6991617378653991e-02
         - -2.2700637178314539e-02
         - 1.3452925620691983e-02
         - 9.9722708521922873e-05
         - -4.4231088921460830e-03
         - -2.3777669117862738e-02
         - 2.4385040072111775e-02
         - -3.5377676377307656e-03
         - 1.8321747942210490e-02
         - -2.5547362325759451e-02
         - 1.0693926409401073e-02
         - -1.2934365385556368e-02
         - 2.0117529021070345e-02
         - 1.0446198505467229e-02
         - -2.9326911824148028e-02
         - 1.4231843841008177e-02
         - -1.1207598849419551e-02
         - -3.9457443688647870e-03
         - -2.0810309879674506e-02
         - 6.3667831948047557e-03
         - 1.0216676556487650e-02
         - -2.5392606722778297e-02
         - 1.0110469774893488e-02
         - 2.8256783823551575e-02
         - -4.9020049982140875e-03
         - -2.4736075727548618e-02
         - -1.4048316601398997e-02
         - 1.5886048187481090e-02
         - -3.5487399373048976e-02
         - 1.5591872165299390e-02
         - -1.3327836253095573e-02
         - 3.2277942080387121e-03
         - 7.1938764019811681e-03
         - 1.2722805497397684e-02
         - 8.4842834556447854e-04
         - 1.3802293839408095e-02
         - 7.2309545148605764e-03
         - -1.1789456463528572e-02
         - 2.6278227306319436e-02
         - 1.5125937982105133e-03
         - -2.6157695462253917e-02
         - -1.5891545965133185e-02
         - -2.2651014370571130e-02
         - -1.3080676589153973e-02
         - 3.0545321647308252e-02
         - 2.3888140135092027e-02
         - 7.9908983024023373e-03
         - -1.7272868086212551e-02
         - -8.4246032247472374e-03
         - 1.8246343468999879e-02
         - 4.0934177075895809e-03
         - 1.7043673770023002e-02
         - 2.7472067370662927e-02
         - 2.2979381745790530e-02
         - 6.9272554536688232e-03
         - -7.5464493598612625e-03
         - -6.8588424811436219e-03
         - -2.5624607404448749e-02
         - -6.8781405546189667e-03
         - 7.0157539321881327e-03
         - 1.8893729070901050e-02
         - -8.8119120730207577e-03
         - -1.2738307324684398e-02
         - 8.6003178928514383e-03
         - -5.3373481639574279e-04
         - -9.6508473653644667e-03
         - 9.5781698990293554e-03
         - -7.5741772891638384e-03
         - -1.7799529925228184e-02
         - 6.5760811618333342e-03
         - 1.7509654355651473e-02
         - -1.3369103769356391e-02
         - 1.3281140279684370e-02
         - 8.5932834367895988e-04
         - 8.5041231780704652e-03
         - -1.1751065614026701e-02
         - -2.0003564041518498e-02
         - 2.0685494171787163e-02
         - 2.1488787192385788e-03
         - 3.4700743850953328e-02
         - -3.0498203415314191e-02
         - 1.6375553432161370e-02
         - 3.9491187822801458e-03
         - 7.1725235580819566e-03
         - 1.3396275426333190e-02
         - 3.7807434719591051e-03
         - -1.4917092808111947e-02
         - -1.1258659044365528e-02
         - 3.2244976255185867e-02
         - 8.1448956112284106e-04
         - 2.2632942136427740e-02
         - 1.1352272745969467e-02
         - -7.7688967839963608e-03
         - 1.1746782441760942e-03
         - -2.1121348493303414e-02
         - 1.9275081994879574e-02
         - 1.9221076703926490e-02
         - -9.1992928912380356e-04
         - -1.0915723817635973e-02
         - 2.0733280052065636e-02
         - 1.7122271191027775e-02
         - -9.5832328460471079e-03
         - 2.3795093784601404e-02
         - 2.3529367023228345e-02
         - -1.1045089865247784e-02
         - -8.4823389641432659e-03
         - 3.3965400511203614e-02
         - 2.2103918812693822e-02
         - 2.6454360619511029e-02
         - -6.3588630456304631e-03
         - 4.0013453439082421e-03
         - -1.5127507664994365e-02
         - 3.0028978096694864e-03
         - 3.4190933205610036e-02
         - 1.6136786247502918e-02
         - -8.8392904992149034e-03
         - -2.8832401355563121e-02
         - -2.6311654247678454e-02
         - -2.2448064658907002e-02
         - 9.9451962208133363e-03
         - 1.5867253367630420e-02
         - -2.6181755088068716e-03
         - -2.7520337282267118e-02
         - 1.6477116775519017e-02
         - -3.2812426344412310e-02
         - -2.3063925023715539e-02
         - 2.1424315772454364e-02
         - 5.8804377427372758e-03
         - -3.2864877772068292e-02
         - -2.8798504810738885e-02
         - 5.4249736392363059e-03
         - -1.1298807598568831e-02
         - -7.3658577394649823e-03
         - 8.7502147159177184e-03
         - -2.0777600900815825e-02
         - -7.9984976374415642e-05
         - -8.3810428528496468e-03
         - -1.7280464517264105e-02
         - -2.1277894522863699e-02
         - 2.8075813358712433e-02
         - -2.0907722398895625e-02
         - -1.5204203816807574e-02
         - -1.4488613859589846e-02
         - -3.7132221356257641e-03
         - -9.0358378001790148e-03
         - -7.8992564141973053e-03
         - 2.3041295906872105e-02
         - -2.6505536415447582e-02
         - 3.6295785785093223e-04
         - 2.2432059063992031e-02
         - -3.1976789777271468e-02
         - 3.1716321170044701e-03
         - 2.0663831202439194e-02
         - 1.9010549736041014e-02
         - -2.7351688329987540e-02
         - -1.7873172004755446e-02
         - -2.2961447141545941e-02
         - 1.4839905440720296e-02
         - -7.9384020908804375e-03
         - 1.6738585693320672e-02
         - 1.1341462138341083e-02
         - -1.3649705839806705e-02
         - -1.1240195166140696e-02
         - -7.4354241775508182e-03
         - -3.6384421854918990e-02
         - 8.2427396928905997e-03
         - -4.2291668185512081e-03
         - -1.4192085633318283e-02
         - -2.4612958036390995e-02
         - 4.3332492490722550e-03
         - 2.8262779690799685e-03
         - -3.7477043442956007e-02
         - 1.3665863013027024e-02
         - 1.1187072926880041e-02
         - 2.4029851393323929e-04
         - 3.8495995953915674e-02
         - 1.6910169536750817e-02
         - 4.6717287579326888e-03
         - -3.5850134493583129e-03
         - -4.4355488249572181e-02
         - -2.7786424581356835e-02
         - 1.9176614515948008e-03
         - 1.7299620989340160e-02
         - 3.2206734765057872e-02
         - -7.4163094057260442e-03
         - -3.8885330341165911e-03
         - -4.7532734348449965e-03
         - -9.6775832817476183e-03
         - 2.1873211893107466e-02
         - 3.3192368090040537e-02
         - -2.7704856971164586e-02
         - 2.2540888984087501e-02
         - -4.3765436248293085e-02
         - -7.5768262387892679e-03
         - 8.4350271512920322e-03
         - 1.1989675001954015e-02
         - -8.5637584702840889e-03
         - 3.4810521581347655e-02
         - -3.4236810484116240e-02
         - 1.7100244380101250e-02
         - -3.3365996437233498e-03
         - 1.6312386929682756e-02
         - 1.1387335916199047e-02
         - -1.2687942917825051e-02
         - -2.1318014455636611e-02
         - -1.8363895005452685e-02
         - -1.6524668907247065e-02
         - 1.0869238048751026e-03
         - 3.5659730425425196e-02
         - -8.2193384820343548e-03
         - 2.5354882575028107e-02
         - 4.1022878776405786e-02
         - -2.7734091409834932e-02
         - -1.7571583361603766e-02
         - -3.2140081395999422e-02
         - -1.8140617657427898e-03
         - 2.8389758684277597e-02
         - -2.5945660101336239e-03
         - -2.7183475019809791e-02
         - -3.0513637504410735e-03
         - 2.2469877192899532e-02
         - -2.0863674928936872e-03
         - -2.2385406260520012e-02
         - 1.7145759633077413e-02
         - 3.0895207255248209e-05
         - -3.1497696341894407e-02
         - 1.7841276597860577e-02
         - 3.9641499828194510e-02
         - -6.6016079063362558e-03
         - 1.5313204334747412e-02
         - -3.4335971099828367e-03
         - -3.1193554336291889e-02
         - 3.1657581170644348e-03
         - -1.7053021961556402e-02
         - 1.3816349367694433e-03
         - -2.8220345241711700e-02
         - -3.1677496502165378e-02
         - 1.0088520178381973e-02
         - 2.1011047571866875e-02
         - -1.7907275285200530e-02
         - 4.9022810438086595e-03
         - -4.9898690373468314e-03
         - -1.5239473945904282e-02
         - -3.1320467719739273e-02
         - 1.0957217963979348e-02
         - -5.6023032021106116e-03
         - -6.0204567373073475e-03
         - -3.1207280477770508e-02
         - 1.9193029896655129e-02
         - -3.1425379830595054e-02
         - 2.9203927931155699e-02
         - 1.0692807319926901e-02
         - -1.5916262857450919e-03
         - -2.9689100033531469e-02
         - -2.3523664052855772e-02
         - 1.0668461435139755e-02
         - 2.9061044814407903e-02
         - 1.9978113869679702e-02
         - 2.2954865939491965e-03
         - -9.4504967982683690e-03
         - 5.0929447048539359e-03
         - 1.1940878463331155e-02
         - -2.4180236797711696e-02
         - 2.0590149482146519e-02
         - 1.6835336224681224e-02
         - -1.9859911915450484e-02
         - 3.3291094464649022e-04
         - 1.8440312943400133e-02
         - 2.2838945633177243e-02
         - -2.1223998250511866e-02
         - 1.0831134013815269e-02
         - -7.8846245905572453e-03
         - -5.4198678262653279e-03
         - 1.4661304212572937e-02
         - -2.2203790613199312e-02
         - 7.0944085688124789e-03
         - -2.4440192705933936e-02
         - 9.7265670970900376e-03
         - 3.2673770451814764e-02
         - 1.8168407567766387e-02
         - -2.6686415091389557e-02
         - 1.2140854242278376e-02
         - 3.4355325046501003e-02
         - -7.9859115580224217e-03
         - 2.4604538140746996e-03
         - 1.1261262411457350e-02
         - -4.6661466753662719e-03
         - -1.0224305498481813e-03
         - 2.9785402520716136e-02
         - 6.9268795392627962e-03
         - 4.0526317121025474e-02
         - -1.1351288295718980e-02
         - 2.5051599887601192e-03
         - 1.8540551310693592e-03
         - 3.8687748913789795e-02
         - 2.7441821461507782e-02
         - 1.3374039787583718e-02
         - 3.0726163455963278e-02
         - -3.2231594312765337e-02
         - 1.4083864614609717e-02
         - 2.1358252641677289e-02
         - 3.0191631260030671e-02
         - 1.2652069880173897e-02
         - -4.9402378748940063e-03
         - -2.9880749513338543e-02
         - 2.5851803692385450e-03
         - 7.9532195743910235e-03
         - 3.6617001518823716e-02
         - 7.6794779476651188e-03
         - 4.0937475063865976e-03
         - 2.8236770659605979e-02
         - 2.2005315011135184e-02
         - -5.9306350414574174e-03
         - 2.8182157394112190e-02
         - 1.3868890635666663e-02
         - 6.3449480452248833e-03
         - -1.8264724579678013e-02
         - 1.1837604686302136e-02
         - -2.4717637240307164e-02
         - 1.6168170517746060e-02
         - -1.9384856199499204e-02
         - -4.0719226061548455e-03
         - -1.2674776121357850e-02
         - -2.1021250853344931e-02
         - 3.3335548726940926e-03
         - -8.9800706215073488e-03
         - 1.1500635559181561e-02
         - 1.5641567720015143e-02
         - -9.3002473818662879e-03
         - 2.5388669483787926e-02
         - -1.5448916749616986e-03
         - -1.9098147918243553e-02
         - -1.0789671160805197e-03
         - -2.3975020372700582e-02
         - -1.2056935125607370e-02
         - -1.5064979061252655e-02
         - -6.1578775528813370e-04
         - 2.3180021895230971e-02
         - -2.4335813349512764e-02
         - 4.4542769466733214e-03
         - 7.4430568664309539e-03
         - -3.8033205942778988e-03
         - 7.6473957006657264e-03
         - 2.3175925166232316e-02
         - 2.9473877829073059e-02
         - -1.5483518237008533e-03
         - -8.9438479082148807e-04
         - 1.5144175089777312e-02
         - 6.2625606695065582e-03
         - -5.4533583280988347e-03
         - 1.7829300671011180e-02
         - -2.1046460301566514e-02
         - 1.4639735895154134e-02
         - -1.2750556587906779e-02
         - 9.6671849593698220e-03
         - 3.0885395327032460e-02
         - -2.6210377509801801e-02
         - -2.9092374845447203e-02
         - 2.7255431091070596e-02
         - -1.6109443742843139e-02
         - -2.6350644773125665e-03
         - -8.8328114686748692e-03
         - 3.7196639052952098e-02
         - 3.2752634003865848e-02
         - -2.9101099357377737e-02
         - -6.3241091087579589e-03
         - 3.7090862478260732e-02
         - 3.3140512474280816e-03
         - -1.0126231446361125e-02
         - 3.3053449886796585e-03
         - 1.2205459858515424e-02
         - -9.0613399785646372e-03
         - 1.3223110680259094e-02
         - -2.8800342349881585e-02
         - -9.6597237302723446e-03
         - -1.9514609382994052e-02
         - -2.6659306950054532e-02
         - -2.1684311638197074e-05
         - 2.2310829369186692e-02
         - 2.7613302663136983e-03
         - 1.8975358836822248e-02
         - 3.0796260069923913e-02
         - 1.0325439622248030e-03
         - 1.8981536294078470e-02
         - 3.3295301613622375e-02
         - -3.0202283034220449e-02
         - 1.3239095589152329e-02
         - -2.3636302789491592e-02
         - -2.8744736795666755e-02
         - -2.8007346763812179e-02
         - -1.5626399319012104e-02
         - -1.0000628910132651e-02
         - -1.7256634903974873e-03
         - -2.1253036544243487e-02
         - -8.5493990447458972e-03
         - 4.0660009191622699e-03
         - -1.4886847484457752e-02
         - -2.5832879455516294e-02
         - 2.6734655177581106e-02
         - 4.5501971699628170e-03
         - 2.3420920507104424e-03
         - -1.9581108862057266e-02
         - 3.2850166173526043e-03
         - -1.7589488135334969e-02
         - 2.9719682906090179e-02
         - 8.6210191532774243e-03
         - 9.3944218734618324e-03
         - -3.1641350706557832e-02
         - 1.2310605274101284e-02
         - -6.8022348244446678e-03
         - -9.1284151682320576e-03
         - -2.4397853556165049e-02
         - -2.8167040278906267e-02
         - 3.8163248017302781e-02
         - -4.5457047319735332e-03
         - 1.0277413537189648e-02
         - -9.7702003950009991e-04
         - -1.4670295667040152e-02
         - -9.0560135112594566e-03
         - 1.7506118324447161e-02
         - -1.5769431554256096e-02
         - 1.7006253398361971e-02
         - -1.4126165795145921e-02
         - -2.8740555925192764e-02
         - 8.8152233819888959e-03
         - -3.8808754474716350e-02
         - -1.1226846051965951e-02
         - -6.6815907818427722e-03
         - 2.6451701668339541e-02
         - -9.6604282309441739e-03
         - 1.4399099558125746e-02
         - -2.9115545912679754e-02
         - 2.8719112193220077e-02
         - 1.1106384730419314e-02
         - 1.0156866803522161e-02
         - -1.1690662083715759e-02
         - 7.4260117377745766e-04
         - -3.0036081273582933e-02
         - -2.3041906835658439e-02
         - 3.1429280101908597e-02
         - -9.7696135117958886e-03
         - -2.2641081620630971e-02
         - 1.4393177259568440e-02
         - -2.4616632928975608e-02
         - -2.0712050775504344e-02
         - -4.0006218495250448e-02
         - -2.9616239349683403e-02
         - 3.6827311727809300e-02
         - 6.5918883731810665e-03
         - 2.6916380246482192e-02
         - -1.3853211942948434e-02
         - -2.6869700398345915e-02
         - -1.0997601117066921e-02
         - 9.8420785783886675e-03
         - 9.1784964711338572e-03
         - -3.2360837329703615e-02
         - -2.3458657004791435e-02
         - 6.7359893393890390e-03
         - 3.9680553248532596e-03
         - -1.0507636980608349e-02
         - -1.5874395138085338e-02
         - -1.5849165062363928e-02
         - -1.9463801692013800e-02
         - -4.9944655001100645e-03
         - -1.4907822744767638e-02
         - -2.2456398564587296e-02
         - -2.8477329426536430e-02
         - 3.4713931874863581e-02
         - -1.7148439582206840e-02
         - -3.3466100870850005e-03
         - -2.9531492509832125e-03
         - 6.1124570025587925e-03
         - 2.2619987170118396e-02
         - 3.6121431615114108e-02
         - 3.9371093556446728e-03
         - -3.0475759353101792e-02
         - -5.6141841638668744e-03
         - 2.9612672155939494e-03
         - 4.7082191529730900e-02
         - -3.0388093384477437e-02
         - 1.1744017705100964e-02
         - -2.9262337841932634e-02
         - 6.8224249039271403e-03
         - -3.6251299051794694e-02
         - -3.0039028688163358e-02
         - -1.8237499807117391e-02
         - 4.6617679095417405e-02
         - 2.7171275839477291e-02
         - 1.5137872105793980e-02
         - 4.2667238494221420e-03
         - 5.0592017036841470e-02
         - -1.3122598629855084e-02
         - 1.0313928722205544e-02
         - -3.1077766658865816e-02
         - 2.4216251824149869e-03
         - 1.0427900567415399e-03
         - 3.7232459987435067e-02
         - -8.6770349427572561e-03
         - -2.9537193480806925e-02
         - 2.0567386489521604e-02
         - -1.2533392050374712e-02
         - 3.2708847256399332e-02
         - -3.6512593264838278e-03
         - -3.3494787960998092e-02
         - 1.7652455976535180e-02
         - -3.1947227881036828e-02
         - -3.6651792211350384e-02
         - 5.2290045144202012e-02
         - -5.2625166664262311e-03
         - 1.6530041927202348e-02
         - 2.2663194050743789e-02
         - 3.3307106179247703e-02
         - 1.5073001231506993e-02
         - -1.8451015207414226e-02
         - -8.4705296540941930e-03
         - 2.7984823453549496e-02
         - 2.9724420800667652e-02
         - 2.4610973710079711e-03
         - 4.5019940639296156e-03
         - 2.2209901858124787e-02
         - -1.6076412676601669e-02
         - -1.6234661988901482e-02
         - -7.2594877948944101e-03
         - 2.7273295242697727e-03
         - 1.2862249164555993e-02
         - 2.0592365133481963e-02
         - 3.2346797562571701e-02
         - 4.0979217674086306e-03
         - -1.8929210811642113e-02
         - 3.2868741891017621e-02
         - 2.5265787319385644e-02
         - 9.1542051365459693e-03
         - 9.0298278205394374e-03
         - -1.7441690792151909e-02
         - -9.4487080243913987e-03
         - 2.9359126356569488e-02
         - 7.6992537491430034e-03
         - -2.7517712806163228e-03
         - -2.2694715092251603e-02
         - -2.2088474545991759e-02
         - 3.3900304548041056e-02
         - -3.8757232581248160e-03
         - -1.0059796470241968e-02
         - 3.5502362372396082e-02
         - -2.8472037705212193e-02
         - 2.6693780778727232e-02
         - -2.5566944854303283e-03
         - -5.1591537424984903e-04
         - -2.9501562561038142e-03
         - -9.2768836670501838e-03
         - -4.4023948325707844e-04
         - 2.0116305076322460e-02
         - 2.1396858851858319e-03
         - -1.7238236636309950e-02
         - 1.3096704467339458e-02
         - -1.5537846263020193e-02
         - 2.4466685837429159e-03
         - -2.0953438567016251e-02
         - 6.7214133167589878e-03
         - -3.9878305563436342e-02
         - 2.1350350911034776e-02
         - -2.6027959317672766e-02
         - -2.4122836474975873e-02
         - 2.0720376761907484e-02
         - 2.8764414607211131e-02
         - -1.6130095321873920e-02
         - 1.0655955024248747e-02
         - 6.7495694661828219e-03
         - 2.4275619179108539e-02
         - -2.4753918209743851e-02
         - -2.0941341805984653e-02
         - 7.7658935816054802e-03
         - -2.4346066421722212e-02
         - 5.7344797709067870e-03
         - -1.0011878026531302e-02
         - -2.7172251445546948e-02
         - -1.7754404599314461e-02
         - -3.1657522711658849e-03
         - -7.9075601186225867e-03
         - 4.5617814495998278e-03
         - 1.0533725312129321e-02
         - -1.7661721779406076e-02
         - -2.1928225033449326e-02
         - 2.8114493133754793e-02
         - -1.9589378998906004e-02
         - -1.5400652336569712e-02
         - -2.9829075381380021e-02
         - 8.9953323597594852e-04
         - -1.8263029045116886e-02
         - 2.8990886017861484e-02
         - 2.8502548321922790e-02
         - 1.5160320001819407e-03
         - -1.8509714605096827e-02
         - 6.3388479182847884e-03
         - 1.2382828454678257e-02
         - -8.3691501961011255e-03
         - 3.4782597508703633e-02
         - 1.2191062223145666e-02
         - -6.0114947402327623e-03
         - -1.4057489221521037e-02
         - -2.5393393733191948e-02
         - -1.3296560806193797e-03
         - -2.5036155092568409e-02
         - -8.1178791816029962e-03
         - -2.6217854628094350e-02
         - -2.7297431089960630e-02
         - -7.4036041260554927e-03
         - 2.2926652962692477e-02
         - -3.7553533076781963e-02
         - -1.3823909918953837e-02
         - 1.2519816737425518e-02
         - 2.0043320066675464e-02
         - 1.3262322398052005e-03
         - -2.6379287245103114e-03
         - -5.3401046941076221e-03
         - 1.3265017877892778e-02
         - -2.4173017503229921e-02
         - -2.6362710776343674e-02
         - 2.9738027234034164e-02
         - -1.6880636757070695e-02
         - -2.3060268538934042e-02
         - -9.1465999150424811e-03
         - -3.2994802929985044e-02
         - -1.2880841629081171e-02
         - -4.1456686486839797e-03
         - 2.1216657526171936e-02
         - -2.4594275570845193e-03
         - 4.1359098238528395e-02
         - 2.2355773345259585e-03
         - 1.2437685619604379e-02
         - 2.9916835632067706e-02
         - -1.6574087666800671e-02
         - -2.6668265035712558e-02
         - -1.5816744951216197e-02
         - 2.9616411216191130e-02
         - 4.5305362045804445e-03
         - -3.2896546018385861e-02
         - 4.0431306107232929e-03
         - 2.1138754366385688e-02
         - 2.2866485212673742e-02
         - 2.3643676328107620e-02
         - 1.7996491330357189e-02
         - 7.8908556230640134e-04
         - 1.0966594523798636e-02
         - -8.2688737054386167e-03
         - 3.6269171249867990e-02
         - 1.1384507778131152e-02
         - -9.3147389788315171e-03
         - 2.7322103239256632e-02
         - 3.1151624793108828e-02
         - -1.2169544462315430e-02
         - 2.4671209041515534e-02
         - -8.2130675423732636e-03
         - -1.7106083990675563e-03
         - -1.1812123468967147e-02
         - 1.0005223847890262e-02
         - -5.6287778309088302e-03
         - 1.7794628792931977e-02
         - -1.7717888781849524e-02
         - -2.6576725117789538e-02
         - 2.5851618682802752e-02
         - 1.8675351093876465e-02
         - -8.9750086456252976e-03
         - 2.5186233176926694e-02
         - 2.0228158269311021e-02
         - -2.3333045933043209e-02
         - -2.9120281990060351e-02
         - -2.0724663826801781e-02
         - 6.5135253415173379e-03
         - 3.0815480059932527e-03
         - 2.7717524450205252e-02
         - -2.5145894690999898e-02
         - 3.4286944448483431e-02
         - 1.2391260903575941e-02
         - -1.4700401139772773e-02
         - -1.3198800227002377e-02
         - 1.9093750722040743e-02
         - -6.0683192780755747e-03
         - -1.1730839643900811e-02
         - 2.5654616148397112e-02
         - -1.6237508511872261e-02
         - -2.6346216679476533e-02
         - -3.2089608763978903e-03
         - 2.8533144190088830e-02
         - 2.8480686077059004e-03
         - 1.1145082018005813e-02
         - -2.5845192636560689e-02
         - 1.9563914897296003e-02
         - 1.1884937705116458e-02
         - 8.0715190453379201e-03
         - 7.1145564141890287e-03
         - -1.5841554344149820e-02
         - -1.9578061332133856e-02
         - -1.6763375864383333e-02
         - 1.5703588694754574e-02
         - -1.6618911201921847e-02
         - 2.2173695347497129e-02
         - -3.2701304367620601e-03
         - 1.4674919077638791e-02
         - 2.3294444009975854e-02
         - 1.0356082838422074e-02
         - 1.4696711088413113e-02
         - -4.9525943126954115e-03
         - 1.0666439286757893e-02
         - -2.5784109498072635e-02
         - 1.5321414538200295e-02
         - 7.2021412640526639e-03
         - 2.6915409522591072e-02
         - -1.4496599285206703e-02
         - -2.4115290970042485e-02
         - 1.5443891423280027e-02
         - 2.8080533973707775e-02
         - 1.7813004451792597e-02
         - 2.9169403081355839e-02
         - -6.3959583094863057e-03
         - 1.9146765597130223e-02
         - 8.3118643982929372e-03
         - -1.3141628655758728e-02
         - 1.5012488261696393e-02
         - 1.8659537811752155e-02
         - 1.7261273924729420e-04
         - -2.2804843894562738e-02
         - -1.8101640712531231e-02
         - -2.8934617215075842e-02
         - 7.4346688454765475e-03
         - 2.2062455565302233e-03
         - 1.3354010854144822e-02
         - 1.5516183116324850e-02
         - 1.8307536286686368e-02
         - -2.1813250472729532e-02
         - 1.7166304444675484e-02
         - 2.7959334223671757e-02
         - 2.7747642017611939e-02
         - 1.6693148070271415e-02
         - 1.1702136213682735e-03
         - -2.4615997184647968e-02
         - -2.3392521187300268e-02
         - -1.1540448278780422e-02
         - 2.3098895412415821e-02
         - -2.1381643344488218e-02
         - 4.6427757414222890e-03
         - -1.2128338404636650e-02
         - -1.7785365321423659e-02
         - -2.2940841422443316e-02
         - 2.2086746597533239e-03
         - 1.3605494477933874e-02
         - 1.0871773373860171e-02
         - 8.8324293774620938e-03
         - 1.7963803868533221e-02
         - -3.5231605912537335e-03
         - 6.7967196455231329e-03
         - -1.8057986438116246e-02
         - -1.9976944851691450e-02
         - -2.5374266921596004e-02
         - -5.7501114961658302e-03
         - 3.9038197673747551e-03
         - -3.6577413528487155e-03
         - 6.8580842170103465e-04
         - 5.2787745349110043e-03
         - 2.1229792943485370e-02
         - -1.8065940943570058e-02
         - -2.5751285313277094e-02
         - -1.7059481031382967e-02
         - -1.3088429039825643e-03
         - 1.6569615167774887e-02
         - 3.4513345867140124e-03
         - -2.7467952438417872e-02
         - -1.4514971716231959e-02
         - -2.0321297143817425e-02
         - -1.9409788709219473e-03
         - -2.5569056635187444e-02
         - 1.7825581866132784e-02
         - 7.2985467975234530e-03
         - -1.3693067783731009e-02
         - 2.8682617809805223e-02
         - 3.9250241206541759e-03
         - 2.2577511613968374e-02
         - -2.4394554797459167e-02
         - 2.5553550495579121e-02
         - -2.3417271540314394e-02
         - 2.1658345701594157e-02
         - -3.8169933308821028e-03
         - -2.5858866878816104e-02
         - 1.1393523192681750e-02
         - 2.9614450813867998e-02
         - 1.4048948389412825e-02
         - 3.0791201236750384e-02
         - -1.9451587751202138e-02
         - -1.2054342094001320e-02
         - 1.5801017107934415e-02
         - -1.6355628659313025e-02
         - 1.1350188439646643e-02
         - -2.0304979105740511e-02
         - -1.8110825145433575e-02
         - 2.2008404728029920e-02
         - -2.9199806355919167e-03
         - 8.7081192747929699e-03
         - 6.9252399685713929e-03
         - -2.7242575631169122e-02
         - -2.8868748151840807e-02
         - -2.1568659246685204e-02
         - 1.6362771940166339e-02
         - -1.7061812661496683e-02
         - 3.6437974921886356e-03
         - 2.2683441465932482e-02
         - -8.7842949720371554e-03
         - 1.6742402603775436e-02
         - -3.2144894326460852e-02
         - -2.8290541155080614e-02
         - 8.7951274099019455e-03
         - 1.1265115625600163e-02
         - -1.0529498098876907e-02
         - -1.4102728321946803e-02
         - -3.4922997216184526e-02
         - 7.0226356006367974e-03
         - -1.3439252476317647e-02
         - -2.5703772540943089e-02
         - -2.8028170016629533e-02
         - 1.6240787025945089e-02
         - -8.1951480554128108e-03
         - 2.8312997219946019e-02
         - -1.6699248758524490e-02
         - 2.3620854982711204e-02
         - -7.0610841085264053e-03
         - -8.4399954361758390e-04
         - 7.5958385353049234e-03
         - 3.1356940006553854e-02
         - -5.2037948385271040e-03
         - -2.8484509370361101e-02
         - 1.8028428764129408e-02
         - -9.4707982140916757e-03
         - -3.9019646204918267e-03
         - 1.7931246843912247e-02
         - 2.3131894025356956e-02
         - -7.0375431398352704e-03
         - -1.2191420212903021e-02
         - 7.9644658072597803e-03
         - 6.4489789959414146e-03
         - 2.5994327187094664e-02
         - -2.5852378007156319e-02
         - 3.3469579368591004e-02
         - 2.8899723308329593e-02
         - -9.0795727757114163e-03
         - -1.9197375564459489e-02
         - 2.3347925139775755e-02
         - -1.5733136913554026e-02
         - 3.3329152712467829e-02
         - 5.0164302292859510e-03
         - -2.4038526110516815e-02
         - 2.1802238916884639e-02
         - 9.8864121883687258e-03
         - 2.4929379706403337e-02
         - 2.8334677466813639e-02
         - 2.6403079237423022e-02
         - 2.6915590752211675e-02
         - -2.1636751627124605e-02
         - -1.2645573851665774e-03
         - 2.2249658355071481e-02
         - 1.4177004386302575e-02
         - -1.2325808358169621e-02
         - 1.7503827050250123e-03
         - -3.0683090683085546e-02
         - 5.8784008738074992e-03
         - -2.6290664714337445e-02
         - 2.2407405781311625e-02
         - 8.2993821703435059e-03
         - -8.9522888011844392e-03
         - 2.5647069639704621e-02
         - -2.4012384224319540e-02
         - -1.3247932516422648e-02
         - -3.4615700269324687e-02
         - 9.3790039840318338e-03
         - 1.8337472572179875e-03
         - 3.4588012806729261e-02
         - -2.0571984877210216e-02
         - 9.6656871306483802e-03
         - 4.3684523733604954e-03
         - 2.9743615552949115e-02
         - 1.4742581003798496e-02
         - -4.3696846851833315e-03
         - -8.0570281355334932e-03
         - 2.2022183864839732e-02
         - -2.3851470694563948e-02
         - 2.3722521034295358e-02
         - 1.9891810805442667e-02
         - 8.9852582720143358e-03
         - 1.8359569794709922e-02
         - 3.3977210766791611e-03
         - -1.0185944875116414e-02
         - 1.5594599298449006e-02
         - 4.2826261368821172e-02
         - -2.7095621854657800e-02
         - -2.9361274830319434e-02
         - 6.3499467050766247e-04
         - -2.7443517106464286e-02
         - -1.4261647020591104e-02
         - 2.8385827932275322e-02
         - 2.2553018526734560e-02
         - 1.9211777189232710e-03
         - -1.0599684958946073e-02
         - -2.9084946276239209e-02
         - -2.6346846930061993e-02
         - 1.6178863675231230e-02
         - 8.6083014115249171e-03
         - -2.1167148455073684e-02
         - -4.3112472084592283e-02
         - -1.3245481622568663e-02
         - -6.5277075669973829e-03
         - 1.4937723956943184e-02
         - -2.1478521325008704e-02
         - -1.1975982045671954e-02
         - 2.5534343189028589e-02
         - 6.3648767269782630e-04
         - -2.6978341078960414e-02
         - -8.6845837786047129e-03
         - -2.1205748458174020e-02
         - 3.9584511687107783e-02
         - 1.2741968876590860e-03
         - -6.2662940102133921e-03
         - 2.2091032445264964e-02
         - 1.0130726554583734e-02
         - -2.3341478575278192e-02
         - 1.2413420064715207e-02
         - 3.4804024814049740e-02
         - 1.6774287167198802e-03
         - -1.4183349974556480e-02
         - 1.7872696757595223e-02
         - 9.4218427037434469e-03
         - -2.6070822779063745e-02
         - 2.5308585397680904e-02
         - -2.7401064508004863e-02
         - -2.3542315731348167e-02
         - -3.2948721661175116e-03
         - 1.6756505573895707e-02
         - -2.0105488947629185e-02
         - -1.5952857539152199e-02
         - -4.0354898907403784e-02
         - 1.7414767612646920e-02
         - -7.0596184486987172e-03
         - 9.6130024139207022e-03
         - 2.6519612137482812e-03
         - 1.0426141685249751e-02
         - 2.0592533370713137e-02
         - -9.5965496512167292e-03
         - 1.9024891962167823e-02
         - 2.9545059257839311e-02
         - -1.9311692943846066e-02
         - -3.9865104790244840e-02
         - 9.6115410241655198e-03
         - 1.9544068551374697e-02
         - 2.7847163565825117e-02
         - 3.4644081758315098e-02
         - 3.2860989500616555e-02
         - -1.3761296195989890e-02
         - -2.0513938007354571e-02
         - 2.6665438239773371e-02
         - 4.4441906420866553e-03
         - 2.3220058616050008e-02
         - -1.6911646140733223e-02
         - 1.5273123028701353e-02
         - -1.9231696428882446e-02
         - -2.4419183611078730e-02
         - -2.3049295398445191e-02
         - -9.4289983635863373e-03
         - -1.4927250075008006e-02
         - -2.2245415121723650e-02
         - 2.5756385290282489e-02
         - -3.0005236351541877e-02
         - 6.3602504194886509e-03
         - -1.8050562287716263e-02
         - 2.6611484206485486e-02
         - 2.6084998556791326e-02
         - -4.8867511454747537e-03
         - -1.1647263168167226e-02
         - -1.8799075776170984e-02
         - -3.2174847353945060e-02
         - -1.3675616723000413e-02
         - -2.5917414869065038e-02
         - 2.6724298358766857e-02
         - -3.5859382438576770e-03
         - -1.1356932561529804e-02
         - -2.7881087216938251e-02
         - 2.8258702151407265e-02
         - 1.0721299429681506e-02
         - 5.3573348970468787e-03
         - -4.6656022003287693e-04
         - -2.1218706717172934e-03
         - 2.6255859834823925e-02
         - -1.4854888568082156e-02
         - 1.0302365539650018e-02
         - -9.7149596785116293e-03
         - 1.3049909673135606e-02
         - -2.1134735674497362e-02
         - -2.4047887318146163e-02
         - 8.8397573241389884e-03
         - 1.9976212479457460e-02
         - -2.6052200736173231e-02
         - 1.1071538161543227e-02
         - 2.7361208491797972e-02
         - -2.2071269640448875e-02
         - -1.5980169013635075e-02
         - -1.2668859048786034e-02
         - 8.7581256912055657e-04
         - 2.6099871394969765e-02
